{"learner":{"attributes":{"scikit_learn":"{\"_estimator_type\": \"regressor\"}"},"feature_names":[],"feature_types":[],"gradient_booster":{"model":{"cats":{"enc":[],"feature_segments":[],"sorted_idx":[]},"gbtree_model_param":{"num_parallel_tree":"1","num_trees":"50"},"iteration_indptr":[0,1,2,3,4,5,6,7,8,9,10,11,12,13,14,15,16,17,18,19,20,21,22,23,24,25,26,27,28,29,30,31,32,33,34,35,36,37,38,39,40,41,42,43,44,45,46,47,48,49,50],"tree_info":[0,0,0,0,0,0,0,0,0,0,0,0,0,0,0,0,0,0,0,0,0,0,0,0,0,0,0,0,0,0,0,0,0,0,0,0,0,0,0,0,0,0,0,0,0,0,0,0,0,0],"trees":[{"base_weights":[-2.1192763E-7,7.7189744E-1,-2.242179E0,3.1015465E0,-5.287071E-1,-3.0437694E0,1.9255219E0,5.30978E0,8.188705E-1,2.292078E-1,-1.0671597E0,-4.240785E0,-5.56918E-1,1.3031195E-1,-2.91574E-3,-1.6810973E-1,3.2565984E-1,1.1038595E-1,-2.0417908E-1,-9.845252E-2,1.2241631E-1,-2.719653E-1,-1.0678568E-1,3.629589E-2,-2.0634833E-1],"categories":[],"categories_nodes":[],"categories_segments":[],"categories_sizes":[],"default_left":[0,0,0,0,0,0,0,0,0,0,0,0,0,0,0,0,0,0,0,0,0,0,0,0,0],"id":0,"left_children":[1,3,5,7,9,11,13,15,17,-1,19,21,23,-1,-1,-1,-1,-1,-1,-1,-1,-1,-1,-1,-1],"loss_changes":[1.4192007E2,1.8646689E2,7.6017395E1,1.0654697E2,1.1501339E2,5.1220627E1,5.553709E0,1.3669467E2,9.072055E1,0E0,1.221325E2,1.865886E1,3.505434E1,0E0,0E0,0E0,0E0,0E0,0E0,0E0,0E0,0E0,0E0,0E0,0E0],"parents":[2147483647,0,0,1,1,2,2,3,3,4,4,5,5,6,6,7,7,8,8,10,10,11,11,12,12],"right_children":[2,4,6,8,10,12,14,16,18,-1,20,22,24,-1,-1,-1,-1,-1,-1,-1,-1,-1,-1,-1,-1],"split_conditions":[9.492109E-1,-6.242505E-1,8.4578514E-1,-4.1152823E-1,-1.5437655E0,1.41051E0,1.5999178E0,-1.7603983E0,6.6561013E-1,2.292078E-1,4.200484E-1,6.8706703E-1,1.0111932E0,1.3031195E-1,-2.91574E-3,-1.6810973E-1,3.2565984E-1,1.1038595E-1,-2.0417908E-1,-9.845252E-2,1.2241631E-1,-2.719653E-1,-1.0678568E-1,3.629589E-2,-2.0634833E-1],"split_indices":[2,1,1,2,2,2,1,2,3,0,2,3,0,0,0,0,0,0,0,0,0,0,0,0,0],"split_type":[0,0,0,0,0,0,0,0,0,0,0,0,0,0,0,0,0,0,0,0,0,0,0,0,0],"sum_hessian":[8E1,6E1,2E1,2.1E1,3.9E1,1.7E1,3E0,1E1,1.1E1,3E0,3.6E1,1.1E1,6E0,2E0,1E0,1E0,9E0,9E0,2E0,2.9E1,7E0,6E0,5E0,5E0,1E0],"tree_param":{"num_deleted":"0","num_feature":"6","num_nodes":"25","size_leaf_vector":"1"}},{"base_weights":[-1.2900741E-3,7.384981E-1,-2.1501372E0,2.9493673E0,-4.9594244E-1,-2.92207E0,1.8610947E0,5.058614E0,7.7011085E-1,2.2061248E-1,-1.0131539E0,-4.0603085E0,-5.533653E-1,1.2596822E-1,-2.8428554E-3,-1.6390698E-1,3.1100518E-1,1.3892964E-1,-1.2987411E-1,-9.369399E-2,1.1706058E-1,-2.6030967E-1,-1.02336265E-1,3.4783565E-2,-2.0118962E-1],"categories":[],"categories_nodes":[],"categories_segments":[],"categories_sizes":[],"default_left":[0,0,0,0,0,0,0,0,0,0,0,0,0,0,0,0,0,0,0,0,0,0,0,0,0],"id":1,"left_children":[1,3,5,7,9,11,13,15,17,-1,19,21,23,-1,-1,-1,-1,-1,-1,-1,-1,-1,-1,-1,-1],"loss_changes":[1.3035289E2,1.679431E2,7.046268E1,9.722928E1,1.0601324E2,4.6283875E1,5.1933613E0,1.269039E2,8.838234E1,0E0,1.11213135E2,1.7032364E1,3.3142067E1,0E0,0E0,0E0,0E0,0E0,0E0,0E0,0E0,0E0,0E0,0E0,0E0],"parents":[2147483647,0,0,1,1,2,2,3,3,4,4,5,5,6,6,7,7,8,8,10,10,11,11,12,12],"right_children":[2,4,6,8,10,12,14,16,18,-1,20,22,24,-1,-1,-1,-1,-1,-1,-1,-1,-1,-1,-1,-1],"split_conditions":[9.492109E-1,-6.242505E-1,8.4578514E-1,-4.1152823E-1,-1.5437655E0,1.41051E0,1.5999178E0,-1.7603983E0,-2.9606777E-1,2.2061248E-1,4.200484E-1,6.8706703E-1,1.0111932E0,1.2596822E-1,-2.8428554E-3,-1.6390698E-1,3.1100518E-1,1.3892964E-1,-1.2987411E-1,-9.369399E-2,1.1706058E-1,-2.6030967E-1,-1.02336265E-1,3.4783565E-2,-2.0118962E-1],"split_indices":[2,1,1,2,2,2,1,2,0,0,2,3,0,0,0,0,0,0,0,0,0,0,0,0,0],"split_type":[0,0,0,0,0,0,0,0,0,0,0,0,0,0,0,0,0,0,0,0,0,0,0,0,0],"sum_hessian":[8E1,6E1,2E1,2.1E1,3.9E1,1.7E1,3E0,1E1,1.1E1,3E0,3.6E1,1.1E1,6E0,2E0,1E0,1E0,9E0,7E0,4E0,2.9E1,7E0,6E0,5E0,5E0,1E0],"tree_param":{"num_deleted":"0","num_feature":"6","num_nodes":"25","size_leaf_vector":"1"}},{"base_weights":[-1.2972443E-3,8.305718E-1,-1.7929652E0,2.8619566E0,-3.7747416E-1,-2.2978435E0,2.8437157E0,4.819055E0,6.4468E-1,-1.1064276E0,2.8653798E-1,-5.777925E-1,-3.969745E0,1.6849339E-1,4.4785287E-2,-1.598093E-1,2.9700992E-1,1.3285148E-1,-1.7705946E-1,2.1233952E-1,-8.916545E-2,-1.0157764E-1,1.07726745E-1,-9.226087E-2,-2.611831E-1],"categories":[],"categories_nodes":[],"categories_segments":[],"categories_sizes":[],"default_left":[0,0,0,0,0,0,0,0,0,0,0,0,0,0,0,0,0,0,0,0,0,0,0,0,0],"id":2,"left_children":[1,3,5,7,9,11,13,15,17,19,-1,21,23,-1,-1,-1,-1,-1,-1,-1,-1,-1,-1,-1,-1],"loss_changes":[1.22214264E2,1.3850467E2,6.7399345E1,8.802127E1,1.6663493E2,6.6724464E1,5.6438446E-2,1.178345E2,1.0206678E2,1.27148636E2,0E0,5.601499E1,2.232898E1,0E0,0E0,0E0,0E0,0E0,0E0,0E0,0E0,0E0,0E0,0E0,0E0],"parents":[2147483647,0,0,1,1,2,2,3,3,4,4,5,5,6,6,7,7,8,8,9,9,11,11,12,12],"right_children":[2,4,6,8,10,12,14,16,18,20,-1,22,24,-1,-1,-1,-1,-1,-1,-1,-1,-1,-1,-1,-1],"split_conditions":[6.442654E-1,-6.242505E-1,1.3645382E0,-4.1152823E-1,4.200484E-1,9.7530484E-1,3.4784457E-1,-1.7603983E0,-2.9606777E-1,-1.5437655E0,2.8653798E-1,7.426335E-1,-1.1041417E0,1.6849339E-1,4.4785287E-2,-1.598093E-1,2.9700992E-1,1.3285148E-1,-1.7705946E-1,2.1233952E-1,-8.916545E-2,-1.0157764E-1,1.07726745E-1,-9.226087E-2,-2.611831E-1],"split_indices":[2,1,4,2,2,5,0,2,0,2,0,3,4,0,0,0,0,0,0,0,0,0,0,0,0],"split_type":[0,0,0,0,0,0,0,0,0,0,0,0,0,0,0,0,0,0,0,0,0,0,0,0,0],"sum_hessian":[8E1,5.5E1,2.5E1,2E1,3.5E1,2.3E1,2E0,1E1,1E1,3.2E1,3E0,1.2E1,1.1E1,1E0,1E0,1E0,9E0,7E0,3E0,3E0,2.9E1,8E0,4E0,5E0,6E0],"tree_param":{"num_deleted":"0","num_feature":"6","num_nodes":"25","size_leaf_vector":"1"}},{"base_weights":[3.3194341E-3,7.980202E-1,-1.7084714E0,2.723287E0,-3.4721938E-1,-2.702279E-1,-9.913923E-1,4.5905757E0,6.08427E-1,-1.0473734E0,2.757928E-1,7.340334E-1,-2.634202E0,-1.5581408E-1,2.836445E-1,1.2703922E-1,-1.7041974E-1,2.043768E-1,-8.485578E-2,6.000891E-2,-1.0983898E-1,-4.7248483E-2,-2.8882122E-1],"categories":[],"categories_nodes":[],"categories_segments":[],"categories_sizes":[],"default_left":[0,0,0,0,0,0,0,0,0,0,0,0,0,0,0,0,0,0,0,0,0,0,0],"id":3,"left_children":[1,3,5,7,9,-1,11,13,15,17,-1,19,21,-1,-1,-1,-1,-1,-1,-1,-1,-1,-1],"loss_changes":[1.1155268E2,1.24419525E2,6.355201E1,8.0137115E1,1.5355917E2,0E0,6.712815E1,1.0943193E2,9.404128E1,1.1703712E2,0E0,1.9030724E1,5.8236794E1,0E0,0E0,0E0,0E0,0E0,0E0,0E0,0E0,0E0,0E0],"parents":[2147483647,0,0,1,1,2,2,3,3,4,4,6,6,7,7,8,8,9,9,11,11,12,12],"right_children":[2,4,6,8,10,-1,12,14,16,18,-1,20,22,-1,-1,-1,-1,-1,-1,-1,-1,-1,-1],"split_conditions":[6.442654E-1,-6.242505E-1,-1.3278875E0,-4.1152823E-1,4.200484E-1,-2.702279E-1,6.848848E-2,-1.7603983E0,-2.9606777E-1,-1.5437655E0,2.757928E-1,1.0111932E0,3.737975E-1,-1.5581408E-1,2.836445E-1,1.2703922E-1,-1.7041974E-1,2.043768E-1,-8.485578E-2,6.000891E-2,-1.0983898E-1,-4.7248483E-2,-2.8882122E-1],"split_indices":[2,1,1,2,2,0,1,2,0,2,0,0,4,0,0,0,0,0,0,0,0,0,0],"split_type":[0,0,0,0,0,0,0,0,0,0,0,0,0,0,0,0,0,0,0,0,0,0,0],"sum_hessian":[8E1,5.5E1,2.5E1,2E1,3.5E1,3E0,2.2E1,1E1,1E1,3.2E1,3E0,1.1E1,1.1E1,1E0,9E0,7E0,3E0,3E0,2.9E1,1E1,1E0,8E0,3E0],"tree_param":{"num_deleted":"0","num_feature":"6","num_nodes":"23","size_leaf_vector":"1"}},{"base_weights":[9.762446E-4,7.666865E-1,-1.6482834E0,2.591144E0,-3.188773E-1,-2.1272175E0,2.7326167E0,4.372668E0,5.740621E-1,-9.913827E-1,2.6545057E-1,-5.1858443E-1,-3.692635E0,1.6278084E-1,4.2165425E-2,-1.5191872E-1,2.7088046E-1,1.2148126E-1,-1.6402899E-1,1.9671266E-1,-8.07544E-2,-9.4169915E-2,1.02089874E-1,-8.54836E-2,-2.4323991E-1],"categories":[],"categories_nodes":[],"categories_segments":[],"categories_sizes":[],"default_left":[0,0,0,0,0,0,0,0,0,0,0,0,0,0,0,0,0,0,0,0,0,0,0,0,0],"id":4,"left_children":[1,3,5,7,9,11,13,15,17,19,-1,21,23,-1,-1,-1,-1,-1,-1,-1,-1,-1,-1,-1,-1],"loss_changes":[1.0355497E2,1.1173792E2,6.0365097E1,7.2952866E1,1.4151553E2,5.8521446E1,2.1883583E-1,1.01645905E2,8.664843E1,1.0773496E2,0E0,4.92733E1,1.9575058E1,0E0,0E0,0E0,0E0,0E0,0E0,0E0,0E0,0E0,0E0,0E0,0E0],"parents":[2147483647,0,0,1,1,2,2,3,3,4,4,5,5,6,6,7,7,8,8,9,9,11,11,12,12],"right_children":[2,4,6,8,10,12,14,16,18,20,-1,22,24,-1,-1,-1,-1,-1,-1,-1,-1,-1,-1,-1,-1],"split_conditions":[6.442654E-1,-6.242505E-1,1.3645382E0,-4.1152823E-1,4.200484E-1,9.7530484E-1,3.4784457E-1,-1.7603983E0,-2.9606777E-1,-1.5437655E0,2.6545057E-1,7.426335E-1,-1.1041417E0,1.6278084E-1,4.2165425E-2,-1.5191872E-1,2.7088046E-1,1.2148126E-1,-1.6402899E-1,1.9671266E-1,-8.07544E-2,-9.4169915E-2,1.02089874E-1,-8.54836E-2,-2.4323991E-1],"split_indices":[2,1,4,2,2,5,0,2,0,2,0,3,4,0,0,0,0,0,0,0,0,0,0,0,0],"split_type":[0,0,0,0,0,0,0,0,0,0,0,0,0,0,0,0,0,0,0,0,0,0,0,0,0],"sum_hessian":[8E1,5.5E1,2.5E1,2E1,3.5E1,2.3E1,2E0,1E1,1E1,3.2E1,3E0,1.2E1,1.1E1,1E0,1E0,1E0,9E0,7E0,3E0,3E0,2.9E1,8E0,4E0,5E0,6E0],"tree_param":{"num_deleted":"0","num_feature":"6","num_nodes":"25","size_leaf_vector":"1"}},{"base_weights":[5.1491936E-3,6.382836E-1,-1.8342009E0,2.436469E0,-3.6667544E-1,-2.5556068E0,1.8706763E0,4.164849E0,6.4908195E-1,1.8933593E-1,-8.057809E-1,-3.5766923E0,-4.400876E-1,1.2280971E-1,2.85306E-3,-1.4812076E-1,2.5869083E-1,9.755144E-2,-1.9535509E-1,-7.685128E-2,1.0185547E-1,-2.2872083E-1,-9.0828285E-2,3.3104476E-2,-1.7632876E-1],"categories":[],"categories_nodes":[],"categories_segments":[],"categories_sizes":[],"default_left":[0,0,0,0,0,0,0,0,0,0,0,0,0,0,0,0,0,0,0,0,0,0,0,0,0],"id":5,"left_children":[1,3,5,7,9,11,13,15,17,-1,19,21,23,-1,-1,-1,-1,-1,-1,-1,-1,-1,-1,-1,-1],"loss_changes":[9.549977E1,1.1112667E2,6.0907837E1,6.526091E1,7.600238E1,3.7308212E1,4.107464E0,9.442998E1,7.880578E1,0E0,8.004848E1,1.2763733E1,2.61479E1,0E0,0E0,0E0,0E0,0E0,0E0,0E0,0E0,0E0,0E0,0E0,0E0],"parents":[2147483647,0,0,1,1,2,2,3,3,4,4,5,5,6,6,7,7,8,8,10,10,11,11,12,12],"right_children":[2,4,6,8,10,12,14,16,18,-1,20,22,24,-1,-1,-1,-1,-1,-1,-1,-1,-1,-1,-1,-1],"split_conditions":[9.492109E-1,-6.242505E-1,8.4578514E-1,-4.1152823E-1,-1.5437655E0,1.41051E0,1.5999178E0,-1.7603983E0,6.6561013E-1,1.8933593E-1,4.200484E-1,6.8706703E-1,1.0111932E0,1.2280971E-1,2.85306E-3,-1.4812076E-1,2.5869083E-1,9.755144E-2,-1.9535509E-1,-7.685128E-2,1.0185547E-1,-2.2872083E-1,-9.0828285E-2,3.3104476E-2,-1.7632876E-1],"split_indices":[2,1,1,2,2,2,1,2,3,0,2,3,0,0,0,0,0,0,0,0,0,0,0,0,0],"split_type":[0,0,0,0,0,0,0,0,0,0,0,0,0,0,0,0,0,0,0,0,0,0,0,0,0],"sum_hessian":[8E1,6E1,2E1,2.1E1,3.9E1,1.7E1,3E0,1E1,1.1E1,3E0,3.6E1,1.1E1,6E0,2E0,1E0,1E0,9E0,9E0,2E0,2.9E1,7E0,6E0,5E0,5E0,1E0],"tree_param":{"num_deleted":"0","num_feature":"6","num_nodes":"25","size_leaf_vector":"1"}},{"base_weights":[3.5335047E-3,7.148366E-1,-1.5286398E0,2.3428545E0,-2.5469708E-1,-2.0757332E0,1.9993076E0,3.966658E0,5.06064E-1,-8.8797647E-1,2.5167662E-1,-1.0471922E0,-4.815401E0,3.4821748E-3,2.6193144E0,-1.4441775E-1,2.4704973E-1,1.1372926E-1,-1.5787475E-1,1.8223584E-1,-7.313682E-2,-2.054986E-1,-2.0373572E-2,-4.210997E-3,-2.8723964E-1,1.5616493E-1,4.0283658E-2],"categories":[],"categories_nodes":[],"categories_segments":[],"categories_sizes":[],"default_left":[0,0,0,0,0,0,0,0,0,0,0,0,0,0,0,0,0,0,0,0,0,0,0,0,0,0,0],"id":6,"left_children":[1,3,5,7,9,11,13,15,17,19,-1,21,23,-1,25,-1,-1,-1,-1,-1,-1,-1,-1,-1,-1,-1,-1],"loss_changes":[8.936973E1,8.8988144E1,5.4333065E1,6.0626938E1,1.2503102E2,5.976815E1,4.603203E0,8.774135E1,7.845189E1,9.13032E1,0E0,3.3593136E1,2.589891E1,0E0,2.2578049E-1,0E0,0E0,0E0,0E0,0E0,0E0,0E0,0E0,0E0,0E0,0E0,0E0],"parents":[2147483647,0,0,1,1,2,2,3,3,4,4,5,5,6,6,7,7,8,8,9,9,11,11,12,12,14,14],"right_children":[2,4,6,8,10,12,14,16,18,20,-1,22,24,-1,26,-1,-1,-1,-1,-1,-1,-1,-1,-1,-1,-1,-1],"split_conditions":[6.442654E-1,-6.242505E-1,1.3428286E0,-4.1152823E-1,4.200484E-1,4.8688126E-1,-7.602956E-1,-1.7603983E0,-2.9606777E-1,-1.5437655E0,2.5167662E-1,-1.3278875E0,-1.515334E0,3.4821748E-3,3.4784457E-1,-1.4441775E-1,2.4704973E-1,1.1372926E-1,-1.5787475E-1,1.8223584E-1,-7.313682E-2,-2.054986E-1,-2.0373572E-2,-4.210997E-3,-2.8723964E-1,1.5616493E-1,4.0283658E-2],"split_indices":[2,1,4,2,2,4,1,2,0,2,0,1,3,0,0,0,0,0,0,0,0,0,0,0,0,0,0],"split_type":[0,0,0,0,0,0,0,0,0,0,0,0,0,0,0,0,0,0,0,0,0,0,0,0,0,0,0],"sum_hessian":[8E1,5.5E1,2.5E1,2E1,3.5E1,2.2E1,3E0,1E1,1E1,3.2E1,3E0,1.7E1,5E0,1E0,2E0,1E0,9E0,7E0,3E0,3E0,2.9E1,2E0,1.5E1,1E0,4E0,1E0,1E0],"tree_param":{"num_deleted":"0","num_feature":"6","num_nodes":"27","size_leaf_vector":"1"}},{"base_weights":[4.614689E-3,6.8658185E-1,-1.4644152E0,2.228497E0,-2.3194031E-1,-1.9056787E0,2.5538318E0,3.7776558E0,4.767475E-1,-8.4027123E-1,2.4223875E-1,-3.9898986E-1,-3.3791184E0,1.5226081E-1,3.9276578E-2,-1.408073E-1,2.3593251E-1,1.08753614E-1,-1.5195443E-1,1.75402E-1,-6.9601856E-2,-8.3859615E-2,9.9078625E-2,-7.9796046E-2,-2.2124211E-1],"categories":[],"categories_nodes":[],"categories_segments":[],"categories_sizes":[],"default_left":[0,0,0,0,0,0,0,0,0,0,0,0,0,0,0,0,0,0,0,0,0,0,0,0,0],"id":7,"left_children":[1,3,5,7,9,11,13,15,17,19,-1,21,23,-1,-1,-1,-1,-1,-1,-1,-1,-1,-1,-1,-1],"loss_changes":[8.215369E1,7.9828735E1,5.0967545E1,5.5187523E1,1.15250534E2,5.193212E1,2.1463203E-1,8.154045E1,7.229158E1,8.405855E1,0E0,4.2880405E1,1.5315094E1,0E0,0E0,0E0,0E0,0E0,0E0,0E0,0E0,0E0,0E0,0E0,0E0],"parents":[2147483647,0,0,1,1,2,2,3,3,4,4,5,5,6,6,7,7,8,8,9,9,11,11,12,12],"right_children":[2,4,6,8,10,12,14,16,18,20,-1,22,24,-1,-1,-1,-1,-1,-1,-1,-1,-1,-1,-1,-1],"split_conditions":[6.442654E-1,-6.242505E-1,1.3645382E0,-4.1152823E-1,4.200484E-1,9.7530484E-1,3.4784457E-1,-1.7603983E0,-2.9606777E-1,-1.5437655E0,2.4223875E-1,7.426335E-1,-1.1041417E0,1.5226081E-1,3.9276578E-2,-1.408073E-1,2.3593251E-1,1.08753614E-1,-1.5195443E-1,1.75402E-1,-6.9601856E-2,-8.3859615E-2,9.9078625E-2,-7.9796046E-2,-2.2124211E-1],"split_indices":[2,1,4,2,2,5,0,2,0,2,0,3,4,0,0,0,0,0,0,0,0,0,0,0,0],"split_type":[0,0,0,0,0,0,0,0,0,0,0,0,0,0,0,0,0,0,0,0,0,0,0,0,0],"sum_hessian":[8E1,5.5E1,2.5E1,2E1,3.5E1,2.3E1,2E0,1E1,1E1,3.2E1,3E0,1.2E1,1.1E1,1E0,1E0,1E0,9E0,7E0,3E0,3E0,2.9E1,8E0,4E0,5E0,6E0],"tree_param":{"num_deleted":"0","num_feature":"6","num_nodes":"25","size_leaf_vector":"1"}},{"base_weights":[8.157907E-3,6.5939516E-1,-1.3948207E0,2.119545E0,-2.1067542E-1,-2.3269199E-1,-7.6739043E-1,3.218118E0,-6.7901134E-2,-7.950514E-1,2.3315477E-1,7.524718E-1,-2.2233036E0,-1.3728712E-1,1.9440438E-1,8.9166984E-2,-1.8738745E-1,1.6882443E-1,-6.6237755E-2,5.7898622E-2,-9.27009E-2,-1.4553197E-1,1.3343476E-1],"categories":[],"categories_nodes":[],"categories_segments":[],"categories_sizes":[],"default_left":[0,0,0,0,0,0,0,0,0,0,0,0,0,0,0,0,0,0,0,0,0,0,0],"id":8,"left_children":[1,3,5,7,9,-1,11,13,15,17,-1,19,21,-1,-1,-1,-1,-1,-1,-1,-1,-1,-1],"loss_changes":[7.492716E1,7.1590805E1,4.959367E1,5.0682976E1,1.06239525E2,0E0,5.2567078E1,6.661415E1,6.1181786E1,7.7392456E1,0E0,1.4830105E1,4.811696E1,0E0,0E0,0E0,0E0,0E0,0E0,0E0,0E0,0E0,0E0],"parents":[2147483647,0,0,1,1,2,2,3,3,4,4,6,6,7,7,8,8,9,9,11,11,12,12],"right_children":[2,4,6,8,10,-1,12,14,16,18,-1,20,22,-1,-1,-1,-1,-1,-1,-1,-1,-1,-1],"split_conditions":[6.442654E-1,-6.242505E-1,-1.3278875E0,-9.553141E-2,4.200484E-1,-2.3269199E-1,6.848848E-2,-1.7603983E0,6.6506404E-1,-1.5437655E0,2.3315477E-1,1.0111932E0,1.4098246E0,-1.3728712E-1,1.9440438E-1,8.9166984E-2,-1.8738745E-1,1.6882443E-1,-6.6237755E-2,5.7898622E-2,-9.27009E-2,-1.4553197E-1,1.3343476E-1],"split_indices":[2,1,1,2,2,0,1,2,3,2,0,0,0,0,0,0,0,0,0,0,0,0,0],"split_type":[0,0,0,0,0,0,0,0,0,0,0,0,0,0,0,0,0,0,0,0,0,0,0],"sum_hessian":[8E1,5.5E1,2.5E1,2E1,3.5E1,3E0,2.2E1,1.3E1,7E0,3.2E1,3E0,1.1E1,1.1E1,1E0,1.2E1,5E0,2E0,3E0,2.9E1,1E1,1E0,1E1,1E0],"tree_param":{"num_deleted":"0","num_feature":"6","num_nodes":"23","size_leaf_vector":"1"}},{"base_weights":[7.935659E-3,5.473562E-1,-1.5593305E0,-3.0911167E0,9.2741835E-1,-2.2366354E0,1.8783739E0,-3.4330912E0,-3.4531094E-2,1.172112E0,-1.8931033E-1,-3.1400554E0,-3.68396E-1,1.1927543E-1,8.924246E-3,-3.5328127E-2,-1.9690414E-1,2.9373989E-2,2.014999E-1,-2.2125245E-5,-1.7127173E-1,3.036696E-2,-1.555702E-1],"categories":[],"categories_nodes":[],"categories_segments":[],"categories_sizes":[],"default_left":[0,0,0,0,0,0,0,0,0,0,0,0,0,0,0,0,0,0,0,0,0,0,0],"id":9,"left_children":[1,3,5,7,9,11,13,15,-1,17,-1,19,21,-1,-1,-1,-1,-1,-1,-1,-1,-1,-1],"loss_changes":[6.933217E1,8.722035E1,5.3097084E1,2.5544777E0,6.9027916E1,2.9223701E1,3.0225124E0,4.1018715E0,0E0,8.785631E1,0E0,1.0750244E1,2.062482E1,0E0,0E0,0E0,0E0,0E0,0E0,0E0,0E0,0E0,0E0],"parents":[2147483647,0,0,1,1,2,2,3,3,4,4,5,5,6,6,7,7,9,9,11,11,12,12],"right_children":[2,4,6,8,10,12,14,16,-1,18,-1,20,22,-1,-1,-1,-1,-1,-1,-1,-1,-1,-1],"split_conditions":[9.492109E-1,-1.4128773E0,8.4578514E-1,1.2674633E0,1.5668375E0,1.41051E0,1.5999178E0,-1.2641364E0,-3.4531094E-2,9.975128E-1,-1.8931033E-1,-1.515334E0,1.0111932E0,1.1927543E-1,8.924246E-3,-3.5328127E-2,-1.9690414E-1,2.9373989E-2,2.014999E-1,-2.2125245E-5,-1.7127173E-1,3.036696E-2,-1.555702E-1],"split_indices":[2,3,1,0,3,2,1,0,0,3,0,3,0,0,0,0,0,0,0,0,0,0,0],"split_type":[0,0,0,0,0,0,0,0,0,0,0,0,0,0,0,0,0,0,0,0,0,0,0],"sum_hessian":[8E1,6E1,2E1,5E0,5.5E1,1.7E1,3E0,4E0,1E0,5.3E1,2E0,1.1E1,6E0,2E0,1E0,1E0,3E0,4.5E1,8E0,1E0,1E1,5E0,1E0],"tree_param":{"num_deleted":"0","num_feature":"6","num_nodes":"23","size_leaf_vector":"1"}},{"base_weights":[2.680755E-3,5.162965E-1,-1.4893783E0,-2.9810214E0,8.817895E-1,-2.141276E0,1.8165052E0,-3.307883E0,-3.366783E-2,1.1177818E0,-1.83E-1,-1.254786E0,-2.097596E-1,1.152996E-1,8.701134E-3,-3.444493E-2,-1.8952022E-1,2.793721E-2,1.9254433E-1,-2.1754336E-1,-7.4334576E-4],"categories":[],"categories_nodes":[],"categories_segments":[],"categories_sizes":[],"default_left":[0,0,0,0,0,0,0,0,0,0,0,0,0,0,0,0,0,0,0,0,0],"id":10,"left_children":[1,3,5,7,9,11,13,15,-1,17,-1,19,-1,-1,-1,-1,-1,-1,-1,-1,-1],"loss_changes":[6.2842903E1,8.060161E1,4.9146687E1,2.2983322E0,6.411339E1,2.7509895E1,2.8145962E0,3.7073784E0,0E0,8.035538E1,0E0,5.367978E1,0E0,0E0,0E0,0E0,0E0,0E0,0E0,0E0,0E0],"parents":[2147483647,0,0,1,1,2,2,3,3,4,4,5,5,6,6,7,7,9,9,11,11],"right_children":[2,4,6,8,10,12,14,16,-1,18,-1,20,-1,-1,-1,-1,-1,-1,-1,-1,-1],"split_conditions":[9.492109E-1,-1.4128773E0,8.4578514E-1,1.2674633E0,1.5668375E0,4.7507027E-1,1.5999178E0,-1.2641364E0,-3.366783E-2,9.975128E-1,-1.83E-1,-1.3278875E0,-2.097596E-1,1.152996E-1,8.701134E-3,-3.444493E-2,-1.8952022E-1,2.793721E-2,1.9254433E-1,-2.1754336E-1,-7.4334576E-4],"split_indices":[2,3,1,0,3,1,1,0,0,3,0,1,0,0,0,0,0,0,0,0,0],"split_type":[0,0,0,0,0,0,0,0,0,0,0,0,0,0,0,0,0,0,0,0,0],"sum_hessian":[8E1,6E1,2E1,5E0,5.5E1,1.7E1,3E0,4E0,1E0,5.3E1,2E0,1.3E1,4E0,2E0,1E0,1E0,3E0,4.5E1,8E0,3E0,1E1],"tree_param":{"num_deleted":"0","num_feature":"6","num_nodes":"21","size_leaf_vector":"1"}},{"base_weights":[-3.924729E-3,7.031948E-1,-1.0537711E0,3.285722E-3,3.8135366E0,-2.7832184E0,3.6704355E-1,-5.186512E-1,2.612501E0,2.3421954E-1,7.769358E-2,1.2437613E0,-3.89361E0,2.3999753E0,-7.5584614E-1,2.6967395E-2,-1.1752998E-1,-2.460742E-2,2.5320125E-1,-3.4011684E-2,1.7539366E-1,-1.0793775E-1,-2.6343364E-1,1.6850801E-1,4.148984E-2,4.6904072E-2,-1.444221E-1],"categories":[],"categories_nodes":[],"categories_segments":[],"categories_sizes":[],"default_left":[0,0,0,0,0,0,0,0,0,0,0,0,0,0,0,0,0,0,0,0,0,0,0,0,0,0,0],"id":11,"left_children":[1,3,5,7,9,11,13,15,17,-1,-1,19,21,23,25,-1,-1,-1,-1,-1,-1,-1,-1,-1,-1,-1,-1],"loss_changes":[6.0872726E1,1.0665834E2,8.210996E1,5.719065E1,1.043161E1,7.191558E1,4.5186417E1,6.910478E1,5.5770107E1,0E0,0E0,1.981073E1,1.7252655E1,7.866993E0,4.967161E1,0E0,0E0,0E0,0E0,0E0,0E0,0E0,0E0,0E0,0E0,0E0,0E0],"parents":[2147483647,0,0,1,1,2,2,3,3,4,4,5,5,6,6,7,7,8,8,11,11,12,12,13,13,14,14],"right_children":[2,4,6,8,10,12,14,16,18,-1,-1,20,22,24,26,-1,-1,-1,-1,-1,-1,-1,-1,-1,-1,-1,-1],"split_conditions":[3.8316476E-1,1.11908294E-1,8.7223667E-1,8.432555E-1,6.442654E-1,-9.2432755E-1,1.1732509E0,3.9377883E-1,8.219635E-1,2.3421954E-1,7.769358E-2,1.1011449E0,-4.9166217E-2,-4.8544195E-1,7.217547E-1,2.6967395E-2,-1.1752998E-1,-2.460742E-2,2.5320125E-1,-3.4011684E-2,1.7539366E-1,-1.0793775E-1,-2.6343364E-1,1.6850801E-1,4.148984E-2,4.6904072E-2,-1.444221E-1],"split_indices":[4,4,4,1,2,1,4,3,3,0,0,0,3,0,1,0,0,0,0,0,0,0,0,0,0,0,0],"split_type":[0,0,0,0,0,0,0,0,0,0,0,0,0,0,0,0,0,0,0,0,0,0,0,0,0,0,0],"sum_hessian":[8E1,4.8E1,3.2E1,4E1,8E0,1.4E1,1.8E1,3.4E1,6E0,5E0,3E0,3E0,1.1E1,6E0,1.2E1,2.2E1,1.2E1,3E0,3E0,2E0,1E0,6E0,5E0,3E0,3E0,7E0,5E0],"tree_param":{"num_deleted":"0","num_feature":"6","num_nodes":"27","size_leaf_vector":"1"}},{"base_weights":[3.7576535E-4,4.8843658E-1,-1.4173427E0,-2.815253E0,8.336812E-1,-2.0326073E0,1.7056837E0,-2.9973244E-2,-3.1385176E0,1.0567609E0,-1.7298235E-1,-2.845363E0,-3.4893936E-1,1.0764638E-1,9.098792E-3,-1.810935E-1,-3.0127693E-2,2.651452E-2,1.8150961E-1,-1.8515015E-1,-6.852778E-2,2.7254E-2,-1.428264E-1],"categories":[],"categories_nodes":[],"categories_segments":[],"categories_sizes":[],"default_left":[0,0,0,0,0,0,0,0,0,0,0,0,0,0,0,0,0,0,0,0,0,0,0],"id":12,"left_children":[1,3,5,7,9,11,13,-1,15,17,-1,19,21,-1,-1,-1,-1,-1,-1,-1,-1,-1,-1],"loss_changes":[5.673884E1,7.192248E1,4.381822E1,2.4162827E0,5.7290257E1,2.3638535E1,2.334097E0,0E0,3.946453E0,7.1236084E1,0E0,1.0103073E1,1.7249865E1,0E0,0E0,0E0,0E0,0E0,0E0,0E0,0E0,0E0,0E0],"parents":[2147483647,0,0,1,1,2,2,3,3,4,4,5,5,6,6,8,8,9,9,11,11,12,12],"right_children":[2,4,6,8,10,12,14,-1,16,18,-1,20,22,-1,-1,-1,-1,-1,-1,-1,-1,-1,-1],"split_conditions":[9.492109E-1,-1.4128773E0,8.4578514E-1,-1.2641364E0,1.5668375E0,1.41051E0,1.5999178E0,-2.9973244E-2,1.2674633E0,9.975128E-1,-1.7298235E-1,6.8706703E-1,1.0111932E0,1.0764638E-1,9.098792E-3,-1.810935E-1,-3.0127693E-2,2.651452E-2,1.8150961E-1,-1.8515015E-1,-6.852778E-2,2.7254E-2,-1.428264E-1],"split_indices":[2,3,1,0,3,2,1,0,0,3,0,3,0,0,0,0,0,0,0,0,0,0,0],"split_type":[0,0,0,0,0,0,0,0,0,0,0,0,0,0,0,0,0,0,0,0,0,0,0],"sum_hessian":[8E1,6E1,2E1,5E0,5.5E1,1.7E1,3E0,1E0,4E0,5.3E1,2E0,1.1E1,6E0,2E0,1E0,3E0,1E0,4.5E1,8E0,6E0,5E0,5E0,1E0],"tree_param":{"num_deleted":"0","num_feature":"6","num_nodes":"23","size_leaf_vector":"1"}},{"base_weights":[-5.3052315E-3,6.6149545E-1,-9.952425E-1,-5.647973E-3,3.627205E0,-2.6500697E0,3.6358133E-1,-4.9791354E-1,2.4564867E0,2.22064E-1,7.496456E-2,1.1820447E0,-3.706602E0,1.6551194E0,-1.2553631E0,2.577798E-2,-1.1263402E-1,-2.288028E-2,2.3782288E-1,-3.217772E-2,1.6647105E-1,-1.0104878E-1,-2.5276998E-1,1.6239302E-1,-4.5287102E-2,-1.4127071E-1,7.067771E-2],"categories":[],"categories_nodes":[],"categories_segments":[],"categories_sizes":[],"default_left":[0,0,0,0,0,0,0,0,0,0,0,0,0,0,0,0,0,0,0,0,0,0,0,0,0,0,0],"id":13,"left_children":[1,3,5,7,9,11,13,15,17,-1,-1,19,21,23,25,-1,-1,-1,-1,-1,-1,-1,-1,-1,-1,-1,-1],"loss_changes":[5.41257E1,9.696961E1,7.516794E1,5.0916103E1,8.931763E0,6.511267E1,4.1805416E1,6.3405716E1,4.9092865E1,0E0,0E0,1.7823658E1,1.7065964E1,4.780841E1,4.1706905E1,0E0,0E0,0E0,0E0,0E0,0E0,0E0,0E0,0E0,0E0,0E0,0E0],"parents":[2147483647,0,0,1,1,2,2,3,3,4,4,5,5,6,6,7,7,8,8,11,11,12,12,13,13,14,14],"right_children":[2,4,6,8,10,12,14,16,18,-1,-1,20,22,24,26,-1,-1,-1,-1,-1,-1,-1,-1,-1,-1,-1,-1],"split_conditions":[3.8316476E-1,1.11908294E-1,8.7223667E-1,8.432555E-1,6.442654E-1,-9.2432755E-1,2.4995185E-1,3.9377883E-1,8.219635E-1,2.22064E-1,7.496456E-2,1.1011449E0,-4.9166217E-2,8.3682954E-1,1.0943835E0,2.577798E-2,-1.1263402E-1,-2.288028E-2,2.3782288E-1,-3.217772E-2,1.6647105E-1,-1.0104878E-1,-2.5276998E-1,1.6239302E-1,-4.5287102E-2,-1.4127071E-1,7.067771E-2],"split_indices":[4,4,4,1,2,1,1,3,3,0,0,0,3,2,1,0,0,0,0,0,0,0,0,0,0,0,0],"split_type":[0,0,0,0,0,0,0,0,0,0,0,0,0,0,0,0,0,0,0,0,0,0,0,0,0,0,0],"sum_hessian":[8E1,4.8E1,3.2E1,4E1,8E0,1.4E1,1.8E1,3.4E1,6E0,5E0,3E0,3E0,1.1E1,1E1,8E0,2.2E1,1.2E1,3E0,3E0,2E0,1E0,6E0,5E0,6E0,4E0,5E0,3E0],"tree_param":{"num_deleted":"0","num_feature":"6","num_nodes":"27","size_leaf_vector":"1"}},{"base_weights":[-1.9275347E-3,4.5526463E-1,-1.3298701E0,-2.6579444E0,7.80693E-1,-1.9074197E0,1.6015706E0,-2.5692154E-2,-2.9839962E0,9.912318E-1,-1.6346182E-1,-2.037812E-1,-1.2020706E0,1.00475825E-1,9.443331E-3,-1.7307562E-1,-2.6848292E-2,2.4696209E-2,1.7114447E-1,2.587273E-3,-1.860026E-1],"categories":[],"categories_nodes":[],"categories_segments":[],"categories_sizes":[],"default_left":[0,0,0,0,0,0,0,0,0,0,0,0,0,0,0,0,0,0,0,0,0],"id":14,"left_children":[1,3,5,7,9,11,13,-1,15,17,-1,-1,19,-1,-1,-1,-1,-1,-1,-1,-1],"loss_changes":[4.9782562E1,6.3875763E1,3.8608967E1,2.6612244E0,5.0989933E1,2.2628952E1,1.9256964E0,0E0,3.9837685E0,6.3610577E1,0E0,0E0,4.7548775E1,0E0,0E0,0E0,0E0,0E0,0E0,0E0,0E0],"parents":[2147483647,0,0,1,1,2,2,3,3,4,4,5,5,6,6,8,8,9,9,12,12],"right_children":[2,4,6,8,10,12,14,-1,16,18,-1,-1,20,-1,-1,-1,-1,-1,-1,-1,-1],"split_conditions":[9.492109E-1,-1.4128773E0,8.4578514E-1,-1.2641364E0,1.5668375E0,-1.3278875E0,1.5999178E0,-2.5692154E-2,1.2674633E0,9.975128E-1,-1.6346182E-1,-2.037812E-1,4.7507027E-1,1.00475825E-1,9.443331E-3,-1.7307562E-1,-2.6848292E-2,2.4696209E-2,1.7114447E-1,2.587273E-3,-1.860026E-1],"split_indices":[2,3,1,0,3,1,1,0,0,3,0,0,1,0,0,0,0,0,0,0,0],"split_type":[0,0,0,0,0,0,0,0,0,0,0,0,0,0,0,0,0,0,0,0,0],"sum_hessian":[8E1,6E1,2E1,5E0,5.5E1,1.7E1,3E0,1E0,4E0,5.3E1,2E0,3E0,1.4E1,2E0,1E0,3E0,1E0,4.5E1,8E0,1E1,4E0],"tree_param":{"num_deleted":"0","num_feature":"6","num_nodes":"21","size_leaf_vector":"1"}},{"base_weights":[-7.640079E-3,6.251351E-1,-9.469839E-1,-9.224612E-3,3.4455366E0,-2.531399E0,3.5371137E-1,-4.7283375E-1,2.310139E0,2.1056192E-1,7.178E-2,1.1069088E0,-3.5332181E0,1.5873588E0,-1.1933813E0,2.4883447E-2,-1.07675254E-1,-2.1232808E-2,2.2336996E-1,-3.155985E-2,1.5803066E-1,-9.449073E-2,-2.4308264E-1,1.5437493E-1,-4.151543E-2,-1.3423772E-1,6.710118E-2],"categories":[],"categories_nodes":[],"categories_segments":[],"categories_sizes":[],"default_left":[0,0,0,0,0,0,0,0,0,0,0,0,0,0,0,0,0,0,0,0,0,0,0,0,0,0,0],"id":15,"left_children":[1,3,5,7,9,11,13,15,17,-1,-1,19,21,23,25,-1,-1,-1,-1,-1,-1,-1,-1,-1,-1,-1,-1],"loss_changes":[4.8737865E1,8.770009E1,6.890314E1,4.517871E1,7.805458E0,5.8584854E1,3.8157097E1,5.8160088E1,4.319476E1,0E0,0E0,1.627319E1,1.7010223E1,4.24588E1,3.7634113E1,0E0,0E0,0E0,0E0,0E0,0E0,0E0,0E0,0E0,0E0,0E0,0E0],"parents":[2147483647,0,0,1,1,2,2,3,3,4,4,5,5,6,6,7,7,8,8,11,11,12,12,13,13,14,14],"right_children":[2,4,6,8,10,12,14,16,18,-1,-1,20,22,24,26,-1,-1,-1,-1,-1,-1,-1,-1,-1,-1,-1,-1],"split_conditions":[3.8316476E-1,1.11908294E-1,8.7223667E-1,8.432555E-1,6.442654E-1,-9.2432755E-1,2.4995185E-1,3.9377883E-1,8.219635E-1,2.1056192E-1,7.178E-2,1.1011449E0,-4.9166217E-2,8.3682954E-1,1.0943835E0,2.4883447E-2,-1.07675254E-1,-2.1232808E-2,2.2336996E-1,-3.155985E-2,1.5803066E-1,-9.449073E-2,-2.4308264E-1,1.5437493E-1,-4.151543E-2,-1.3423772E-1,6.710118E-2],"split_indices":[4,4,4,1,2,1,1,3,3,0,0,0,3,2,1,0,0,0,0,0,0,0,0,0,0,0,0],"split_type":[0,0,0,0,0,0,0,0,0,0,0,0,0,0,0,0,0,0,0,0,0,0,0,0,0,0,0],"sum_hessian":[8E1,4.8E1,3.2E1,4E1,8E0,1.4E1,1.8E1,3.4E1,6E0,5E0,3E0,3E0,1.1E1,1E1,8E0,2.2E1,1.2E1,3E0,3E0,2E0,1E0,6E0,5E0,6E0,4E0,5E0,3E0],"tree_param":{"num_deleted":"0","num_feature":"6","num_nodes":"27","size_leaf_vector":"1"}},{"base_weights":[-4.340625E-3,6.0207623E-1,-9.046462E-1,-5.8523505E-3,3.3046312E0,-2.4189024E0,3.3843207E-1,-2.831852E-1,1.800713E-1,2.0178853E-1,6.908824E-2,1.0831811E0,-3.3846884E0,2.1367555E0,-6.5592915E-1,3.6876162E-3,-1.7124134E-1,-3.0507851E-2,1.540799E-1,-9.0441115E-2,-2.3295419E-1,1.5062715E-1,3.633895E-2,4.3039657E-2,-1.284452E-1],"categories":[],"categories_nodes":[],"categories_segments":[],"categories_sizes":[],"default_left":[0,0,0,0,0,0,0,0,0,0,0,0,0,0,0,0,0,0,0,0,0,0,0,0,0],"id":16,"left_children":[1,3,5,7,9,11,13,15,-1,-1,-1,17,19,21,23,-1,-1,-1,-1,-1,-1,-1,-1,-1,-1],"loss_changes":[4.4767464E1,8.05244E1,6.2935814E1,4.203696E1,7.076462E0,5.4400177E1,3.5377037E1,4.3986015E1,0E0,0E0,0E0,1.541624E1,1.5671875E1,6.454424E0,3.9930164E1,0E0,0E0,0E0,0E0,0E0,0E0,0E0,0E0,0E0,0E0],"parents":[2147483647,0,0,1,1,2,2,3,3,4,4,5,5,6,6,7,7,11,11,12,12,13,13,14,14],"right_children":[2,4,6,8,10,12,14,16,-1,-1,-1,18,20,22,24,-1,-1,-1,-1,-1,-1,-1,-1,-1,-1],"split_conditions":[3.8316476E-1,1.11908294E-1,8.7223667E-1,1.3548996E0,6.442654E-1,-9.2432755E-1,1.1732509E0,1.5648367E0,1.800713E-1,2.0178853E-1,6.908824E-2,1.1011449E0,-4.9166217E-2,-4.8544195E-1,7.217547E-1,3.6876162E-3,-1.7124134E-1,-3.0507851E-2,1.540799E-1,-9.0441115E-2,-2.3295419E-1,1.5062715E-1,3.633895E-2,4.3039657E-2,-1.284452E-1],"split_indices":[4,4,4,0,2,1,4,3,0,0,0,0,3,0,1,0,0,0,0,0,0,0,0,0,0],"split_type":[0,0,0,0,0,0,0,0,0,0,0,0,0,0,0,0,0,0,0,0,0,0,0,0,0],"sum_hessian":[8E1,4.8E1,3.2E1,4E1,8E0,1.4E1,1.8E1,3.8E1,2E0,5E0,3E0,3E0,1.1E1,6E0,1.2E1,3.5E1,3E0,2E0,1E0,6E0,5E0,3E0,3E0,7E0,5E0],"tree_param":{"num_deleted":"0","num_feature":"6","num_nodes":"25","size_leaf_vector":"1"}},{"base_weights":[-1.8380719E-3,4.2541736E-1,-1.2428259E0,-2.7784457E0,6.989945E-1,-1.9687273E-1,-5.749736E-1,-1.848278E-2,-1.6441147E-1,8.8664794E-1,-1.4871584E-1,-1.0784707E0,1.4568839E0,2.1373844E-2,1.5930125E-1,3.8575865E-3,-1.702573E-1,9.0695016E-2,9.645867E-3],"categories":[],"categories_nodes":[],"categories_segments":[],"categories_sizes":[],"default_left":[0,0,0,0,0,0,0,0,0,0,0,0,0,0,0,0,0,0,0],"id":17,"left_children":[1,3,5,7,9,-1,11,-1,-1,13,-1,15,17,-1,-1,-1,-1,-1,-1],"loss_changes":[4.347644E1,5.5408848E1,3.5527958E1,4.9242935E0,4.1927814E1,0E0,1.9985823E1,0E0,0E0,5.670746E1,0E0,4.0594078E1,1.4550943E0,0E0,0E0,0E0,0E0,0E0,0E0],"parents":[2147483647,0,0,1,1,2,2,3,3,4,4,6,6,9,9,11,11,12,12],"right_children":[2,4,6,8,10,-1,12,-1,-1,14,-1,16,18,-1,-1,-1,-1,-1,-1],"split_conditions":[9.492109E-1,-1.4389558E0,-1.3278875E0,-1.2641364E0,1.5668375E0,-1.9687273E-1,8.4578514E-1,-1.848278E-2,-1.6441147E-1,9.975128E-1,-1.4871584E-1,4.7507027E-1,1.5999178E0,2.1373844E-2,1.5930125E-1,3.8575865E-3,-1.702573E-1,9.0695016E-2,9.645867E-3],"split_indices":[2,3,1,0,3,0,1,0,0,3,0,1,1,0,0,0,0,0,0],"split_type":[0,0,0,0,0,0,0,0,0,0,0,0,0,0,0,0,0,0,0],"sum_hessian":[8E1,6E1,2E1,4E0,5.6E1,3E0,1.7E1,1E0,3E0,5.4E1,2E0,1.4E1,3E0,4.6E1,8E0,1E1,4E0,2E0,1E0],"tree_param":{"num_deleted":"0","num_feature":"6","num_nodes":"19","size_leaf_vector":"1"}},{"base_weights":[-6.855541E-3,5.675669E-1,-8.595781E-1,-1.0751491E-2,3.1390653E0,-2.3129263E0,3.3304307E-1,-4.4176102E-1,2.145832E0,1.9134067E-1,6.6133834E-2,1.0137823E0,-3.2290852E0,1.4659679E0,-1.0886476E0,2.3540273E-2,-1.01116E-1,-1.9773996E-2,2.0753431E-1,-2.9911438E-2,1.4624539E-1,-8.478527E-2,-2.2399239E-1,1.435092E-1,-3.9656386E-2,-1.2368315E-1,6.305186E-2],"categories":[],"categories_nodes":[],"categories_segments":[],"categories_sizes":[],"default_left":[0,0,0,0,0,0,0,0,0,0,0,0,0,0,0,0,0,0,0,0,0,0,0,0,0,0,0],"id":18,"left_children":[1,3,5,7,9,11,13,15,17,-1,-1,19,21,23,25,-1,-1,-1,-1,-1,-1,-1,-1,-1,-1,-1,-1],"loss_changes":[4.0163525E1,7.290384E1,5.7968998E1,3.9057777E1,6.181328E0,4.899051E1,3.2198627E1,5.1434902E1,3.7306232E1,0E0,0E0,1.4072786E1,1.5418228E1,3.7171257E1,3.2408524E1,0E0,0E0,0E0,0E0,0E0,0E0,0E0,0E0,0E0,0E0,0E0,0E0],"parents":[2147483647,0,0,1,1,2,2,3,3,4,4,5,5,6,6,7,7,8,8,11,11,12,12,13,13,14,14],"right_children":[2,4,6,8,10,12,14,16,18,-1,-1,20,22,24,26,-1,-1,-1,-1,-1,-1,-1,-1,-1,-1,-1,-1],"split_conditions":[3.8316476E-1,1.11908294E-1,8.7223667E-1,8.432555E-1,6.442654E-1,-9.2432755E-1,2.4995185E-1,3.9377883E-1,8.219635E-1,1.9134067E-1,6.6133834E-2,1.1011449E0,-4.9166217E-2,8.3682954E-1,1.0943835E0,2.3540273E-2,-1.01116E-1,-1.9773996E-2,2.0753431E-1,-2.9911438E-2,1.4624539E-1,-8.478527E-2,-2.2399239E-1,1.435092E-1,-3.9656386E-2,-1.2368315E-1,6.305186E-2],"split_indices":[4,4,4,1,2,1,1,3,3,0,0,0,3,2,1,0,0,0,0,0,0,0,0,0,0,0,0],"split_type":[0,0,0,0,0,0,0,0,0,0,0,0,0,0,0,0,0,0,0,0,0,0,0,0,0,0,0],"sum_hessian":[8E1,4.8E1,3.2E1,4E1,8E0,1.4E1,1.8E1,3.4E1,6E0,5E0,3E0,3E0,1.1E1,1E1,8E0,2.2E1,1.2E1,3E0,3E0,2E0,1E0,6E0,5E0,6E0,4E0,5E0,3E0],"tree_param":{"num_deleted":"0","num_feature":"6","num_nodes":"27","size_leaf_vector":"1"}},{"base_weights":[-3.8159864E-3,3.9702103E-1,-1.1679703E0,1.6188365E0,-2.8490302E-1,-1.8958281E-1,-5.200418E-1,2.894976E0,3.1413892E-1,-7.263208E-1,1.5715582E0,-9.886177E-1,1.3671284E0,-1.2622063E-1,1.844678E-1,8.64759E-2,-1.0066477E-1,1.2179058E-1,-5.618639E-2,1.7190854E-1,-5.772986E-2,5.02152E-3,-1.5934001E-1,8.45425E-2,9.899092E-3],"categories":[],"categories_nodes":[],"categories_segments":[],"categories_sizes":[],"default_left":[0,0,0,0,0,0,0,0,0,0,0,0,0,0,0,0,0,0,0,0,0,0,0,0,0],"id":19,"left_children":[1,3,5,7,9,-1,11,13,15,17,19,21,23,-1,-1,-1,-1,-1,-1,-1,-1,-1,-1,-1,-1],"loss_changes":[3.826124E1,5.1285515E1,3.3727364E1,3.572005E1,3.392046E1,0E0,1.7268652E1,5.666906E1,4.3012455E1,4.420675E1,4.4679108E1,3.6228947E1,1.1791544E0,0E0,0E0,0E0,0E0,0E0,0E0,0E0,0E0,0E0,0E0,0E0,0E0],"parents":[2147483647,0,0,1,1,2,2,3,3,4,4,6,6,7,7,8,8,9,9,10,10,11,11,12,12],"right_children":[2,4,6,8,10,-1,12,14,16,18,20,22,24,-1,-1,-1,-1,-1,-1,-1,-1,-1,-1,-1,-1],"split_conditions":[9.492109E-1,-6.242505E-1,-1.3278875E0,-4.1152823E-1,4.200484E-1,-1.8958281E-1,8.4578514E-1,-1.7603983E0,-2.9606777E-1,-1.5437655E0,3.4784457E-1,4.7507027E-1,1.5999178E0,-1.2622063E-1,1.844678E-1,8.64759E-2,-1.0066477E-1,1.2179058E-1,-5.618639E-2,1.7190854E-1,-5.772986E-2,5.02152E-3,-1.5934001E-1,8.45425E-2,9.899092E-3],"split_indices":[2,1,1,2,2,0,1,2,0,2,0,1,1,0,0,0,0,0,0,0,0,0,0,0,0],"split_type":[0,0,0,0,0,0,0,0,0,0,0,0,0,0,0,0,0,0,0,0,0,0,0,0,0],"sum_hessian":[8E1,6E1,2E1,2.1E1,3.9E1,3E0,1.7E1,1E1,1.1E1,3.2E1,7E0,1.4E1,3E0,1E0,9E0,7E0,4E0,3E0,2.9E1,4E0,3E0,1E1,4E0,2E0,1E0],"tree_param":{"num_deleted":"0","num_feature":"6","num_nodes":"25","size_leaf_vector":"1"}},{"base_weights":[-3.9414125E-3,3.808395E-1,-1.1214507E0,-2.5899038E0,6.3474965E-1,-1.8247345E-1,-4.97366E-1,-1.35239605E-2,-1.55107E-1,8.115328E-1,-1.4089295E-1,-9.494745E-1,1.3223825E0,1.9184176E-2,1.4778434E-1,4.7932863E-3,-1.5296641E-1,8.172443E-2,9.651613E-3],"categories":[],"categories_nodes":[],"categories_segments":[],"categories_sizes":[],"default_left":[0,0,0,0,0,0,0,0,0,0,0,0,0,0,0,0,0,0,0],"id":20,"left_children":[1,3,5,7,9,-1,11,-1,-1,13,-1,15,17,-1,-1,-1,-1,-1,-1],"loss_changes":[3.525679E1,4.7656345E1,3.1316526E1,5.1014023E0,3.7077484E1,0E0,1.6064596E1,0E0,0E0,4.9321568E1,0E0,3.3376015E1,1.0943985E0,0E0,0E0,0E0,0E0,0E0,0E0],"parents":[2147483647,0,0,1,1,2,2,3,3,4,4,6,6,9,9,11,11,12,12],"right_children":[2,4,6,8,10,-1,12,-1,-1,14,-1,16,18,-1,-1,-1,-1,-1,-1],"split_conditions":[9.492109E-1,-1.4389558E0,-1.3278875E0,-1.2641364E0,1.5668375E0,-1.8247345E-1,8.4578514E-1,-1.35239605E-2,-1.55107E-1,9.975128E-1,-1.4089295E-1,4.7507027E-1,1.5999178E0,1.9184176E-2,1.4778434E-1,4.7932863E-3,-1.5296641E-1,8.172443E-2,9.651613E-3],"split_indices":[2,3,1,0,3,0,1,0,0,3,0,1,1,0,0,0,0,0,0],"split_type":[0,0,0,0,0,0,0,0,0,0,0,0,0,0,0,0,0,0,0],"sum_hessian":[8E1,6E1,2E1,4E0,5.6E1,3E0,1.7E1,1E0,3E0,5.4E1,2E0,1.4E1,3E0,4.6E1,8E0,1E1,4E0,2E0,1E0],"tree_param":{"num_deleted":"0","num_feature":"6","num_nodes":"19","size_leaf_vector":"1"}},{"base_weights":[-8.458167E-3,5.230328E-1,-7.973854E-1,-6.9152205E-3,2.8791256E0,-2.1894357E0,3.4356928E-1,-1.0035095E0,8.16659E-1,1.7525455E-1,6.1019816E-2,8.5574675E-1,-3.0220435E0,1.41095E0,-9.9918145E-1,1.394282E-1,-8.0683455E-2,-1.5663546E-1,9.064922E-2,-3.2472182E-2,1.3428295E-1,-7.635439E-2,-2.1312423E-1,1.3560607E-1,-3.464399E-2,-1.14421144E-1,5.922381E-2],"categories":[],"categories_nodes":[],"categories_segments":[],"categories_sizes":[],"default_left":[0,0,0,0,0,0,0,0,0,0,0,0,0,0,0,0,0,0,0,0,0,0,0,0,0,0,0],"id":21,"left_children":[1,3,5,7,9,11,13,15,17,-1,-1,19,21,23,25,-1,-1,-1,-1,-1,-1,-1,-1,-1,-1,-1,-1],"loss_changes":[3.4380985E1,6.1201637E1,5.316501E1,3.447107E1,5.067169E0,4.0617744E1,2.864109E1,4.846144E1,9.6181244E1,0E0,0E0,1.2761649E1,1.5743675E1,3.1991045E1,2.804794E1,0E0,0E0,0E0,0E0,0E0,0E0,0E0,0E0,0E0,0E0,0E0,0E0],"parents":[2147483647,0,0,1,1,2,2,3,3,4,4,5,5,6,6,7,7,8,8,11,11,12,12,13,13,14,14],"right_children":[2,4,6,8,10,12,14,16,18,-1,-1,20,22,24,26,-1,-1,-1,-1,-1,-1,-1,-1,-1,-1,-1,-1],"split_conditions":[3.8316476E-1,1.11908294E-1,8.7223667E-1,-3.550831E-1,6.442654E-1,-9.2432755E-1,2.4995185E-1,-9.5578283E-1,-1.0587592E0,1.7525455E-1,6.1019816E-2,1.1011449E0,-4.9166217E-2,8.3682954E-1,1.0943835E0,1.394282E-1,-8.0683455E-2,-1.5663546E-1,9.064922E-2,-3.2472182E-2,1.3428295E-1,-7.635439E-2,-2.1312423E-1,1.3560607E-1,-3.464399E-2,-1.14421144E-1,5.922381E-2],"split_indices":[4,4,4,0,2,1,1,3,3,0,0,0,3,2,1,0,0,0,0,0,0,0,0,0,0,0,0],"split_type":[0,0,0,0,0,0,0,0,0,0,0,0,0,0,0,0,0,0,0,0,0,0,0,0,0,0,0],"sum_hessian":[8E1,4.8E1,3.2E1,4E1,8E0,1.4E1,1.8E1,1.8E1,2.2E1,5E0,3E0,3E0,1.1E1,1E1,8E0,2E0,1.6E1,4E0,1.8E1,2E0,1E0,6E0,5E0,6E0,4E0,5E0,3E0],"tree_param":{"num_deleted":"0","num_feature":"6","num_nodes":"27","size_leaf_vector":"1"}},{"base_weights":[-6.95965E-3,5.015552E-1,-7.6181626E-1,-6.7461757E-3,2.761422E0,-2.0924752E0,3.287995E-1,-4.150588E-1,2.0357807E0,1.6795227E-1,5.8731567E-2,-2.8984246E0,8.484926E-1,1.2501516E0,-1.0943286E0,2.2106988E-2,-9.4985664E-2,-1.3770282E-2,1.9190109E-1,-7.6459415E-2,-2.254759E-1,-3.071774E-2,1.3092588E-1,1.1454777E-1,-3.3258226E-2,-1.3314863E-1,5.7002902E-2],"categories":[],"categories_nodes":[],"categories_segments":[],"categories_sizes":[],"default_left":[0,0,0,0,0,0,0,0,0,0,0,0,0,0,0,0,0,0,0,0,0,0,0,0,0,0,0],"id":22,"left_children":[1,3,5,7,9,11,13,15,17,-1,-1,19,21,23,25,-1,-1,-1,-1,-1,-1,-1,-1,-1,-1,-1,-1],"loss_changes":[3.147441E1,5.6304604E1,4.8578842E1,3.5038536E1,4.5890884E0,3.8013374E1,2.628092E1,4.538247E1,3.0214218E1,0E0,0E0,1.9575714E1,1.1965803E1,2.5445477E1,3.1075594E1,0E0,0E0,0E0,0E0,0E0,0E0,0E0,0E0,0E0,0E0,0E0,0E0],"parents":[2147483647,0,0,1,1,2,2,3,3,4,4,5,5,6,6,7,7,8,8,11,11,12,12,13,13,14,14],"right_children":[2,4,6,8,10,12,14,16,18,-1,-1,20,22,24,26,-1,-1,-1,-1,-1,-1,-1,-1,-1,-1,-1,-1],"split_conditions":[3.8316476E-1,1.11908294E-1,8.7223667E-1,8.432555E-1,6.442654E-1,9.975128E-1,7.217547E-1,3.9377883E-1,8.219635E-1,1.6795227E-1,5.8731567E-2,-4.9166217E-2,1.2701434E0,8.3682954E-1,1.0943835E0,2.2106988E-2,-9.4985664E-2,-1.3770282E-2,1.9190109E-1,-7.6459415E-2,-2.254759E-1,-3.071774E-2,1.3092588E-1,1.1454777E-1,-3.3258226E-2,-1.3314863E-1,5.7002902E-2],"split_indices":[4,4,4,1,2,3,1,3,3,0,0,3,0,2,1,0,0,0,0,0,0,0,0,0,0,0,0],"split_type":[0,0,0,0,0,0,0,0,0,0,0,0,0,0,0,0,0,0,0,0,0,0,0,0,0,0,0],"sum_hessian":[8E1,4.8E1,3.2E1,4E1,8E0,1.4E1,1.8E1,3.4E1,6E0,5E0,3E0,1.1E1,3E0,1.1E1,7E0,2.2E1,1.2E1,3E0,3E0,7E0,4E0,2E0,1E0,7E0,4E0,4E0,3E0],"tree_param":{"num_deleted":"0","num_feature":"6","num_nodes":"27","size_leaf_vector":"1"}},{"base_weights":[-4.9406863E-3,3.482437E-1,-1.030622E0,1.3657427E0,-3.035515E-1,-1.7545916E-1,-4.225739E-1,8.0230135E-1,1.991187E-1,-7.471772E-1,1.453442E0,-8.470046E-1,1.2746847E0,2.0538966E-1,1.1907757E-2,1.0780674E-1,-5.6762557E-2,1.7974807E-1,-2.7523099E-2,6.360533E-3,-1.4104386E-1,7.5865336E-2,1.3670469E-2],"categories":[],"categories_nodes":[],"categories_segments":[],"categories_sizes":[],"default_left":[0,0,0,0,0,0,0,0,0,0,0,0,0,0,0,0,0,0,0,0,0,0,0],"id":23,"left_children":[1,3,5,7,9,-1,11,13,-1,15,17,19,21,-1,-1,-1,-1,-1,-1,-1,-1,-1,-1],"loss_changes":[2.9701534E1,4.086983E1,3.0165886E1,3.2188572E1,3.0704983E1,0E0,1.4046298E1,3.8182106E1,0E0,3.737545E1,3.631008E1,2.9203499E1,5.568795E-1,0E0,0E0,0E0,0E0,0E0,0E0,0E0,0E0,0E0,0E0],"parents":[2147483647,0,0,1,1,2,2,3,3,4,4,6,6,7,7,9,9,10,10,11,11,12,12],"right_children":[2,4,6,8,10,-1,12,14,-1,16,18,20,22,-1,-1,-1,-1,-1,-1,-1,-1,-1,-1],"split_conditions":[9.492109E-1,-4.425271E-1,-1.3278875E0,1.1011449E0,4.200484E-1,-1.7545916E-1,8.4578514E-1,-1.1465855E0,1.991187E-1,-1.5437655E0,6.442654E-1,4.7507027E-1,1.5999178E0,2.0538966E-1,1.1907757E-2,1.0780674E-1,-5.6762557E-2,1.7974807E-1,-2.7523099E-2,6.360533E-3,-1.4104386E-1,7.5865336E-2,1.3670469E-2],"split_indices":[2,1,1,0,2,0,1,3,0,2,2,1,1,0,0,0,0,0,0,0,0,0,0],"split_type":[0,0,0,0,0,0,0,0,0,0,0,0,0,0,0,0,0,0,0,0,0,0,0],"sum_hessian":[8E1,6E1,2E1,2.3E1,3.7E1,3E0,1.7E1,2E1,3E0,3E1,7E0,1.4E1,3E0,2E0,1.8E1,3E0,2.7E1,3E0,4E0,1E1,4E0,2E0,1E0],"tree_param":{"num_deleted":"0","num_feature":"6","num_nodes":"23","size_leaf_vector":"1"}},{"base_weights":[2.3322046E-4,4.823384E-1,-7.15627E-1,7.156872E-3,2.593461E0,-1.979283E0,3.1966075E-1,-3.7810615E-1,1.9324496E0,3.1340034E0,5.671413E-2,-2.7334905E0,7.7816E-1,1.2838951E0,-8.9436585E-1,2.1327864E-2,-8.8632815E-2,-1.40290735E-2,1.8311842E-1,7.0090026E-2,1.8248273E-1,-7.0533365E-2,-2.1516548E-1,-2.9905835E-2,1.22674756E-1,1.2256614E-1,-3.0364124E-2,-1.0310244E-1,5.40375E-2],"categories":[],"categories_nodes":[],"categories_segments":[],"categories_sizes":[],"default_left":[0,0,0,0,0,0,0,0,0,0,0,0,0,0,0,0,0,0,0,0,0,0,0,0,0,0,0,0,0],"id":24,"left_children":[1,3,5,7,9,11,13,15,17,19,-1,21,23,25,27,-1,-1,-1,-1,-1,-1,-1,-1,-1,-1,-1,-1,-1,-1],"loss_changes":[2.8299889E1,4.9136604E1,4.380487E1,3.1142181E1,3.5438766E0,3.332235E1,2.3389791E1,4.0031162E1,2.782614E1,2.4319077E-1,0E0,1.8848587E1,1.0690375E1,2.5774582E1,2.298534E1,0E0,0E0,0E0,0E0,0E0,0E0,0E0,0E0,0E0,0E0,0E0,0E0,0E0,0E0],"parents":[2147483647,0,0,1,1,2,2,3,3,4,4,5,5,6,6,7,7,8,8,9,9,11,11,12,12,13,13,14,14],"right_children":[2,4,6,8,10,12,14,16,18,20,-1,22,24,26,28,-1,-1,-1,-1,-1,-1,-1,-1,-1,-1,-1,-1,-1,-1],"split_conditions":[3.8316476E-1,1.11908294E-1,8.7223667E-1,8.432555E-1,6.442654E-1,9.975128E-1,2.4995185E-1,3.9377883E-1,8.219635E-1,-1.2216544E0,5.671413E-2,-4.9166217E-2,1.2701434E0,8.3682954E-1,1.0943835E0,2.1327864E-2,-8.8632815E-2,-1.40290735E-2,1.8311842E-1,7.0090026E-2,1.8248273E-1,-7.0533365E-2,-2.1516548E-1,-2.9905835E-2,1.22674756E-1,1.2256614E-1,-3.0364124E-2,-1.0310244E-1,5.40375E-2],"split_indices":[4,4,4,1,2,3,1,3,3,0,0,3,0,2,1,0,0,0,0,0,0,0,0,0,0,0,0,0,0],"split_type":[0,0,0,0,0,0,0,0,0,0,0,0,0,0,0,0,0,0,0,0,0,0,0,0,0,0,0,0,0],"sum_hessian":[8E1,4.8E1,3.2E1,4E1,8E0,1.4E1,1.8E1,3.4E1,6E0,5E0,3E0,1.1E1,3E0,1E1,8E0,2.2E1,1.2E1,3E0,3E0,2E0,3E0,7E0,4E0,2E0,1E0,6E0,4E0,5E0,3E0],"tree_param":{"num_deleted":"0","num_feature":"6","num_nodes":"29","size_leaf_vector":"1"}},{"base_weights":[3.4471913E-3,3.4088102E-1,-9.768819E-1,-2.280242E0,5.6482375E-1,-1.6903308E-1,-3.8843742E-1,-3.000009E-3,-1.4101513E-1,-2.1428031E-4,1.5334705E0,-7.846767E-1,1.1945691E0,1.961451E-1,-1.6823765E-2,1.2514977E-1,-3.815751E-2,6.450729E-3,-1.3189311E-1,7.051832E-2,1.3679433E-2],"categories":[],"categories_nodes":[],"categories_segments":[],"categories_sizes":[],"default_left":[0,0,0,0,0,0,0,0,0,0,0,0,0,0,0,0,0,0,0,0,0],"id":25,"left_children":[1,3,5,7,9,-1,11,-1,-1,13,15,17,19,-1,-1,-1,-1,-1,-1,-1,-1],"loss_changes":[2.7127493E1,3.70938E1,2.8391132E1,5.826105E0,3.1197695E1,0E0,1.2227839E1,0E0,0E0,5.0130028E1,4.8669422E1,2.5738914E1,4.0912008E-1,0E0,0E0,0E0,0E0,0E0,0E0,0E0,0E0],"parents":[2147483647,0,0,1,1,2,2,3,3,4,4,6,6,9,9,10,10,11,11,12,12],"right_children":[2,4,6,8,10,-1,12,-1,-1,14,16,18,20,-1,-1,-1,-1,-1,-1,-1,-1],"split_conditions":[9.492109E-1,-1.4389558E0,-1.3278875E0,-1.2641364E0,4.087602E-1,-1.6903308E-1,8.4578514E-1,-3.000009E-3,-1.4101513E-1,-1.1465855E0,7.796576E-1,4.7507027E-1,1.5999178E0,1.961451E-1,-1.6823765E-2,1.2514977E-1,-3.815751E-2,6.450729E-3,-1.3189311E-1,7.051832E-2,1.3679433E-2],"split_indices":[2,3,1,0,0,0,1,0,0,3,4,1,1,0,0,0,0,0,0,0,0],"split_type":[0,0,0,0,0,0,0,0,0,0,0,0,0,0,0,0,0,0,0,0,0],"sum_hessian":[8E1,6E1,2E1,4E0,5.6E1,3E0,1.7E1,1E0,3E0,3.6E1,2E1,1.4E1,3E0,2E0,3.4E1,1.4E1,6E0,1E1,4E0,2E0,1E0],"tree_param":{"num_deleted":"0","num_feature":"6","num_nodes":"21","size_leaf_vector":"1"}},{"base_weights":[2.1886767E-3,4.5628902E-1,-6.7214787E-1,1.7241152E-3,2.476386E0,-1.888759E0,3.2371083E-1,-9.1495407E-1,7.5890505E-1,1.4930469E-1,5.4636385E-2,-2.6035926E0,7.279315E-1,1.148872E0,-9.544949E-1,1.2672244E-1,-7.349258E-2,-1.4724396E-1,8.468214E-2,-6.6857435E-2,-2.0545922E-1,-2.912399E-2,1.16479136E-1,1.0344837E-1,-2.765275E-2,-1.18899874E-1,5.317534E-2],"categories":[],"categories_nodes":[],"categories_segments":[],"categories_sizes":[],"default_left":[0,0,0,0,0,0,0,0,0,0,0,0,0,0,0,0,0,0,0,0,0,0,0,0,0,0,0],"id":26,"left_children":[1,3,5,7,9,11,13,15,17,-1,-1,19,21,23,25,-1,-1,-1,-1,-1,-1,-1,-1,-1,-1,-1,-1],"loss_changes":[2.5110228E1,4.4990723E1,4.0593315E1,2.9152103E1,3.0843658E0,2.9952717E1,2.1136381E1,4.009249E1,8.46151E1,0E0,0E0,1.7386375E1,9.752222E0,1.9935478E1,2.5510061E1,0E0,0E0,0E0,0E0,0E0,0E0,0E0,0E0,0E0,0E0,0E0,0E0],"parents":[2147483647,0,0,1,1,2,2,3,3,4,4,5,5,6,6,7,7,8,8,11,11,12,12,13,13,14,14],"right_children":[2,4,6,8,10,12,14,16,18,-1,-1,20,22,24,26,-1,-1,-1,-1,-1,-1,-1,-1,-1,-1,-1,-1],"split_conditions":[3.8316476E-1,1.11908294E-1,8.7223667E-1,-3.550831E-1,6.442654E-1,9.975128E-1,7.217547E-1,-9.5578283E-1,-1.0587592E0,1.4930469E-1,5.4636385E-2,-4.9166217E-2,1.2701434E0,8.3682954E-1,1.0943835E0,1.2672244E-1,-7.349258E-2,-1.4724396E-1,8.468214E-2,-6.6857435E-2,-2.0545922E-1,-2.912399E-2,1.16479136E-1,1.0344837E-1,-2.765275E-2,-1.18899874E-1,5.317534E-2],"split_indices":[4,4,4,0,2,3,1,3,3,0,0,3,0,2,1,0,0,0,0,0,0,0,0,0,0,0,0],"split_type":[0,0,0,0,0,0,0,0,0,0,0,0,0,0,0,0,0,0,0,0,0,0,0,0,0,0,0],"sum_hessian":[8E1,4.8E1,3.2E1,4E1,8E0,1.4E1,1.8E1,1.8E1,2.2E1,5E0,3E0,1.1E1,3E0,1.1E1,7E0,2E0,1.6E1,4E0,1.8E1,7E0,4E0,2E0,1E0,7E0,4E0,4E0,3E0],"tree_param":{"num_deleted":"0","num_feature":"6","num_nodes":"27","size_leaf_vector":"1"}},{"base_weights":[2.3227562E-3,3.19113E-1,-9.17988E-1,-2.0989842E0,5.2562827E-1,-1.6248856E-1,-3.488147E-1,4.7481062E-5,-1.3121025E-1,6.796093E-1,-1.2362832E-1,-7.3588526E-1,1.1899035E0,1.5207596E-2,1.2824096E-1,6.5858713E-3,-1.2487171E-1,6.798121E-2,1.7018532E-2],"categories":[],"categories_nodes":[],"categories_segments":[],"categories_sizes":[],"default_left":[0,0,0,0,0,0,0,0,0,0,0,0,0,0,0,0,0,0,0],"id":27,"left_children":[1,3,5,7,9,-1,11,-1,-1,13,-1,15,17,-1,-1,-1,-1,-1,-1],"loss_changes":[2.3908125E1,3.1565105E1,2.6737392E1,5.5171356E0,2.7995285E1,0E0,1.1596298E1,0E0,0E0,3.814978E1,0E0,2.3253819E1,1.13957405E-1,0E0,0E0,0E0,0E0,0E0,0E0],"parents":[2147483647,0,0,1,1,2,2,3,3,4,4,6,6,9,9,11,11,12,12],"right_children":[2,4,6,8,10,-1,12,-1,-1,14,-1,16,18,-1,-1,-1,-1,-1,-1],"split_conditions":[9.492109E-1,-1.4389558E0,-1.3278875E0,-1.2641364E0,1.5668375E0,-1.6248856E-1,8.4578514E-1,4.7481062E-5,-1.3121025E-1,9.975128E-1,-1.2362832E-1,4.7507027E-1,1.5999178E0,1.5207596E-2,1.2824096E-1,6.5858713E-3,-1.2487171E-1,6.798121E-2,1.7018532E-2],"split_indices":[2,3,1,0,3,0,1,0,0,3,0,1,1,0,0,0,0,0,0],"split_type":[0,0,0,0,0,0,0,0,0,0,0,0,0,0,0,0,0,0,0],"sum_hessian":[8E1,6E1,2E1,4E0,5.6E1,3E0,1.7E1,1E0,3E0,5.4E1,2E0,1.4E1,3E0,4.6E1,8E0,1E1,4E0,2E0,1E0],"tree_param":{"num_deleted":"0","num_feature":"6","num_nodes":"19","size_leaf_vector":"1"}},{"base_weights":[-1.5847889E-3,4.2970377E-1,-6.4193493E-1,-2.539251E-3,2.351066E0,-1.8081318E0,3.125328E-1,-3.753655E-1,1.8619547E0,2.8301618E0,5.223279E-2,-2.4861715E0,6.780206E-1,1.1917549E0,-7.967979E-1,1.9555716E-2,-8.512854E-2,-7.6153637E-3,1.705364E-1,6.283075E-2,1.6513908E-1,-6.280714E-2,-1.9784917E-1,-2.8372725E-2,1.1036115E-1,1.1158027E-1,-2.5119338E-2,-9.350052E-2,5.0611008E-2],"categories":[],"categories_nodes":[],"categories_segments":[],"categories_sizes":[],"default_left":[0,0,0,0,0,0,0,0,0,0,0,0,0,0,0,0,0,0,0,0,0,0,0,0,0,0,0,0,0],"id":28,"left_children":[1,3,5,7,9,11,13,15,17,19,-1,21,23,25,27,-1,-1,-1,-1,-1,-1,-1,-1,-1,-1,-1,-1,-1,-1],"loss_changes":[2.2646074E1,4.0700245E1,3.729731E1,2.9199335E1,2.6765175E0,2.6971321E1,1.9481201E1,3.6270565E1,2.2356922E1,3.1180954E-1,0E0,1.6739159E1,8.870832E0,2.0499325E1,1.9366007E1,0E0,0E0,0E0,0E0,0E0,0E0,0E0,0E0,0E0,0E0,0E0,0E0,0E0,0E0],"parents":[2147483647,0,0,1,1,2,2,3,3,4,4,5,5,6,6,7,7,8,8,9,9,11,11,12,12,13,13,14,14],"right_children":[2,4,6,8,10,12,14,16,18,20,-1,22,24,26,28,-1,-1,-1,-1,-1,-1,-1,-1,-1,-1,-1,-1,-1,-1],"split_conditions":[3.8316476E-1,1.11908294E-1,8.7223667E-1,8.432555E-1,6.442654E-1,9.975128E-1,2.4995185E-1,3.9377883E-1,8.219635E-1,-1.2216544E0,5.223279E-2,-4.9166217E-2,1.2701434E0,8.3682954E-1,1.0943835E0,1.9555716E-2,-8.512854E-2,-7.6153637E-3,1.705364E-1,6.283075E-2,1.6513908E-1,-6.280714E-2,-1.9784917E-1,-2.8372725E-2,1.1036115E-1,1.1158027E-1,-2.5119338E-2,-9.350052E-2,5.0611008E-2],"split_indices":[4,4,4,1,2,3,1,3,3,0,0,3,0,2,1,0,0,0,0,0,0,0,0,0,0,0,0,0,0],"split_type":[0,0,0,0,0,0,0,0,0,0,0,0,0,0,0,0,0,0,0,0,0,0,0,0,0,0,0,0,0],"sum_hessian":[8E1,4.8E1,3.2E1,4E1,8E0,1.4E1,1.8E1,3.4E1,6E0,5E0,3E0,1.1E1,3E0,1E1,8E0,2.2E1,1.2E1,3E0,3E0,2E0,3E0,7E0,4E0,2E0,1E0,6E0,4E0,5E0,3E0],"tree_param":{"num_deleted":"0","num_feature":"6","num_nodes":"29","size_leaf_vector":"1"}},{"base_weights":[1.4877142E-3,3.0162653E-1,-8.70415E-1,1.1590225E0,-2.4782418E-1,-1.5657012E-1,-3.1961688E-1,6.6621476E-1,1.7282535E-1,-6.520258E-1,1.3494353E0,-6.8029547E-1,1.1128321E0,1.0494623E-1,-1.884543E-2,-8.692919E-2,1.7252805E-2,1.4143234E-1,-4.18469E-2,6.6213044E-3,-1.166112E-1,6.299984E-2,1.6783452E-2],"categories":[],"categories_nodes":[],"categories_segments":[],"categories_sizes":[],"default_left":[0,0,0,0,0,0,0,0,0,0,0,0,0,0,0,0,0,0,0,0,0,0,0],"id":29,"left_children":[1,3,5,7,9,-1,11,13,-1,15,17,19,21,-1,-1,-1,-1,-1,-1,-1,-1,-1,-1],"loss_changes":[2.145958E1,2.9024137E1,2.515145E1,2.4870453E1,2.5413233E1,0E0,1.0056821E1,3.217546E1,0E0,3.418491E1,2.8240274E1,2.0447212E1,3.4542084E-2,0E0,0E0,0E0,0E0,0E0,0E0,0E0,0E0,0E0,0E0],"parents":[2147483647,0,0,1,1,2,2,3,3,4,4,6,6,7,7,9,9,10,10,11,11,12,12],"right_children":[2,4,6,8,10,-1,12,14,-1,16,18,20,22,-1,-1,-1,-1,-1,-1,-1,-1,-1,-1],"split_conditions":[9.492109E-1,-4.425271E-1,-1.3278875E0,1.1011449E0,4.200484E-1,-1.5657012E-1,8.4578514E-1,-7.8522205E-1,1.7282535E-1,-2.8800848E-1,3.4784457E-1,4.7507027E-1,1.5999178E0,1.0494623E-1,-1.884543E-2,-8.692919E-2,1.7252805E-2,1.4143234E-1,-4.18469E-2,6.6213044E-3,-1.166112E-1,6.299984E-2,1.6783452E-2],"split_indices":[2,1,1,0,2,0,1,0,0,0,0,1,1,0,0,0,0,0,0,0,0,0,0],"split_type":[0,0,0,0,0,0,0,0,0,0,0,0,0,0,0,0,0,0,0,0,0,0,0],"sum_hessian":[8E1,6E1,2E1,2.3E1,3.7E1,3E0,1.7E1,2E1,3E0,3E1,7E0,1.4E1,3E0,8E0,1.2E1,1.4E1,1.6E1,4E0,3E0,1E1,4E0,2E0,1E0],"tree_param":{"num_deleted":"0","num_feature":"6","num_nodes":"23","size_leaf_vector":"1"}},{"base_weights":[2.6732786E-3,4.1309783E-1,-6.06826E-1,8.002014E-3,2.2126346E0,-1.7300702E0,3.1188393E-1,-1.7790512E0,3.65184E-1,2.6744103E0,4.834062E-2,6.208036E-1,-2.3695223E0,1.0644383E0,-8.5593325E-1,-2.1138255E-2,-1.7232555E-1,1.1749643E-1,-1.5496142E-2,6.0436107E-2,1.552537E-1,-2.746741E-2,1.03281476E-1,-5.426672E-2,-1.7364107E-1,9.4050065E-2,-2.2747492E-2,-1.0568576E-1,4.651388E-2],"categories":[],"categories_nodes":[],"categories_segments":[],"categories_sizes":[],"default_left":[0,0,0,0,0,0,0,0,0,0,0,0,0,0,0,0,0,0,0,0,0,0,0,0,0,0,0,0,0],"id":30,"left_children":[1,3,5,7,9,11,13,15,17,19,-1,21,23,25,27,-1,-1,-1,-1,-1,-1,-1,-1,-1,-1,-1,-1,-1,-1],"loss_changes":[2.0513111E1,3.5702553E1,3.4593456E1,2.6820116E1,2.591961E0,2.4020077E1,1.7609163E1,1.4373798E1,4.7625313E1,3.4137726E-2,0E0,7.897413E0,1.3232948E1,1.5743873E1,1.9939655E1,0E0,0E0,0E0,0E0,0E0,0E0,0E0,0E0,0E0,0E0,0E0,0E0,0E0,0E0],"parents":[2147483647,0,0,1,1,2,2,3,3,4,4,5,5,6,6,7,7,8,8,9,9,11,11,12,12,13,13,14,14],"right_children":[2,4,6,8,10,12,14,16,18,20,-1,22,24,26,28,-1,-1,-1,-1,-1,-1,-1,-1,-1,-1,-1,-1,-1,-1],"split_conditions":[3.8316476E-1,1.11908294E-1,8.7223667E-1,-1.2404236E0,6.442654E-1,-9.2432755E-1,7.217547E-1,-9.0798473E-1,-8.0395514E-1,-1.2216544E0,4.834062E-2,1.1011449E0,-4.9166217E-2,8.3682954E-1,1.0943835E0,-2.1138255E-2,-1.7232555E-1,1.1749643E-1,-1.5496142E-2,6.0436107E-2,1.552537E-1,-2.746741E-2,1.03281476E-1,-5.426672E-2,-1.7364107E-1,9.4050065E-2,-2.2747492E-2,-1.0568576E-1,4.651388E-2],"split_indices":[4,4,4,1,2,1,1,4,1,0,0,0,3,2,1,0,0,0,0,0,0,0,0,0,0,0,0,0,0],"split_type":[0,0,0,0,0,0,0,0,0,0,0,0,0,0,0,0,0,0,0,0,0,0,0,0,0,0,0,0,0],"sum_hessian":[8E1,4.8E1,3.2E1,4E1,8E0,1.4E1,1.8E1,6E0,3.4E1,5E0,3E0,3E0,1.1E1,1.1E1,7E0,4E0,2E0,8E0,2.6E1,2E0,3E0,2E0,1E0,6E0,5E0,7E0,4E0,4E0,3E0],"tree_param":{"num_deleted":"0","num_feature":"6","num_nodes":"29","size_leaf_vector":"1"}},{"base_weights":[2.9421619E-3,3.9596477E-1,-5.80726E-1,-2.6488531E-2,2.0461814E0,-1.6537061E0,2.9692805E-1,-9.144365E-1,1.1095833E0,3.5822144E0,4.2512378E-1,-2.2813182E0,6.4255655E-1,1.1021622E0,-7.20239E-1,1.2092239E-2,-1.369984E-1,8.434189E-2,-6.662585E-2,2.0154683E-1,4.4683125E-2,-6.283311E-2,5.064067E-2,-5.689406E-2,-1.8272768E-1,-2.4295863E-2,1.0069945E-1,1.0219675E-1,-2.1837607E-2,-8.386434E-2,4.4769622E-2],"categories":[],"categories_nodes":[],"categories_segments":[],"categories_sizes":[],"default_left":[0,0,0,0,0,0,0,0,0,0,0,0,0,0,0,0,0,0,0,0,0,0,0,0,0,0,0,0,0,0,0],"id":31,"left_children":[1,3,5,7,9,11,13,15,17,19,21,23,25,27,29,-1,-1,-1,-1,-1,-1,-1,-1,-1,-1,-1,-1,-1,-1,-1,-1],"loss_changes":[1.8810925E1,3.421403E1,3.1567307E1,4.136555E1,2.3377098E1,2.3083305E1,1.6355915E1,4.9211685E1,2.7622578E1,2.4297714E0,7.2029734E0,1.4684048E1,7.169133E0,1.6835077E1,1.5417958E1,0E0,0E0,0E0,0E0,0E0,0E0,0E0,0E0,0E0,0E0,0E0,0E0,0E0,0E0,0E0,0E0],"parents":[2147483647,0,0,1,1,2,2,3,3,4,4,5,5,6,6,7,7,8,8,9,9,10,10,11,11,12,12,13,13,14,14],"right_children":[2,4,6,8,10,12,14,16,18,20,22,24,26,28,30,-1,-1,-1,-1,-1,-1,-1,-1,-1,-1,-1,-1,-1,-1,-1,-1],"split_conditions":[3.8316476E-1,8.432555E-1,8.7223667E-1,1.3235049E-1,6.442654E-1,9.975128E-1,2.4995185E-1,3.9377883E-1,1.4404138E0,3.1147736E-1,6.899934E-1,-4.9166217E-2,1.2701434E0,8.3682954E-1,1.0943835E0,1.2092239E-2,-1.369984E-1,8.434189E-2,-6.662585E-2,2.0154683E-1,4.4683125E-2,-6.283311E-2,5.064067E-2,-5.689406E-2,-1.8272768E-1,-2.4295863E-2,1.0069945E-1,1.0219675E-1,-2.1837607E-2,-8.386434E-2,4.4769622E-2],"split_indices":[4,1,4,0,2,3,1,3,3,4,2,3,0,2,1,0,0,0,0,0,0,0,0,0,0,0,0,0,0,0,0],"split_type":[0,0,0,0,0,0,0,0,0,0,0,0,0,0,0,0,0,0,0,0,0,0,0,0,0,0,0,0,0,0,0],"sum_hessian":[8E1,4.8E1,3.2E1,3.9E1,9E0,1.4E1,1.8E1,2.2E1,1.7E1,4E0,5E0,1.1E1,3E0,1E1,8E0,1.4E1,8E0,1.4E1,3E0,3E0,1E0,1E0,4E0,7E0,4E0,2E0,1E0,6E0,4E0,5E0,3E0],"tree_param":{"num_deleted":"0","num_feature":"6","num_nodes":"31","size_leaf_vector":"1"}},{"base_weights":[2.8553775E-3,2.8093952E-1,-8.050488E-1,-1.910501E0,4.6824238E-1,-1.4892857E-1,-2.7731884E-1,9.295786E-3,-1.2405421E-1,-2.7277404E-2,1.3190038E0,-6.1299E-1,1.0507777E0,1.7414945E-1,-1.6368901E-2,1.0650994E-1,-3.0385012E-2,6.656807E-3,-1.0659348E-1,5.9728354E-2,1.5485239E-2],"categories":[],"categories_nodes":[],"categories_segments":[],"categories_sizes":[],"default_left":[0,0,0,0,0,0,0,0,0,0,0,0,0,0,0,0,0,0,0,0,0],"id":32,"left_children":[1,3,5,7,9,-1,11,-1,-1,13,15,17,19,-1,-1,-1,-1,-1,-1,-1,-1],"loss_changes":[1.8424065E1,2.5932827E1,2.3261677E1,6.442173E0,2.4065418E1,0E0,8.668583E0,0E0,0E0,4.011728E1,3.4116108E1,1.7282965E1,5.6270123E-2,0E0,0E0,0E0,0E0,0E0,0E0,0E0,0E0],"parents":[2147483647,0,0,1,1,2,2,3,3,4,4,6,6,9,9,10,10,11,11,12,12],"right_children":[2,4,6,8,10,-1,12,-1,-1,14,16,18,20,-1,-1,-1,-1,-1,-1,-1,-1],"split_conditions":[9.492109E-1,-1.4389558E0,-1.3278875E0,-1.2641364E0,4.087602E-1,-1.4892857E-1,8.4578514E-1,9.295786E-3,-1.2405421E-1,-1.1465855E0,7.796576E-1,4.7507027E-1,1.5999178E0,1.7414945E-1,-1.6368901E-2,1.0650994E-1,-3.0385012E-2,6.656807E-3,-1.0659348E-1,5.9728354E-2,1.5485239E-2],"split_indices":[2,3,1,0,0,0,1,0,0,3,4,1,1,0,0,0,0,0,0,0,0],"split_type":[0,0,0,0,0,0,0,0,0,0,0,0,0,0,0,0,0,0,0,0,0],"sum_hessian":[8E1,6E1,2E1,4E0,5.6E1,3E0,1.7E1,1E0,3E0,3.6E1,2E1,1.4E1,3E0,2E0,3.4E1,1.4E1,6E0,1E1,4E0,2E0,1E0],"tree_param":{"num_deleted":"0","num_feature":"6","num_nodes":"21","size_leaf_vector":"1"}},{"base_weights":[2.0396856E-3,2.688457E-1,-7.730654E-1,-1.8379276E0,4.4893378E-1,-1.4334375E-1,-2.648263E-1,9.063387E-3,-1.1940217E-1,5.891399E-1,-1.1355781E-1,-5.890028E-1,1.0170422E0,1.6065313E-2,1.3614486E-1,1.16251875E-2,-9.3000665E-2,5.77374E-2,1.5098119E-2],"categories":[],"categories_nodes":[],"categories_segments":[],"categories_sizes":[],"default_left":[0,0,0,0,0,0,0,0,0,0,0,0,0,0,0,0,0,0,0],"id":33,"left_children":[1,3,5,7,9,-1,11,-1,-1,13,-1,15,17,-1,-1,-1,-1,-1,-1],"loss_changes":[1.6958853E1,2.39688E1,2.158805E1,5.9868317E0,2.3076302E1,0E0,8.07897E0,0E0,0E0,3.0557177E1,0E0,1.609461E1,4.519224E-2,0E0,0E0,0E0,0E0,0E0,0E0],"parents":[2147483647,0,0,1,1,2,2,3,3,4,4,6,6,9,9,11,11,12,12],"right_children":[2,4,6,8,10,-1,12,-1,-1,14,-1,16,18,-1,-1,-1,-1,-1,-1],"split_conditions":[9.492109E-1,-1.4389558E0,-1.3278875E0,-1.2641364E0,1.5668375E0,-1.4334375E-1,8.4578514E-1,9.063387E-3,-1.1940217E-1,1.3789749E0,-1.1355781E-1,6.848848E-2,1.5999178E0,1.6065313E-2,1.3614486E-1,1.16251875E-2,-9.3000665E-2,5.77374E-2,1.5098119E-2],"split_indices":[2,3,1,0,3,0,1,0,0,3,0,1,1,0,0,0,0,0,0],"split_type":[0,0,0,0,0,0,0,0,0,0,0,0,0,0,0,0,0,0,0],"sum_hessian":[8E1,6E1,2E1,4E0,5.6E1,3E0,1.7E1,1E0,3E0,5.4E1,2E0,1.4E1,3E0,4.9E1,5E0,9E0,5E0,2E0,1E0],"tree_param":{"num_deleted":"0","num_feature":"6","num_nodes":"19","size_leaf_vector":"1"}},{"base_weights":[-8.225382E-4,3.678449E-1,-5.4821295E-1,-1.29483035E-2,2.061698E0,-1.5843782E0,2.9866564E-1,-3.538207E-1,1.6932634E0,1.24480605E-1,4.5220114E-2,-2.1670477E0,5.597249E-1,9.8558146E-1,-7.6904124E-1,1.5916524E-2,-7.578971E-2,-6.5109134E-3,1.5467148E-1,-5.3074777E-2,-1.751261E-1,-2.40954E-2,9.2115596E-2,8.553726E-2,-1.8589845E-2,-9.6285336E-2,4.345255E-2],"categories":[],"categories_nodes":[],"categories_segments":[],"categories_sizes":[],"default_left":[0,0,0,0,0,0,0,0,0,0,0,0,0,0,0,0,0,0,0,0,0,0,0,0,0,0,0],"id":34,"left_children":[1,3,5,7,9,11,13,15,17,-1,-1,19,21,23,25,-1,-1,-1,-1,-1,-1,-1,-1,-1,-1,-1,-1],"loss_changes":[1.6547865E1,3.1632076E1,2.94309E1,2.4444733E1,2.2053986E0,1.9952503E1,1.4693022E1,2.7818287E1,1.8275059E1,0E0,0E0,1.3999325E1,6.231764E0,1.2447907E1,1.6831335E1,0E0,0E0,0E0,0E0,0E0,0E0,0E0,0E0,0E0,0E0,0E0,0E0],"parents":[2147483647,0,0,1,1,2,2,3,3,4,4,5,5,6,6,7,7,8,8,11,11,12,12,13,13,14,14],"right_children":[2,4,6,8,10,12,14,16,18,-1,-1,20,22,24,26,-1,-1,-1,-1,-1,-1,-1,-1,-1,-1,-1,-1],"split_conditions":[3.8316476E-1,1.11908294E-1,8.7223667E-1,8.432555E-1,6.442654E-1,9.975128E-1,7.217547E-1,3.9377883E-1,8.219635E-1,1.24480605E-1,4.5220114E-2,-4.9166217E-2,1.2701434E0,8.3682954E-1,1.0943835E0,1.5916524E-2,-7.578971E-2,-6.5109134E-3,1.5467148E-1,-5.3074777E-2,-1.751261E-1,-2.40954E-2,9.2115596E-2,8.553726E-2,-1.8589845E-2,-9.6285336E-2,4.345255E-2],"split_indices":[4,4,4,1,2,3,1,3,3,0,0,3,0,2,1,0,0,0,0,0,0,0,0,0,0,0,0],"split_type":[0,0,0,0,0,0,0,0,0,0,0,0,0,0,0,0,0,0,0,0,0,0,0,0,0,0,0],"sum_hessian":[8E1,4.8E1,3.2E1,4E1,8E0,1.4E1,1.8E1,3.4E1,6E0,5E0,3E0,1.1E1,3E0,1.1E1,7E0,2.2E1,1.2E1,3E0,3E0,7E0,4E0,2E0,1E0,7E0,4E0,4E0,3E0],"tree_param":{"num_deleted":"0","num_feature":"6","num_nodes":"27","size_leaf_vector":"1"}},{"base_weights":[6.003144E-4,1.3959268E-1,-6.918852E-2,-1.3813388E-1,7.163155E-2,5.1824886E-1,-6.0780865E-1,-1.0794307E-1,3.749221E-2,-7.57919E-2,1.1457359E-2],"categories":[],"categories_nodes":[],"categories_segments":[],"categories_sizes":[],"default_left":[0,0,0,0,0,0,0,0,0,0,0],"id":35,"left_children":[1,-1,3,-1,5,7,9,-1,-1,-1,-1],"loss_changes":[1.5971826E1,0E0,3.0541683E1,0E0,2.3680628E1,3.0759098E1,2.3906748E1,0E0,0E0,0E0,0E0],"parents":[2147483647,0,0,2,2,4,4,5,5,6,6],"right_children":[2,-1,4,-1,6,8,10,-1,-1,-1,-1],"split_conditions":[-1.5844858E0,1.3959268E-1,-1.3278875E0,-1.3813388E-1,3.8316476E-1,-1.7408543E0,8.7223667E-1,-1.0794307E-1,3.749221E-2,-7.57919E-2,1.1457359E-2],"split_indices":[1,0,1,0,4,0,4,0,0,0,0],"split_type":[0,0,0,0,0,0,0,0,0,0,0],"sum_hessian":[8E1,1E0,7.9E1,3E0,7.6E1,4.6E1,3E1,3E0,4.3E1,1.4E1,1.6E1],"tree_param":{"num_deleted":"0","num_feature":"6","num_nodes":"11","size_leaf_vector":"1"}},{"base_weights":[-1.0755209E-3,1.3610284E-1,-6.914039E-2,-1.3295387E-1,6.6299714E-2,4.9083778E-1,-5.794935E-1,-1.0389519E-1,3.566022E-2,-7.225494E-2,1.0918185E-2],"categories":[],"categories_nodes":[],"categories_segments":[],"categories_sizes":[],"default_left":[0,0,0,0,0,0,0,0,0,0,0],"id":36,"left_children":[1,-1,3,-1,5,7,9,-1,-1,-1,-1],"loss_changes":[1.5201525E1,0E0,2.82388E1,0E0,2.1395052E1,2.8328476E1,2.172507E1,0E0,0E0,0E0,0E0],"parents":[2147483647,0,0,2,2,4,4,5,5,6,6],"right_children":[2,-1,4,-1,6,8,10,-1,-1,-1,-1],"split_conditions":[-1.5844858E0,1.3610284E-1,-1.3278875E0,-1.3295387E-1,3.8316476E-1,-1.7408543E0,8.7223667E-1,-1.0389519E-1,3.566022E-2,-7.225494E-2,1.0918185E-2],"split_indices":[1,0,1,0,4,0,4,0,0,0,0],"split_type":[0,0,0,0,0,0,0,0,0,0,0],"sum_hessian":[8E1,1E0,7.9E1,3E0,7.6E1,4.6E1,3E1,3E0,4.3E1,1.4E1,1.6E1],"tree_param":{"num_deleted":"0","num_feature":"6","num_nodes":"11","size_leaf_vector":"1"}},{"base_weights":[-2.5823733E-3,-1.3417608E-1,1.4077191E0,5.215393E-3,-1.7380472E0,1.3967173E-1,-1.371046E0,1.3270028E-1,-7.163672E-2,4.131663E-2,-1.2080949E-1,-4.9158337E-4,-1.0233686E-1,-1.279681E-1,4.0109954E-3],"categories":[],"categories_nodes":[],"categories_segments":[],"categories_sizes":[],"default_left":[0,0,0,0,0,0,0,0,0,0,0,0,0,0,0],"id":37,"left_children":[1,3,5,7,9,-1,11,-1,13,-1,-1,-1,-1,-1,-1],"loss_changes":[1.5221414E1,1.6776512E1,3.0783966E1,1.4439682E1,1.2430666E1,0E0,2.739159E0,0E0,2.6271963E1,0E0,0E0,0E0,0E0,0E0,0E0],"parents":[2147483647,0,0,1,1,2,2,3,3,4,4,6,6,8,8],"right_children":[2,4,6,8,10,-1,12,-1,14,-1,-1,-1,-1,-1,-1],"split_conditions":[1.4098246E0,1.2213582E0,6.9923955E-1,-1.5844858E0,-1.0889912E0,1.3967173E-1,1.5325816E0,1.3270028E-1,-1.3278875E0,4.131663E-2,-1.2080949E-1,-4.9158337E-4,-1.0233686E-1,-1.279681E-1,4.0109954E-3],"split_indices":[0,0,4,1,2,0,0,0,1,0,0,0,0,0,0],"split_type":[0,0,0,0,0,0,0,0,0,0,0,0,0,0,0],"sum_hessian":[8E1,7.4E1,6E0,6.9E1,5E0,4E0,2E0,1E0,6.8E1,1E0,4E0,1E0,1E0,3E0,6.5E1],"tree_param":{"num_deleted":"0","num_feature":"6","num_nodes":"15","size_leaf_vector":"1"}},{"base_weights":[-2.871952E-3,-1.2841073E-1,1.3425967E0,5.079392E-3,-1.6643938E0,1.3408487E-1,-1.3367698E0,1.2938277E-1,-6.98515E-2,4.0283706E-2,-2.3195422E0,-4.7929288E-4,-9.977844E-2,-1.2316928E-1,3.8134765E-3,-3.4924675E-2,-1.2750904E-1],"categories":[],"categories_nodes":[],"categories_segments":[],"categories_sizes":[],"default_left":[0,0,0,0,0,0,0,0,0,0,0,0,0,0,0,0,0],"id":38,"left_children":[1,3,5,7,9,-1,11,-1,13,-1,15,-1,-1,-1,-1,-1,-1],"loss_changes":[1.38539915E1,1.5386346E1,2.8700397E1,1.3726783E1,1.15783615E1,0E0,2.6039128E0,0E0,2.4320335E1,0E0,8.8098526E-2,0E0,0E0,0E0,0E0,0E0,0E0],"parents":[2147483647,0,0,1,1,2,2,3,3,4,4,6,6,8,8,10,10],"right_children":[2,4,6,8,10,-1,12,-1,14,-1,16,-1,-1,-1,-1,-1,-1],"split_conditions":[1.4098246E0,1.2213582E0,6.9923955E-1,-1.5844858E0,-1.0889912E0,1.3408487E-1,1.5325816E0,1.2938277E-1,-1.3278875E0,4.0283706E-2,-2.8536105E-1,-4.7929288E-4,-9.977844E-2,-1.2316928E-1,3.8134765E-3,-3.4924675E-2,-1.2750904E-1],"split_indices":[0,0,4,1,2,0,0,0,1,0,1,0,0,0,0,0,0],"split_type":[0,0,0,0,0,0,0,0,0,0,0,0,0,0,0,0,0],"sum_hessian":[8E1,7.4E1,6E0,6.9E1,5E0,4E0,2E0,1E0,6.8E1,1E0,4E0,1E0,1E0,3E0,6.5E1,1E0,3E0],"tree_param":{"num_deleted":"0","num_feature":"6","num_nodes":"17","size_leaf_vector":"1"}},{"base_weights":[-3.6950847E-3,1.2614821E-1,-6.681538E-2,-1.18550435E-1,5.375071E-2,-1.145259E0,2.7093807E-1,7.869928E-2,-9.232532E-2,-2.5991483E-2,3.989664E-2],"categories":[],"categories_nodes":[],"categories_segments":[],"categories_sizes":[],"default_left":[0,0,0,0,0,0,0,0,0,0,0],"id":39,"left_children":[1,-1,3,-1,5,7,9,-1,-1,-1,-1],"loss_changes":[1.3086732E1,0E0,2.2352049E1,0E0,2.0361845E1,2.5788738E1,2.7918999E1,0E0,0E0,0E0,0E0],"parents":[2147483647,0,0,2,2,4,4,5,5,6,6],"right_children":[2,-1,4,-1,6,8,10,-1,-1,-1,-1],"split_conditions":[-1.5844858E0,1.2614821E-1,-1.3278875E0,-1.18550435E-1,-1.0587592E0,-9.050283E-1,-3.550831E-1,7.869928E-2,-9.232532E-2,-2.5991483E-2,3.989664E-2],"split_indices":[1,0,1,0,3,0,0,0,0,0,0],"split_type":[0,0,0,0,0,0,0,0,0,0,0],"sum_hessian":[8E1,1E0,7.9E1,3E0,7.6E1,1.1E1,6.5E1,2E0,9E0,2.6E1,3.9E1],"tree_param":{"num_deleted":"0","num_feature":"6","num_nodes":"11","size_leaf_vector":"1"}},{"base_weights":[-3.4132092E-3,-6.5682255E-2,1.2445276E-1,-1.9066916E-1,1.2649912E0,1.229945E-1,-2.606753E-1,1.271256E-1,-1.2858742E0,-1.141048E-1,-7.0720813E-3,1.840818E-3,-9.828139E-2],"categories":[],"categories_nodes":[],"categories_segments":[],"categories_sizes":[],"default_left":[0,0,0,0,0,0,0,0,0,0,0,0,0],"id":40,"left_children":[1,3,-1,5,7,-1,9,-1,11,-1,-1,-1,-1],"loss_changes":[1.2734981E1,1.3546535E1,0E0,1.4372334E1,2.6080841E1,0E0,1.727178E1,0E0,2.7696776E0,0E0,0E0,0E0,0E0],"parents":[2147483647,0,0,1,1,3,3,4,4,6,6,8,8],"right_children":[2,4,-1,6,8,-1,10,-1,12,-1,-1,-1,-1],"split_conditions":[1.7179121E0,1.4098246E0,1.2445276E-1,-1.5844858E0,6.9923955E-1,1.229945E-1,-1.3278875E0,1.271256E-1,1.5325816E0,-1.141048E-1,-7.0720813E-3,1.840818E-3,-9.828139E-2],"split_indices":[1,0,0,1,4,0,1,0,0,0,0,0,0],"split_type":[0,0,0,0,0,0,0,0,0,0,0,0,0],"sum_hessian":[8E1,7.9E1,1E0,7.3E1,6E0,1E0,7.2E1,4E0,2E0,3E0,6.9E1,1E0,1E0],"tree_param":{"num_deleted":"0","num_feature":"6","num_nodes":"13","size_leaf_vector":"1"}},{"base_weights":[-1.3045882E-3,3.1480604E-1,-4.7064143E-1,-5.714805E-2,1.7711418E0,-1.3804655E0,2.7241126E-1,-8.30038E-1,9.336084E-1,3.2150872E0,2.7266374E-1,-1.9156318E0,5.701499E-1,9.9541724E-1,-6.4153063E-1,-4.6174E-3,-1.7336261E-1,7.3251285E-2,-6.463043E-2,1.8131106E-1,3.9263796E-2,-5.455258E-2,3.8180858E-2,-4.3163862E-2,-1.6081363E-1,-1.6986307E-2,8.249445E-2,8.597278E-2,-1.08659845E-2,5.9450276E-2,-6.671994E-2],"categories":[],"categories_nodes":[],"categories_segments":[],"categories_sizes":[],"default_left":[0,0,0,0,0,0,0,0,0,0,0,0,0,0,0,0,0,0,0,0,0,0,0,0,0,0,0,0,0,0,0],"id":41,"left_children":[1,3,5,7,9,11,13,15,17,19,21,23,25,27,29,-1,-1,-1,-1,-1,-1,-1,-1,-1,-1,-1,-1,-1,-1,-1,-1],"loss_changes":[1.2165512E1,2.6644032E1,2.2685612E1,3.1404758E1,2.076056E1,1.6750751E1,1.3193514E1,4.4425076E1,2.3188606E1,2.1473083E0,4.85027E0,1.3648296E1,4.490225E0,1.0032419E1,1.300149E1,0E0,0E0,0E0,0E0,0E0,0E0,0E0,0E0,0E0,0E0,0E0,0E0,0E0,0E0,0E0,0E0],"parents":[2147483647,0,0,1,1,2,2,3,3,4,4,5,5,6,6,7,7,8,8,9,9,10,10,11,11,12,12,13,13,14,14],"right_children":[2,4,6,8,10,12,14,16,18,20,22,24,26,28,30,-1,-1,-1,-1,-1,-1,-1,-1,-1,-1,-1,-1,-1,-1,-1,-1],"split_conditions":[3.8316476E-1,8.432555E-1,8.7223667E-1,1.3235049E-1,6.442654E-1,9.975128E-1,2.4995185E-1,1.31925E-1,1.4404138E0,3.1147736E-1,6.899934E-1,-4.9166217E-2,1.2701434E0,8.3682954E-1,1.146507E0,-4.6174E-3,-1.7336261E-1,7.3251285E-2,-6.463043E-2,1.8131106E-1,3.9263796E-2,-5.455258E-2,3.8180858E-2,-4.3163862E-2,-1.6081363E-1,-1.6986307E-2,8.249445E-2,8.597278E-2,-1.08659845E-2,5.9450276E-2,-6.671994E-2],"split_indices":[4,1,4,0,2,3,1,1,3,4,2,3,0,2,4,0,0,0,0,0,0,0,0,0,0,0,0,0,0,0,0],"split_type":[0,0,0,0,0,0,0,0,0,0,0,0,0,0,0,0,0,0,0,0,0,0,0,0,0,0,0,0,0,0,0],"sum_hessian":[8E1,4.8E1,3.2E1,3.9E1,9E0,1.4E1,1.8E1,2.2E1,1.7E1,4E0,5E0,1.1E1,3E0,1E1,8E0,1.8E1,4E0,1.4E1,3E0,3E0,1E0,1E0,4E0,7E0,4E0,2E0,1E0,6E0,4E0,2E0,6E0],"tree_param":{"num_deleted":"0","num_feature":"6","num_nodes":"31","size_leaf_vector":"1"}},{"base_weights":[-1.6812013E-3,1.17770314E-1,-6.0587373E-2,-1.10547975E-1,5.1907107E-2,-1.0645454E0,2.54112E-1,7.7500686E-2,-8.712293E-2,-2.425197E-2,3.733432E-2],"categories":[],"categories_nodes":[],"categories_segments":[],"categories_sizes":[],"default_left":[0,0,0,0,0,0,0,0,0,0,0],"id":42,"left_children":[1,-1,3,-1,5,7,9,-1,-1,-1,-1],"loss_changes":[1.1389316E1,0E0,1.9467161E1,0E0,1.765343E1,2.3970161E1,2.4391918E1,0E0,0E0,0E0,0E0],"parents":[2147483647,0,0,2,2,4,4,5,5,6,6],"right_children":[2,-1,4,-1,6,8,10,-1,-1,-1,-1],"split_conditions":[-1.5844858E0,1.17770314E-1,-1.3278875E0,-1.10547975E-1,-1.0587592E0,-9.050283E-1,-3.550831E-1,7.7500686E-2,-8.712293E-2,-2.425197E-2,3.733432E-2],"split_indices":[1,0,1,0,3,0,0,0,0,0,0],"split_type":[0,0,0,0,0,0,0,0,0,0,0],"sum_hessian":[8E1,1E0,7.9E1,3E0,7.6E1,1.1E1,6.5E1,2E0,9E0,2.6E1,3.9E1],"tree_param":{"num_deleted":"0","num_feature":"6","num_nodes":"11","size_leaf_vector":"1"}},{"base_weights":[-1.4653235E-3,3.0371767E-1,-4.5457143E-1,-5.9218027E-2,1.7250886E0,-1.9940113E0,-3.86214E-2,4.416835E-1,-1.4199296E0,3.1055322E0,2.8720418E-1,8.884001E-3,-2.3855731E0,6.805022E-1,-9.9423444E-1,9.83751E-2,-1.5296461E-2,-1.6346742E-1,3.3307206E-2,1.7465152E-1,3.8888503E-2,-5.1010694E-2,3.763653E-2,-1.3959394E-1,-5.2432068E-2,9.699541E-3,1.0457694E-1,-1.05461E-1,5.175052E-3],"categories":[],"categories_nodes":[],"categories_segments":[],"categories_sizes":[],"default_left":[0,0,0,0,0,0,0,0,0,0,0,0,0,0,0,0,0,0,0,0,0,0,0,0,0,0,0,0,0],"id":43,"left_children":[1,3,5,7,9,11,13,15,17,19,21,-1,23,25,27,-1,-1,-1,-1,-1,-1,-1,-1,-1,-1,-1,-1,-1,-1],"loss_changes":[1.1338764E1,2.53796E1,2.105388E1,2.7890461E1,1.8957264E1,6.3763294E0,1.9231085E1,3.4823555E1,4.4616127E1,1.7932434E0,4.4197717E0,0E0,3.3153534E-1,1.0578026E1,1.4905818E1,0E0,0E0,0E0,0E0,0E0,0E0,0E0,0E0,0E0,0E0,0E0,0E0,0E0,0E0],"parents":[2147483647,0,0,1,1,2,2,3,3,4,4,5,5,6,6,7,7,8,8,9,9,10,10,12,12,13,13,14,14],"right_children":[2,4,6,8,10,12,14,16,18,20,22,-1,24,26,28,-1,-1,-1,-1,-1,-1,-1,-1,-1,-1,-1,-1,-1,-1],"split_conditions":[3.8316476E-1,8.432555E-1,5.490795E-1,1.31925E-1,6.442654E-1,-6.763395E-2,7.217547E-1,-7.978908E-1,-6.2307537E-1,3.1147736E-1,6.899934E-1,8.884001E-3,4.087602E-1,8.9141506E-1,1.0943835E0,9.83751E-2,-1.5296461E-2,-1.6346742E-1,3.3307206E-2,1.7465152E-1,3.8888503E-2,-5.1010694E-2,3.763653E-2,-1.3959394E-1,-5.2432068E-2,9.699541E-3,1.0457694E-1,-1.05461E-1,5.175052E-3],"split_indices":[4,1,4,1,2,0,1,2,2,4,2,0,0,0,1,0,0,0,0,0,0,0,0,0,0,0,0,0,0],"split_type":[0,0,0,0,0,0,0,0,0,0,0,0,0,0,0,0,0,0,0,0,0,0,0,0,0,0,0,0,0],"sum_hessian":[8E1,4.8E1,3.2E1,3.9E1,9E0,6E0,2.6E1,2.9E1,1E1,4E0,5E0,1E0,5E0,1.5E1,1.1E1,9E0,2E1,5E0,5E0,3E0,1E0,1E0,4E0,3E0,2E0,1.2E1,3E0,5E0,6E0],"tree_param":{"num_deleted":"0","num_feature":"6","num_nodes":"29","size_leaf_vector":"1"}},{"base_weights":[-1.590349E-3,1.1458357E-1,-5.890201E-2,-1.0614125E-1,4.9079724E-2,4.1648653E-1,-5.095396E-1,-7.043625E-2,3.3365734E-2,-8.508027E-2,-1.046259E-3],"categories":[],"categories_nodes":[],"categories_segments":[],"categories_sizes":[],"default_left":[0,0,0,0,0,0,0,0,0,0,0],"id":44,"left_children":[1,-1,3,-1,5,7,9,-1,-1,-1,-1],"loss_changes":[1.0780865E1,0E0,1.7933466E1,0E0,1.601574E1,2.245734E1,1.8020672E1,0E0,0E0,0E0,0E0],"parents":[2147483647,0,0,2,2,4,4,5,5,6,6],"right_children":[2,-1,4,-1,6,8,10,-1,-1,-1,-1],"split_conditions":[-1.5844858E0,1.1458357E-1,-1.3278875E0,-1.0614125E-1,3.8316476E-1,-1.0587592E0,6.9353634E-1,-7.043625E-2,3.3365734E-2,-8.508027E-2,-1.046259E-3],"split_indices":[1,0,1,0,4,3,4,0,0,0,0],"split_type":[0,0,0,0,0,0,0,0,0,0,0],"sum_hessian":[8E1,1E0,7.9E1,3E0,7.6E1,4.6E1,3E1,5E0,4.1E1,8E0,2.2E1],"tree_param":{"num_deleted":"0","num_feature":"6","num_nodes":"11","size_leaf_vector":"1"}},{"base_weights":[-2.9277448E-3,-5.907161E-2,1.1221454E-1,-1.7121918E-1,1.1349273E0,-4.7076117E-2,-1.5703279E0,1.1349528E-1,-1.1350125E0,-9.479632E-3,6.2114876E-2,3.2397795E-2,-1.071788E-1,4.9487473E-3,-9.007469E-2],"categories":[],"categories_nodes":[],"categories_segments":[],"categories_sizes":[],"default_left":[0,0,0,0,0,0,0,0,0,0,0,0,0,0,0],"id":45,"left_children":[1,3,-1,5,7,9,11,-1,13,-1,-1,-1,-1,-1,-1],"loss_changes":[1.0352145E1,1.0906648E1,0E0,1.2779108E1,2.0610703E1,1.2914766E1,9.018703E0,0E0,2.6455913E0,0E0,0E0,0E0,0E0,0E0,0E0],"parents":[2147483647,0,0,1,1,3,3,4,4,5,5,6,6,8,8],"right_children":[2,4,-1,6,8,10,12,-1,14,-1,-1,-1,-1,-1,-1],"split_conditions":[1.7179121E0,1.4098246E0,1.1221454E-1,1.2213582E0,6.9923955E-1,8.9141506E-1,-1.0889912E0,1.1349528E-1,1.5325816E0,-9.479632E-3,6.2114876E-2,3.2397795E-2,-1.071788E-1,4.9487473E-3,-9.007469E-2],"split_indices":[1,0,0,0,4,0,2,0,0,0,0,0,0,0,0],"split_type":[0,0,0,0,0,0,0,0,0,0,0,0,0,0,0],"sum_hessian":[8E1,7.9E1,1E0,7.3E1,6E0,6.8E1,5E0,4E0,2E0,6.2E1,6E0,1E0,4E0,1E0,1E0],"tree_param":{"num_deleted":"0","num_feature":"6","num_nodes":"15","size_leaf_vector":"1"}},{"base_weights":[-1.3192141E-3,1.11955956E-1,-5.731368E-2,-1.0180547E-1,4.622524E-2,-9.433072E-2,1.5007839E-1,5.461616E-2,-1.0956469E-2],"categories":[],"categories_nodes":[],"categories_segments":[],"categories_sizes":[],"default_left":[0,0,0,0,0,0,0,0,0],"id":46,"left_children":[1,-1,3,-1,5,-1,7,-1,-1],"loss_changes":[1.0289956E1,0E0,1.6484709E1,0E0,1.5739465E1,0E0,2.5982782E1,0E0,0E0],"parents":[2147483647,0,0,2,2,4,4,6,6],"right_children":[2,-1,4,-1,6,-1,8,-1,-1],"split_conditions":[-1.5844858E0,1.11955956E-1,-1.3278875E0,-1.0180547E-1,-1.7408543E0,-9.433072E-2,-5.482967E-1,5.461616E-2,-1.0956469E-2],"split_indices":[1,0,1,0,0,0,4,0,0],"split_type":[0,0,0,0,0,0,0,0,0],"sum_hessian":[8E1,1E0,7.9E1,3E0,7.6E1,3E0,7.3E1,2E1,5.3E1],"tree_param":{"num_deleted":"0","num_feature":"6","num_nodes":"9","size_leaf_vector":"1"}},{"base_weights":[-1.7533774E-3,-1.1030183E-1,5.337562E-2,2.1203282E0,-8.331041E-2,1.3488293E-1,4.1811086E-2,2.6679978E-1,-5.2364653E-1,8.6431764E-2,-1.1428177E-2,-1.4346081E-1,9.536571E-3],"categories":[],"categories_nodes":[],"categories_segments":[],"categories_sizes":[],"default_left":[0,0,0,0,0,0,0,0,0,0,0,0,0],"id":47,"left_children":[1,-1,3,5,7,-1,-1,9,11,-1,-1,-1,-1],"loss_changes":[9.960862E0,0E0,2.2778526E1,1.4509277E0,1.1856338E1,0E0,0E0,3.153311E1,5.7518436E1,0E0,0E0,0E0,0E0],"parents":[2147483647,0,0,2,2,3,3,4,4,7,7,8,8],"right_children":[2,-1,4,6,8,-1,-1,10,12,-1,-1,-1,-1],"split_conditions":[-1.7603983E0,-1.1030183E-1,-1.5437655E0,-1.5770769E0,1.31925E-1,1.3488293E-1,4.1811086E-2,-7.978908E-1,-6.2307537E-1,8.6431764E-2,-1.1428177E-2,-1.4346081E-1,9.536571E-3],"split_indices":[2,0,2,2,1,0,0,2,2,0,0,0,0],"split_type":[0,0,0,0,0,0,0,0,0,0,0,0,0],"sum_hessian":[8E1,1E0,7.9E1,4E0,7.5E1,2E0,2E0,4.2E1,3.3E1,1E1,3.2E1,7E0,2.6E1],"tree_param":{"num_deleted":"0","num_feature":"6","num_nodes":"13","size_leaf_vector":"1"}},{"base_weights":[-1.5735449E-3,-5.631556E-2,1.0944469E-1,1.0944276E-1,-1.1244247E-1,-9.75592E-2,-1.4187098E-2,2.7495373E-2,-1.6811864E-2],"categories":[],"categories_nodes":[],"categories_segments":[],"categories_sizes":[],"default_left":[0,0,0,0,0,0,0,0,0],"id":48,"left_children":[1,3,-1,-1,5,-1,7,-1,-1],"loss_changes":[9.836027E0,1.032728E1,0E0,0E0,1.424495E1,0E0,1.3991571E1,0E0,0E0],"parents":[2147483647,0,0,1,1,4,4,6,6],"right_children":[2,4,-1,-1,6,-1,8,-1,-1],"split_conditions":[1.7179121E0,-1.5844858E0,1.0944469E-1,1.0944276E-1,-1.3278875E0,-9.75592E-2,-4.425271E-1,2.7495373E-2,-1.6811864E-2],"split_indices":[1,1,0,0,1,0,1,0,0],"split_type":[0,0,0,0,0,0,0,0,0],"sum_hessian":[8E1,7.9E1,1E0,1E0,7.8E1,3E0,7.5E1,2.7E1,4.8E1],"tree_param":{"num_deleted":"0","num_feature":"6","num_nodes":"9","size_leaf_vector":"1"}},{"base_weights":[1.3509797E-4,-1.0823166E-1,5.4252617E-2,2.0542388E0,-7.803927E-2,1.3020878E-1,4.09778E-2,2.4856241E-1,-4.8879907E-1,8.205887E-2,-1.115874E-2,-1.3644888E-1,9.653057E-3],"categories":[],"categories_nodes":[],"categories_segments":[],"categories_sizes":[],"default_left":[0,0,0,0,0,0,0,0,0,0,0,0,0],"id":49,"left_children":[1,-1,3,5,7,-1,-1,9,11,-1,-1,-1,-1],"loss_changes":[9.60674E0,0E0,2.132687E1,1.2607193E0,1.03172655E1,0E0,0E0,2.8615046E1,5.2461464E1,0E0,0E0,0E0,0E0],"parents":[2147483647,0,0,2,2,3,3,4,4,7,7,8,8],"right_children":[2,-1,4,6,8,-1,-1,10,12,-1,-1,-1,-1],"split_conditions":[-1.7603983E0,-1.0823166E-1,-1.5437655E0,-1.5770769E0,1.31925E-1,1.3020878E-1,4.09778E-2,-7.978908E-1,-6.2307537E-1,8.205887E-2,-1.115874E-2,-1.3644888E-1,9.653057E-3],"split_indices":[2,0,2,2,1,0,0,2,2,0,0,0,0],"split_type":[0,0,0,0,0,0,0,0,0,0,0,0,0],"sum_hessian":[8E1,1E0,7.9E1,4E0,7.5E1,2E0,2E0,4.2E1,3.3E1,1E1,3.2E1,7E0,2.6E1],"tree_param":{"num_deleted":"0","num_feature":"6","num_nodes":"13","size_leaf_vector":"1"}}]},"name":"gbtree"},"learner_model_param":{"base_score":"[9.982671E0]","boost_from_average":"1","num_class":"0","num_feature":"6","num_target":"1"},"objective":{"name":"reg:squarederror","reg_loss_param":{"scale_pos_weight":"1"}}},"version":[3,1,2]}