{"learner":{"attributes":{"scikit_learn":"{\"_estimator_type\": \"regressor\"}"},"feature_names":[],"feature_types":[],"gradient_booster":{"model":{"cats":{"enc":[],"feature_segments":[],"sorted_idx":[]},"gbtree_model_param":{"num_parallel_tree":"1","num_trees":"150"},"iteration_indptr":[0,1,2,3,4,5,6,7,8,9,10,11,12,13,14,15,16,17,18,19,20,21,22,23,24,25,26,27,28,29,30,31,32,33,34,35,36,37,38,39,40,41,42,43,44,45,46,47,48,49,50,51,52,53,54,55,56,57,58,59,60,61,62,63,64,65,66,67,68,69,70,71,72,73,74,75,76,77,78,79,80,81,82,83,84,85,86,87,88,89,90,91,92,93,94,95,96,97,98,99,100,101,102,103,104,105,106,107,108,109,110,111,112,113,114,115,116,117,118,119,120,121,122,123,124,125,126,127,128,129,130,131,132,133,134,135,136,137,138,139,140,141,142,143,144,145,146,147,148,149,150],"tree_info":[0,0,0,0,0,0,0,0,0,0,0,0,0,0,0,0,0,0,0,0,0,0,0,0,0,0,0,0,0,0,0,0,0,0,0,0,0,0,0,0,0,0,0,0,0,0,0,0,0,0,0,0,0,0,0,0,0,0,0,0,0,0,0,0,0,0,0,0,0,0,0,0,0,0,0,0,0,0,0,0,0,0,0,0,0,0,0,0,0,0,0,0,0,0,0,0,0,0,0,0,0,0,0,0,0,0,0,0,0,0,0,0,0,0,0,0,0,0,0,0,0,0,0,0,0,0,0,0,0,0,0,0,0,0,0,0,0,0,0,0,0,0,0,0,0,0,0,0,0,0],"trees":[{"base_weights":[-9.018507E-7,-2.8669696E0,9.315746E0,2.9106588E0,-8.346107E0,-1.9027437E0,3.4763557E1,3.3927353E1,-5.7113085E0,-1.4169191E1,5.705885E0,2.4234957E1,5.0449596E1,4.9933543E0,2.5720608E1,4.8311753E0,-1.2437055E1,-1.7761013E1,-8.141239E0,-4.0031676E0,8.947753E0,1.5904294E1,3.0711843E1,3.8055894E0,5.6876826E0,1.8253062E0,3.1030881E0,3.576995E-2,9.872681E-1,-7.455144E-1,-1.5695674E0,-1.8731235E0,-1.4668521E0,-1.3820689E0,-6.703276E-1,-6.392412E-1,2.085224E-1,4.2674056E-1,1.3500274E0,6.047429E-1,1.7701346E0,2.7942033E0,3.7214704E0],"categories":[],"categories_nodes":[],"categories_segments":[],"categories_sizes":[],"default_left":[0,0,0,0,0,0,0,0,0,0,0,0,0,0,0,0,0,0,0,0,0,0,0,0,0,0,0,0,0,0,0,0,0,0,0,0,0,0,0,0,0,0,0],"id":0,"left_children":[1,3,5,7,9,-1,11,13,15,17,19,21,23,-1,25,27,29,31,33,35,37,39,41,-1,-1,-1,-1,-1,-1,-1,-1,-1,-1,-1,-1,-1,-1,-1,-1,-1,-1,-1,-1],"loss_changes":[4.278615E4,3.880341E4,2.7258097E5,1.5984645E5,5.154935E4,0E0,3.1642594E4,1.57923125E4,3.324412E4,9.49025E3,5.8587793E3,6.0403125E3,4.128422E3,0E0,2.9231992E3,4.1236777E3,4.525953E3,5.5935156E2,1.2793857E3,6.9702246E2,2.9041152E3,8.671836E2,1.669336E2,0E0,0E0,0E0,0E0,0E0,0E0,0E0,0E0,0E0,0E0,0E0,0E0,0E0,0E0,0E0,0E0,0E0,0E0,0E0,0E0],"parents":[2147483647,0,0,1,1,2,2,3,3,4,4,6,6,7,7,8,8,9,9,10,10,11,11,12,12,14,14,15,15,16,16,17,17,18,18,19,19,20,20,21,21,22,22],"right_children":[2,4,6,8,10,-1,12,14,16,18,20,22,24,-1,26,28,30,32,34,36,38,40,42,-1,-1,-1,-1,-1,-1,-1,-1,-1,-1,-1,-1,-1,-1,-1,-1,-1,-1,-1,-1],"split_conditions":[1.3864082E0,1E0,1E0,6.618399E-1,1.0604627E0,-1.9027437E0,1.7865348E0,5.1581854E-1,9.0686536E-1,8.313478E-1,8.706422E1,1.1331514E2,1.26099075E2,4.9933543E0,1.1573535E2,1.14414925E2,1.0532548E0,7.3105085E-1,5.727044E-1,1.2104515E0,1.1961898E0,8.118161E1,1.646765E0,3.8055894E0,5.6876826E0,1.8253062E0,3.1030881E0,3.576995E-2,9.872681E-1,-7.455144E-1,-1.5695674E0,-1.8731235E0,-1.4668521E0,-1.3820689E0,-6.703276E-1,-6.392412E-1,2.085224E-1,4.2674056E-1,1.3500274E0,6.047429E-1,1.7701346E0,2.7942033E0,3.7214704E0],"split_indices":[4,3,3,4,4,0,4,4,4,4,0,0,0,0,1,1,4,4,2,4,4,0,4,0,0,0,0,0,0,0,0,0,0,0,0,0,0,0,0,0,0,0,0],"split_type":[0,0,0,0,0,0,0,0,0,0,0,0,0,0,0,0,0,0,0,0,0,0,0,0,0,0,0,0,0,0,0,0,0,0,0,0,0,0,0,0,0,0,0],"sum_hessian":[1.6E3,1.224E3,3.76E2,5.96E2,6.28E2,1.78E2,1.98E2,1.29E2,4.67E2,4.44E2,1.84E2,1.2E2,7.8E1,4.2E1,8.7E1,1.82E2,2.85E2,2.77E2,1.67E2,4.6E1,1.38E2,5.4E1,6.6E1,2.9E1,4.9E1,3.8E1,4.9E1,9.7E1,8.5E1,1.14E2,1.71E2,2.07E2,7E1,3.2E1,1.35E2,3.3E1,1.3E1,6.9E1,6.9E1,9E0,4.5E1,5E1,1.6E1],"tree_param":{"num_deleted":"0","num_feature":"9","num_nodes":"43","size_leaf_vector":"1"}},{"base_weights":[1.3156148E-2,-2.60477E0,8.345372E0,2.7219827E0,-7.6550674E0,-1.7096452E0,3.1226889E1,2.7000383E1,-6.2907925E0,-1.4520795E1,1.8764151E0,2.2701536E1,4.697896E1,4.5056313E1,2.0249079E1,9.507845E-1,-1.2484238E1,-1.6698671E1,-1.0957921E1,-1.6968478E0,9.784432E0,1.4533836E1,2.827448E1,3.0860045E0,5.0813937E0,2.819958E0,4.702769E0,1.0096782E0,2.5456095E0,5.908127E-1,-3.2039997E-1,-1.5176567E0,-9.1468334E-1,-1.714206E0,-1.3126167E0,-1.5267975E0,-9.099801E-1,-4.2839953E-1,4.5149833E-1,4.5233527E-1,1.422529E0,7.6576895E-1,1.6862729E0,2.4974597E0,3.4271252E0],"categories":[],"categories_nodes":[],"categories_segments":[],"categories_sizes":[],"default_left":[0,0,0,0,0,0,0,0,0,0,0,0,0,0,0,0,0,0,0,0,0,0,0,0,0,0,0,0,0,0,0,0,0,0,0,0,0,0,0,0,0,0,0,0,0],"id":1,"left_children":[1,3,5,7,9,-1,11,13,15,17,19,21,23,25,27,29,31,33,35,37,39,41,43,-1,-1,-1,-1,-1,-1,-1,-1,-1,-1,-1,-1,-1,-1,-1,-1,-1,-1,-1,-1,-1,-1],"loss_changes":[3.494455E4,3.2813992E4,2.2349634E5,1.3014642E5,4.0993043E4,0E0,2.60605E4,1.8713727E4,1.9476906E4,2.6414766E3,7.4483057E3,5.6429688E3,2.7589844E3,1.0277344E2,6.0336914E3,4.158864E3,1.9637617E3,1.2980469E2,9.9027734E2,2.94425E3,1.8514775E3,7.6764355E2,6.8760547E2,0E0,0E0,0E0,0E0,0E0,0E0,0E0,0E0,0E0,0E0,0E0,0E0,0E0,0E0,0E0,0E0,0E0,0E0,0E0,0E0,0E0,0E0],"parents":[2147483647,0,0,1,1,2,2,3,3,4,4,6,6,7,7,8,8,9,9,10,10,11,11,12,12,13,13,14,14,15,15,16,16,17,17,18,18,19,19,20,20,21,21,22,22],"right_children":[2,4,6,8,10,-1,12,14,16,18,20,22,24,26,28,30,32,34,36,38,40,42,44,-1,-1,-1,-1,-1,-1,-1,-1,-1,-1,-1,-1,-1,-1,-1,-1,-1,-1,-1,-1,-1,-1],"split_conditions":[1.3821497E0,1E0,1E0,7.163222E-1,9.5085824E-1,-1.7096452E0,1.8409536E0,5.1581854E-1,9.564766E-1,7.4620587E-1,1.1961898E0,1.1331514E2,1.1502011E2,1.22214325E2,1.0466957E2,8.378116E-1,3.0295762E-1,1.7597151E0,2.3329669E-1,1.25555115E2,1.1331514E2,8.808909E1,1.646765E0,3.0860045E0,5.0813937E0,2.819958E0,4.702769E0,1.0096782E0,2.5456095E0,5.908127E-1,-3.2039997E-1,-1.5176567E0,-9.1468334E-1,-1.714206E0,-1.3126167E0,-1.5267975E0,-9.099801E-1,-4.2839953E-1,4.5149833E-1,4.5233527E-1,1.422529E0,7.6576895E-1,1.6862729E0,2.4974597E0,3.4271252E0],"split_indices":[4,3,3,4,4,0,4,4,4,4,4,0,0,1,1,4,8,2,8,0,0,0,4,0,0,0,0,0,0,0,0,0,0,0,0,0,0,0,0,0,0,0,0,0,0],"split_type":[0,0,0,0,0,0,0,0,0,0,0,0,0,0,0,0,0,0,0,0,0,0,0,0,0,0,0,0,0,0,0,0,0,0,0,0,0,0,0,0,0,0,0,0,0],"sum_hessian":[1.6E3,1.218E3,3.82E2,5.93E2,6.25E2,1.81E2,2.01E2,1.6E2,4.33E2,3.63E2,2.62E2,1.32E2,6.9E1,4.2E1,1.18E2,2E2,2.33E2,2.23E2,1.4E2,1.81E2,8.1E1,5.5E1,7.7E1,1.5E1,5.4E1,6E0,3.6E1,4.1E1,7.7E1,9.1E1,1.09E2,1.27E2,1.06E2,1.95E2,2.8E1,4E1,1E2,1.28E2,5.3E1,3.8E1,4.3E1,1.5E1,4E1,5.3E1,2.4E1],"tree_param":{"num_deleted":"0","num_feature":"9","num_nodes":"45","size_leaf_vector":"1"}},{"base_weights":[2.4448287E-2,-2.3399034E0,7.5495663E0,2.4647949E0,-6.895256E0,-1.53962E0,2.81861E1,2.18407E1,-6.772522E0,-1.3378493E1,1.3214531E0,1.9733238E1,4.10971E1,3.8739807E1,1.5453507E1,-1.8584836E0,-1.2495575E1,-1.5042316E1,-1.0338534E1,-3.114143E0,6.9823675E0,1.2952477E1,2.4779076E1,3.3811593E0,4.928998E0,2.6880283E0,4.282123E0,6.549143E-1,1.9293698E0,-6.642157E-1,9.6279174E-2,-1.430435E0,-9.807731E-1,-1.5186415E0,-7.275671E-1,-1.2181919E0,-7.0508426E-1,-5.9433395E-1,1.0456915E-1,3.0394095E-1,1.1575149E0,6.885813E-1,1.5264806E0,2.0433893E0,2.7527115E0],"categories":[],"categories_nodes":[],"categories_segments":[],"categories_sizes":[],"default_left":[0,0,0,0,0,0,0,0,0,0,0,0,0,0,0,0,0,0,0,0,0,0,0,0,0,0,0,0,0,0,0,0,0,0,0,0,0,0,0,0,0,0,0,0,0],"id":2,"left_children":[1,3,5,7,9,-1,11,13,15,17,19,21,23,25,27,29,31,33,35,37,39,41,43,-1,-1,-1,-1,-1,-1,-1,-1,-1,-1,-1,-1,-1,-1,-1,-1,-1,-1,-1,-1,-1,-1],"loss_changes":[2.8502697E4,2.6697361E4,1.8179255E5,1.0646286E5,3.336525E4,0E0,2.1234266E4,2.0125398E4,1.1310467E4,1.6147695E3,6.9770835E3,3.9216602E3,3.048875E3,1.3659453E3,4.6950586E3,2.9485361E3,7.639844E2,1.4019922E2,6.837881E2,1.8421771E3,2.1741348E3,6.664365E2,2.733672E2,0E0,0E0,0E0,0E0,0E0,0E0,0E0,0E0,0E0,0E0,0E0,0E0,0E0,0E0,0E0,0E0,0E0,0E0,0E0,0E0,0E0,0E0],"parents":[2147483647,0,0,1,1,2,2,3,3,4,4,6,6,7,7,8,8,9,9,10,10,11,11,12,12,13,13,14,14,15,15,16,16,17,17,18,18,19,19,20,20,21,21,22,22],"right_children":[2,4,6,8,10,-1,12,14,16,18,20,22,24,26,28,30,32,34,36,38,40,42,44,-1,-1,-1,-1,-1,-1,-1,-1,-1,-1,-1,-1,-1,-1,-1,-1,-1,-1,-1,-1,-1,-1],"split_conditions":[1.3821497E0,1E0,1E0,7.6151234E-1,9.321652E-1,-1.53962E0,1.7865348E0,5.3919214E-1,1.0264037E0,7.4620587E-1,1.1382816E0,1.1331514E2,2.135035E0,1.2538681E2,9.876278E1,1.009854E2,3.1681335E-1,1.06093796E2,3.6908543E-1,3.260289E-1,1.18952675E2,1.4657649E0,1.3144685E2,3.3811593E0,4.928998E0,2.6880283E0,4.282123E0,6.549143E-1,1.9293698E0,-6.642157E-1,9.6279174E-2,-1.430435E0,-9.807731E-1,-1.5186415E0,-7.275671E-1,-1.2181919E0,-7.0508426E-1,-5.9433395E-1,1.0456915E-1,3.0394095E-1,1.1575149E0,6.885813E-1,1.5264806E0,2.0433893E0,2.7527115E0],"split_indices":[4,3,3,4,4,0,4,4,4,4,4,0,4,1,1,1,8,0,8,8,0,4,0,0,0,0,0,0,0,0,0,0,0,0,0,0,0,0,0,0,0,0,0,0,0],"split_type":[0,0,0,0,0,0,0,0,0,0,0,0,0,0,0,0,0,0,0,0,0,0,0,0,0,0,0,0,0,0,0,0,0,0,0,0,0,0,0,0,0,0,0,0,0],"sum_hessian":[1.6E3,1.218E3,3.82E2,5.93E2,6.25E2,1.81E2,2.01E2,1.91E2,4.02E2,3.49E2,2.76E2,1.23E2,7.8E1,5.1E1,1.4E2,2.17E2,1.85E2,2.23E2,1.26E2,1.55E2,1.21E2,5.4E1,6.9E1,4.4E1,3.4E1,1.5E1,3.6E1,4.3E1,9.7E1,8E1,1.37E2,1.08E2,7.7E1,2.18E2,5E0,7.9E1,4.7E1,9.2E1,6.3E1,6.6E1,5.5E1,1.6E1,3.8E1,3E1,3.9E1],"tree_param":{"num_deleted":"0","num_feature":"9","num_nodes":"45","size_leaf_vector":"1"}},{"base_weights":[3.2721292E-2,-2.1031423E0,6.830593E0,2.2293851E0,-6.210839E0,-1.3865039E0,2.5443338E1,2.5238068E1,-4.207944E0,-1.0433707E1,4.148431E0,1.8478489E1,3.8313076E1,3.7594856E1,1.952917E1,4.1413674E0,-8.900818E0,-1.2673366E1,-5.2518845E0,-3.8284674E0,6.6436477E0,8.843751E0,2.1569515E1,2.669459E0,4.242658E0,3.1146781E0,4.3082376E0,1.3425789E0,2.3651862E0,1.3634016E-1,9.527171E-1,-5.275005E-1,-1.1637238E0,-1.3533479E0,-9.642248E-1,-7.843119E-1,-2.1248494E-1,-5.971074E-1,1.1893385E-1,3.570821E-1,9.8924935E-1,5.374117E-1,1.1300087E0,1.8568385E0,2.6389072E0],"categories":[],"categories_nodes":[],"categories_segments":[],"categories_sizes":[],"default_left":[0,0,0,0,0,0,0,0,0,0,0,0,0,0,0,0,0,0,0,0,0,0,0,0,0,0,0,0,0,0,0,0,0,0,0,0,0,0,0,0,0,0,0,0,0],"id":3,"left_children":[1,3,5,7,9,-1,11,13,15,17,19,21,23,25,27,29,31,33,35,37,39,41,43,-1,-1,-1,-1,-1,-1,-1,-1,-1,-1,-1,-1,-1,-1,-1,-1,-1,-1,-1,-1,-1,-1],"loss_changes":[2.3259809E4,2.1708031E4,1.4788534E5,8.808619E4,2.7428176E4,0E0,1.739846E4,8.436477E3,1.8256613E4,5.0978906E3,3.6479792E3,3.7701484E3,2.2129219E3,7.347656E1,1.9722305E3,2.500556E3,2.895295E3,6.7771094E2,1.0853257E3,4.8015375E2,1.352332E3,2.2904004E2,9.5641016E2,0E0,0E0,0E0,0E0,0E0,0E0,0E0,0E0,0E0,0E0,0E0,0E0,0E0,0E0,0E0,0E0,0E0,0E0,0E0,0E0,0E0,0E0],"parents":[2147483647,0,0,1,1,2,2,3,3,4,4,6,6,7,7,8,8,9,9,10,10,11,11,12,12,13,13,14,14,15,15,16,16,17,17,18,18,19,19,20,20,21,21,22,22],"right_children":[2,4,6,8,10,-1,12,14,16,18,20,22,24,26,28,30,32,34,36,38,40,42,44,-1,-1,-1,-1,-1,-1,-1,-1,-1,-1,-1,-1,-1,-1,-1,-1,-1,-1,-1,-1,-1,-1],"split_conditions":[1.3821497E0,1E0,1E0,6.618399E-1,1.0604627E0,-1.3865039E0,1.8409536E0,5.0046974E-1,8.8854945E-1,8.827131E-1,8.553846E1,1.0180788E2,1.2322249E2,1.3257109E2,1.1573535E2,1.2538681E2,1.0532548E0,1.554101E0,2.983278E-1,1.2104515E0,1.1961898E0,1.4996605E0,1.6351441E0,2.669459E0,4.242658E0,3.1146781E0,4.3082376E0,1.3425789E0,2.3651862E0,1.3634016E-1,9.527171E-1,-5.275005E-1,-1.1637238E0,-1.3533479E0,-9.642248E-1,-7.843119E-1,-2.1248494E-1,-5.971074E-1,1.1893385E-1,3.570821E-1,9.8924935E-1,5.374117E-1,1.1300087E0,1.8568385E0,2.6389072E0],"split_indices":[4,3,3,4,4,0,4,4,4,4,0,0,0,1,1,1,4,2,8,4,4,4,4,0,0,0,0,0,0,0,0,0,0,0,0,0,0,0,0,0,0,0,0,0,0],"split_type":[0,0,0,0,0,0,0,0,0,0,0,0,0,0,0,0,0,0,0,0,0,0,0,0,0,0,0,0,0,0,0,0,0,0,0,0,0,0,0,0,0,0,0,0,0],"sum_hessian":[1.6E3,1.218E3,3.82E2,5.93E2,6.25E2,1.81E2,2.01E2,1.29E2,4.64E2,4.44E2,1.81E2,1.32E2,6.9E1,3.9E1,9E1,1.67E2,2.97E2,3.09E2,1.35E2,4.3E1,1.38E2,3.3E1,9.9E1,2E1,4.9E1,2.1E1,1.8E1,3.8E1,5.2E1,1.11E2,5.6E1,1.29E2,1.68E2,2.38E2,7.1E1,7.3E1,6.2E1,3E1,1.3E1,7.2E1,6.6E1,1.5E1,1.8E1,6.4E1,3.5E1],"tree_param":{"num_deleted":"0","num_feature":"9","num_nodes":"45","size_leaf_vector":"1"}},{"base_weights":[4.179825E-2,-1.8663731E0,6.2419786E0,1.963038E0,-5.4979978E0,-1.2525452E1,2.309187E1,2.1148584E1,-4.351238E0,-9.234804E0,4.3266087E0,-1.3058919E0,-1.0887932E1,1.6728046E1,3.4580513E1,3.1783554E1,1.5229339E1,2.5563877E0,-8.321192E0,-1.1788369E1,-5.2173405E0,-2.6564236E0,6.8568892E0,-1.1180583E0,-4.7273025E-1,1.0849107E1,2.1460558E1,2.501537E0,3.8729084E0,2.2070644E0,3.5124714E0,1.0373024E0,2.084324E0,2.9935485E-3,7.6087475E-1,-1.0842713E0,-5.460378E-1,-1.2877706E0,-1.0007585E0,-8.771896E-1,-3.6115974E-1,-4.072559E-1,2.3484337E-1,3.428565E-1,9.7386664E-1,5.6182164E-1,1.2786478E0,1.8723148E0,2.6041188E0],"categories":[],"categories_nodes":[],"categories_segments":[],"categories_sizes":[],"default_left":[0,0,0,0,0,0,0,0,0,0,0,0,0,0,0,0,0,0,0,0,0,0,0,0,0,0,0,0,0,0,0,0,0,0,0,0,0,0,0,0,0,0,0,0,0,0,0,0,0],"id":4,"left_children":[1,3,5,7,9,11,13,15,17,19,21,-1,23,25,27,29,31,33,35,37,39,41,43,-1,-1,45,47,-1,-1,-1,-1,-1,-1,-1,-1,-1,-1,-1,-1,-1,-1,-1,-1,-1,-1,-1,-1,-1,-1],"loss_changes":[1.8953094E4,1.704685E4,1.1950762E5,7.24143E4,2.3132213E4,1.4183594E1,1.3970758E4,8.832703E3,1.2361604E4,4.616535E3,3.0926265E3,0E0,3.7291992E1,3.3840508E3,1.8088984E3,9.122969E2,2.428289E3,2.1059219E3,2.0038848E3,4.1041016E2,9.8999805E2,3.426792E2,1.2312075E3,0E0,0E0,5.362124E2,4.0270117E2,0E0,0E0,0E0,0E0,0E0,0E0,0E0,0E0,0E0,0E0,0E0,0E0,0E0,0E0,0E0,0E0,0E0,0E0,0E0,0E0,0E0,0E0],"parents":[2147483647,0,0,1,1,2,2,3,3,4,4,5,5,6,6,7,7,8,8,9,9,10,10,12,12,13,13,14,14,15,15,16,16,17,17,18,18,19,19,20,20,21,21,22,22,25,25,26,26],"right_children":[2,4,6,8,10,12,14,16,18,20,22,-1,24,26,28,30,32,34,36,38,40,42,44,-1,-1,46,48,-1,-1,-1,-1,-1,-1,-1,-1,-1,-1,-1,-1,-1,-1,-1,-1,-1,-1,-1,-1,-1,-1],"split_conditions":[1.3864082E0,1E0,1E0,6.899233E-1,1.0727226E0,3.682989E-1,1.8409536E0,5.3919214E-1,9.0686536E-1,8.313478E-1,8.961727E1,-1.3058919E0,9.096289E1,1.1587078E2,1.25555115E2,1.2538681E2,1.1923589E2,1.2538681E2,3.020656E-1,3.2822457E-1,2.315679E-1,1.2404616E0,2.7634203E-1,-1.1180583E0,-4.7273025E-1,1.4657649E0,1.646765E0,2.501537E0,3.8729084E0,2.2070644E0,3.5124714E0,1.0373024E0,2.084324E0,2.9935485E-3,7.6087475E-1,-1.0842713E0,-5.460378E-1,-1.2877706E0,-1.0007585E0,-8.771896E-1,-3.6115974E-1,-4.072559E-1,2.3484337E-1,3.428565E-1,9.7386664E-1,5.6182164E-1,1.2786478E0,1.8723148E0,2.6041188E0],"split_indices":[4,3,3,4,4,8,4,4,4,4,0,0,1,0,0,1,1,1,8,8,8,4,8,0,0,4,4,0,0,0,0,0,0,0,0,0,0,0,0,0,0,0,0,0,0,0,0,0,0],"split_type":[0,0,0,0,0,0,0,0,0,0,0,0,0,0,0,0,0,0,0,0,0,0,0,0,0,0,0,0,0,0,0,0,0,0,0,0,0,0,0,0,0,0,0,0,0,0,0,0,0],"sum_hessian":[1.6E3,1.224E3,3.76E2,5.96E2,6.28E2,1.78E2,1.98E2,1.47E2,4.49E2,4.55E2,1.73E2,1.29E2,4.9E1,1.29E2,6.9E1,5.1E1,9.6E1,1.64E2,2.85E2,2.77E2,1.78E2,4.6E1,1.27E2,4.6E1,3E0,5.9E1,7E1,2.3E1,4.6E1,1.5E1,3.6E1,5.3E1,4.3E1,1.1E2,5.4E1,1.5E2,1.35E2,1.68E2,1.09E2,5.4E1,1.24E2,3.6E1,1E1,5.9E1,6.8E1,1.7E1,4.2E1,4.7E1,2.3E1],"tree_param":{"num_deleted":"0","num_feature":"9","num_nodes":"49","size_leaf_vector":"1"}},{"base_weights":[4.7229152E-2,-1.6935194E0,5.587504E0,1.8375438E0,-5.0413756E0,-1.1261169E1,2.074033E1,1.6266024E1,-5.04113E0,-9.373226E0,1.7333522E0,-1.1763071E0,-9.8176155E0,1.5072181E1,3.1213524E1,2.4701956E1,9.188738E0,-6.003066E-1,-8.622959E0,-1.0937574E1,-6.52802E0,-1.2193793E0,6.489542E0,-1.0056852E0,-4.3727547E-1,9.459859E0,1.8908308E1,2.477045E1,3.6948872E0,3.3201206E0,2.0105684E0,5.02954E-1,1.3100752E0,-4.340109E-1,2.338757E-1,-1.0550686E0,-6.274629E-1,-1.1606057E0,-9.0268785E-1,-8.2408726E-1,-2.923165E-1,-4.0159234E-1,2.2942328E-1,3.2174402E-1,1.046411E0,4.3612894E-1,1.1218816E0,1.6525387E0,2.3299084E0,1.7583348E0,2.685844E0],"categories":[],"categories_nodes":[],"categories_segments":[],"categories_sizes":[],"default_left":[0,0,0,0,0,0,0,0,0,0,0,0,0,0,0,0,0,0,0,0,0,0,0,0,0,0,0,0,0,0,0,0,0,0,0,0,0,0,0,0,0,0,0,0,0,0,0,0,0,0,0],"id":5,"left_children":[1,3,5,7,9,11,13,15,17,19,21,-1,23,25,27,29,31,33,35,37,39,41,43,-1,-1,45,47,49,-1,-1,-1,-1,-1,-1,-1,-1,-1,-1,-1,-1,-1,-1,-1,-1,-1,-1,-1,-1,-1,-1,-1],"loss_changes":[1.5449866E4,1.4419662E4,9.801538E4,5.903579E4,1.838754E4,1.6376953E1,1.1520992E4,1.1236098E4,6.405051E3,1.6288398E3,3.4486323E3,0E0,2.50625E1,2.6845625E3,1.6714922E3,2.7311094E3,1.6588164E3,1.999615E3,9.4330664E2,2.0816211E2,8.280034E2,1.5027611E3,1.1888206E3,0E0,0E0,4.5328906E2,4.3107812E2,6.797461E1,0E0,0E0,0E0,0E0,0E0,0E0,0E0,0E0,0E0,0E0,0E0,0E0,0E0,0E0,0E0,0E0,0E0,0E0,0E0,0E0,0E0,0E0,0E0],"parents":[2147483647,0,0,1,1,2,2,3,3,4,4,5,5,6,6,7,7,8,8,9,9,10,10,12,12,13,13,14,14,15,15,16,16,17,17,18,18,19,19,20,20,21,21,22,22,25,25,26,26,27,27],"right_children":[2,4,6,8,10,12,14,16,18,20,22,-1,24,26,28,30,32,34,36,38,40,42,44,-1,-1,46,48,50,-1,-1,-1,-1,-1,-1,-1,-1,-1,-1,-1,-1,-1,-1,-1,-1,-1,-1,-1,-1,-1,-1,-1],"split_conditions":[1.3821497E0,1E0,1E0,7.6151234E-1,9.769903E-1,3.682989E-1,1.8409536E0,5.9360236E-1,9.731269E-1,7.733977E-1,1.2090605E2,-1.1763071E0,9.096289E1,1.1331514E2,2.135035E0,4.6161723E-1,1.1343637E2,2.9533395E-1,3.020656E-1,7.820346E1,3.6908543E-1,1.1428031E0,1.1738386E0,-1.0056852E0,-4.3727547E-1,8.808909E1,1.646765E0,1.1159854E2,3.6948872E0,3.3201206E0,2.0105684E0,5.02954E-1,1.3100752E0,-4.340109E-1,2.338757E-1,-1.0550686E0,-6.274629E-1,-1.1606057E0,-9.0268785E-1,-8.2408726E-1,-2.923165E-1,-4.0159234E-1,2.2942328E-1,3.2174402E-1,1.046411E0,4.3612894E-1,1.1218816E0,1.6525387E0,2.3299084E0,1.7583348E0,2.685844E0],"split_indices":[4,3,3,4,4,8,4,4,4,4,0,0,1,0,4,4,1,8,8,0,8,4,4,0,0,0,4,0,0,0,0,0,0,0,0,0,0,0,0,0,0,0,0,0,0,0,0,0,0,0,0],"split_type":[0,0,0,0,0,0,0,0,0,0,0,0,0,0,0,0,0,0,0,0,0,0,0,0,0,0,0,0,0,0,0,0,0,0,0,0,0,0,0,0,0,0,0,0,0,0,0,0,0,0,0],"sum_hessian":[1.6E3,1.218E3,3.82E2,5.93E2,6.25E2,1.81E2,2.01E2,1.91E2,4.02E2,3.81E2,2.44E2,1.29E2,5.2E1,1.32E2,6.9E1,8.6E1,1.05E2,1.8E2,2.22E2,2.44E2,1.37E2,1.51E2,9.3E1,4.9E1,3E0,5.5E1,7.7E1,3.5E1,3.4E1,2.8E1,5.8E1,5.2E1,5.3E1,7.9E1,1.01E2,1.2E2,1.02E2,1.77E2,6.7E1,9.2E1,4.5E1,8.4E1,6.7E1,5.2E1,4.1E1,1.5E1,4E1,5.3E1,2.4E1,1E1,2.5E1],"tree_param":{"num_deleted":"0","num_feature":"9","num_nodes":"51","size_leaf_vector":"1"}},{"base_weights":[5.146154E-2,-1.5055571E0,5.110603E0,1.6111279E0,-4.461289E0,-1.0175587E1,1.883481E1,1.8716608E1,-3.143837E0,-8.690832E0,1.3432786E0,-1.041395E0,-7.886295E0,1.3642588E1,2.8208443E1,2.794774E1,1.4453289E1,3.9727504E0,-6.224606E0,-9.907608E0,-6.3421426E0,-1.0143275E0,6.3755264E0,-4.1800386E-1,-8.51247E-1,9.4163685E0,1.8125917E1,2.2177808E0,3.360543E0,2.2602744E0,3.2665753E0,1.1607126E0,1.9853585E0,1.8750225E-1,8.758799E-1,-7.807201E-1,-1.2407549E-1,-1.039842E0,-7.7481794E-1,-9.834625E-1,-4.7404692E-1,-4.623168E-1,1.9911532E-1,5.581512E-2,8.398132E-1,6.234028E-1,1.2160347E0,1.4513245E0,2.1495662E0],"categories":[],"categories_nodes":[],"categories_segments":[],"categories_sizes":[],"default_left":[0,0,0,0,0,0,0,0,0,0,0,0,0,0,0,0,0,0,0,0,0,0,0,0,0,0,0,0,0,0,0,0,0,0,0,0,0,0,0,0,0,0,0,0,0,0,0,0,0],"id":6,"left_children":[1,3,5,7,9,11,13,15,17,19,21,-1,23,25,27,29,31,33,35,37,39,41,43,-1,-1,45,47,-1,-1,-1,-1,-1,-1,-1,-1,-1,-1,-1,-1,-1,-1,-1,-1,-1,-1,-1,-1,-1,-1],"loss_changes":[1.2619055E4,1.1291991E4,7.9282805E4,4.8616402E4,1.5454045E4,1.5548828E1,9.300492E3,4.712246E3,1.0285425E4,9.77416E2,3.1623064E3,0E0,1.3153564E1,2.2925E3,1.5330156E3,2.7037305E2,1.1682402E3,1.4092322E3,2.569499E3,1.7167969E2,6.6379395E2,1.9832323E3,9.9544434E2,0E0,0E0,5.2671924E2,4.4280273E2,0E0,0E0,0E0,0E0,0E0,0E0,0E0,0E0,0E0,0E0,0E0,0E0,0E0,0E0,0E0,0E0,0E0,0E0,0E0,0E0,0E0,0E0],"parents":[2147483647,0,0,1,1,2,2,3,3,4,4,5,5,6,6,7,7,8,8,9,9,10,10,12,12,13,13,14,14,15,15,16,16,17,17,18,18,19,19,20,20,21,21,22,22,25,25,26,26],"right_children":[2,4,6,8,10,12,14,16,18,20,22,-1,24,26,28,30,32,34,36,38,40,42,44,-1,-1,46,48,-1,-1,-1,-1,-1,-1,-1,-1,-1,-1,-1,-1,-1,-1,-1,-1,-1,-1,-1,-1,-1,-1],"split_conditions":[1.3864082E0,1E0,1E0,6.618399E-1,9.5085824E-1,4.3012336E-1,1.8409536E0,5.0046974E-1,8.572617E-1,7.6544017E-1,1.1961898E0,-1.041395E0,1.559134E0,1.2009692E2,1.3661761E2,1.3257109E2,1.3034828E2,1.2644408E2,1.2070865E2,4.216437E-1,8.4431064E-1,9.2652774E-1,7.374335E1,-4.1800386E-1,-8.51247E-1,1.0180788E2,1.5686548E0,2.2177808E0,3.360543E0,2.2602744E0,3.2665753E0,1.1607126E0,1.9853585E0,1.8750225E-1,8.758799E-1,-7.807201E-1,-1.2407549E-1,-1.039842E0,-7.7481794E-1,-9.834625E-1,-4.7404692E-1,-4.623168E-1,1.9911532E-1,5.581512E-2,8.398132E-1,6.234028E-1,1.2160347E0,1.4513245E0,2.1495662E0],"split_indices":[4,3,3,4,4,8,4,4,4,4,4,0,4,0,0,1,1,1,1,8,2,2,1,0,0,0,4,0,0,0,0,0,0,0,0,0,0,0,0,0,0,0,0,0,0,0,0,0,0],"split_type":[0,0,0,0,0,0,0,0,0,0,0,0,0,0,0,0,0,0,0,0,0,0,0,0,0,0,0,0,0,0,0,0,0,0,0,0,0,0,0,0,0,0,0,0,0,0,0,0,0],"sum_hessian":[1.6E3,1.224E3,3.76E2,5.96E2,6.28E2,1.78E2,1.98E2,1.29E2,4.67E2,3.63E2,2.65E2,1.58E2,2E1,1.29E2,6.9E1,3.9E1,9E1,1.41E2,3.26E2,2.37E2,1.26E2,1.81E2,8.4E1,4E0,1.6E1,6.8E1,6.1E1,3.5E1,3.4E1,2.1E1,1.8E1,6.1E1,2.9E1,9.9E1,4.2E1,2.47E2,7.9E1,1.9E2,4.7E1,3.8E1,8.8E1,8.2E1,9.9E1,2.2E1,6.2E1,3.3E1,3.5E1,3.2E1,2.9E1],"tree_param":{"num_deleted":"0","num_feature":"9","num_nodes":"49","size_leaf_vector":"1"}},{"base_weights":[5.562181E-2,-1.3649575E0,4.5768504E0,1.511645E0,-4.092333E0,-9.148485E0,1.6920584E1,1.4172384E1,-3.767262E0,-6.9570484E0,2.774136E0,-9.5624286E-1,-7.9605403E0,1.361601E1,2.9564987E1,2.1548586E1,8.929509E0,-5.8920133E-1,-7.7623E0,-8.409268E0,-3.5198665E0,-3.17073E0,4.651759E0,-8.152137E-1,-3.5754472E-1,9.745544E0,1.7867516E1,2.3028433E0,3.3235528E0,1.4519845E0,2.5205705E0,2.9644975E-1,1.1421987E0,-4.3070084E-1,1.5855531E-1,-8.909692E-1,-5.6402117E-1,-9.1226196E-1,-5.9245414E-1,-8.187189E-1,-2.3092349E-1,-4.478948E-1,1.8559273E-1,1.5487124E-1,6.865552E-1,4.0861794E-1,1.2224156E0,1.3927389E0,2.1248472E0],"categories":[],"categories_nodes":[],"categories_segments":[],"categories_sizes":[],"default_left":[0,0,0,0,0,0,0,0,0,0,0,0,0,0,0,0,0,0,0,0,0,0,0,0,0,0,0,0,0,0,0,0,0,0,0,0,0,0,0,0,0,0,0,0,0,0,0,0,0],"id":7,"left_children":[1,3,5,7,9,11,13,15,17,19,21,-1,23,25,27,29,31,33,35,37,39,41,43,-1,-1,45,47,-1,-1,-1,-1,-1,-1,-1,-1,-1,-1,-1,-1,-1,-1,-1,-1,-1,-1,-1,-1,-1,-1],"loss_changes":[1.0289092E4,9.569941E3,6.5043383E4,3.9753297E4,1.23330205E4,1.3375977E1,8.0378867E3,6.5752734E3,5.327945E3,2.176662E3,2.0797598E3,0E0,1.5381348E1,2.491629E3,2.1833594E2,1.4847695E3,1.512376E3,1.9068785E3,4.026328E2,4.9542578E2,7.3259814E2,3.0423087E2,9.579673E2,0E0,0E0,1.1704307E3,7.164922E2,0E0,0E0,0E0,0E0,0E0,0E0,0E0,0E0,0E0,0E0,0E0,0E0,0E0,0E0,0E0,0E0,0E0,0E0,0E0,0E0,0E0,0E0],"parents":[2147483647,0,0,1,1,2,2,3,3,4,4,5,5,6,6,7,7,8,8,9,9,10,10,12,12,13,13,14,14,15,15,16,16,17,17,18,18,19,19,20,20,21,21,22,22,25,25,26,26],"right_children":[2,4,6,8,10,12,14,16,18,20,22,-1,24,26,28,30,32,34,36,38,40,42,44,-1,-1,46,48,-1,-1,-1,-1,-1,-1,-1,-1,-1,-1,-1,-1,-1,-1,-1,-1,-1,-1,-1,-1,-1,-1],"split_conditions":[1.3821497E0,1E0,1E0,7.444684E-1,1.0576903E0,3.682989E-1,2.0483913E0,5.749227E-1,1.0264037E0,8.827131E-1,8.553846E1,-9.5624286E-1,9.096289E1,1.61327E0,1.351207E2,1.239067E2,9.3766136E1,1.009854E2,3.4260488E-1,1.554101E0,6.1671364E-1,1.2404616E0,8.720312E-1,-8.152137E-1,-3.5754472E-1,1.0270415E2,1.2295082E2,2.3028433E0,3.3235528E0,1.4519845E0,2.5205705E0,2.9644975E-1,1.1421987E0,-4.3070084E-1,1.5855531E-1,-8.909692E-1,-5.6402117E-1,-9.1226196E-1,-5.9245414E-1,-8.187189E-1,-2.3092349E-1,-4.478948E-1,1.8559273E-1,1.5487124E-1,6.865552E-1,4.0861794E-1,1.2224156E0,1.3927389E0,2.1248472E0],"split_indices":[4,3,3,4,4,8,4,4,4,4,0,0,1,4,0,1,1,1,8,2,2,4,2,0,0,0,0,0,0,0,0,0,0,0,0,0,0,0,0,0,0,0,0,0,0,0,0,0,0],"split_type":[0,0,0,0,0,0,0,0,0,0,0,0,0,0,0,0,0,0,0,0,0,0,0,0,0,0,0,0,0,0,0,0,0,0,0,0,0,0,0,0,0,0,0,0,0,0,0,0,0],"sum_hessian":[1.6E3,1.218E3,3.82E2,5.93E2,6.25E2,1.81E2,2.01E2,1.74E2,4.19E2,4.41E2,1.84E2,1.29E2,5.2E1,1.61E2,4E1,7.1E1,1.03E2,2.34E2,1.85E2,3.09E2,1.32E2,4.4E1,1.4E2,4.9E1,3E0,8.6E1,7.5E1,1.7E1,2.3E1,2.6E1,4.5E1,3.1E1,7.2E1,8.6E1,1.48E2,1.18E2,6.7E1,2.38E2,7.1E1,2.6E1,1.06E2,3.5E1,9E0,5.9E1,8.1E1,2.7E1,5.9E1,3.7E1,3.8E1],"tree_param":{"num_deleted":"0","num_feature":"9","num_nodes":"49","size_leaf_vector":"1"}},{"base_weights":[5.652725E-2,-1.22706E0,4.14174E0,1.3666824E0,-3.6862547E0,-8.245335E0,1.5281867E1,1.349773E1,-3.1366942E0,-6.776477E0,1.5194864E0,-8.613542E-1,-7.186614E0,1.228619E1,2.6745718E1,2.147891E1,9.602102E0,6.5652484E-1,-6.234327E0,-8.366125E0,-5.034031E0,-7.6291907E-1,5.8401155E0,-8.326521E-1,-6.035134E-1,9.462131E0,1.7322403E1,2.0853524E0,3.0050457E0,1.7335135E0,2.6341555E0,5.518121E-1,1.344169E0,3.3749977E-1,-1.7316277E-1,-8.0041283E-1,-4.156033E-1,-8.5378546E-1,-4.906976E-1,-8.012239E-1,-2.9337275E-1,-2.1801905E-1,3.7776473E-1,1.8271224E-1,9.009908E-1,6.523408E-1,1.301237E0,1.3100142E0,1.9793339E0],"categories":[],"categories_nodes":[],"categories_segments":[],"categories_sizes":[],"default_left":[0,0,0,0,0,0,0,0,0,0,0,0,0,0,0,0,0,0,0,0,0,0,0,0,0,0,0,0,0,0,0,0,0,0,0,0,0,0,0,0,0,0,0,0,0,0,0,0,0],"id":8,"left_children":[1,3,5,7,9,11,13,15,17,19,21,-1,23,25,27,29,31,33,35,37,39,41,43,-1,-1,45,47,-1,-1,-1,-1,-1,-1,-1,-1,-1,-1,-1,-1,-1,-1,-1,-1,-1,-1,-1,-1,-1,-1],"loss_changes":[8.400288E3,7.7804507E3,5.2977547E4,3.2492959E4,1.0080693E4,9.046875E0,6.6084766E3,4.7995215E3,5.1035923E3,1.0464473E3,2.3120298E3,0E0,1.9315186E1,2.1401484E3,1.7170312E2,5.9115234E2,1.6507148E3,1.2783011E3,8.458164E2,7.9288086E1,1.1649707E3,9.9925916E2,1.0138865E3,0E0,0E0,1.02103125E3,3.3538086E2,0E0,0E0,0E0,0E0,0E0,0E0,0E0,0E0,0E0,0E0,0E0,0E0,0E0,0E0,0E0,0E0,0E0,0E0,0E0,0E0,0E0,0E0],"parents":[2147483647,0,0,1,1,2,2,3,3,4,4,5,5,6,6,7,7,8,8,9,9,10,10,12,12,13,13,14,14,15,15,16,16,17,17,18,18,19,19,20,20,21,21,22,22,25,25,26,26],"right_children":[2,4,6,8,10,12,14,16,18,20,22,-1,24,26,28,30,32,34,36,38,40,42,44,-1,-1,46,48,-1,-1,-1,-1,-1,-1,-1,-1,-1,-1,-1,-1,-1,-1,-1,-1,-1,-1,-1,-1,-1,-1],"split_conditions":[1.3821497E0,1E0,1E0,7.163222E-1,9.898566E-1,3.682989E-1,2.0483913E0,5.3919214E-1,9.5085824E-1,7.820346E1,1.25555115E2,-8.613542E-1,1.1331954E0,1.3144685E2,1.351207E2,1.3349472E2,1.1663854E2,8.378116E-1,3.020656E-1,9.023025E-1,2.5711426E-1,1.2404616E0,2.6648682E-1,-8.326521E-1,-6.035134E-1,1.608795E0,1.5686548E0,2.0853524E0,3.0050457E0,1.7335135E0,2.6341555E0,5.518121E-1,1.344169E0,3.3749977E-1,-1.7316277E-1,-8.0041283E-1,-4.156033E-1,-8.5378546E-1,-4.906976E-1,-8.012239E-1,-2.9337275E-1,-2.1801905E-1,3.7776473E-1,1.8271224E-1,9.009908E-1,6.523408E-1,1.301237E0,1.3100142E0,1.9793339E0],"split_indices":[4,3,3,4,4,8,4,4,4,0,0,0,2,0,0,1,1,4,8,4,8,4,8,0,0,4,4,0,0,0,0,0,0,0,0,0,0,0,0,0,0,0,0,0,0,0,0,0,0],"split_type":[0,0,0,0,0,0,0,0,0,0,0,0,0,0,0,0,0,0,0,0,0,0,0,0,0,0,0,0,0,0,0,0,0,0,0,0,0,0,0,0,0,0,0,0,0,0,0,0,0],"sum_hessian":[1.6E3,1.218E3,3.82E2,5.93E2,6.25E2,1.81E2,2.01E2,1.6E2,4.33E2,3.92E2,2.33E2,1.29E2,5.2E1,1.61E2,4E1,5.1E1,1.09E2,1.95E2,2.38E2,2.03E2,1.89E2,1.53E2,8E1,2.3E1,2.9E1,1.05E2,5.6E1,1.7E1,2.3E1,3E1,2.1E1,5.4E1,5.5E1,9.1E1,1.04E2,1.27E2,1.11E2,1.92E2,1.1E1,7.7E1,1.12E2,1.17E2,3.6E1,3.6E1,4.4E1,5.9E1,4.6E1,2.3E1,3.3E1],"tree_param":{"num_deleted":"0","num_feature":"9","num_nodes":"49","size_leaf_vector":"1"}},{"base_weights":[5.840252E-2,-5.335333E-1,7.3030186E0,-2.4574704E0,7.076887E-1,-7.8522134E-1,2.1380093E1,1.4422101E1,-2.7783422E0,-2.4740422E0,1.919853E0,1.2928742E0,2.3751791E1,2.299249E0,-6.324199E-1,-3.9105318E0,1.3771985E0,1.0838407E1,-3.134863E0,9.747928E-1,5.0019135E0,2.0238886E0,2.848225E0,-9.7928844E-2,-4.8247534E-1,-7.780916E-1,9.147875E-1,2.454976E0,-6.9645756E-1,-5.1225454E-1,-1.7311202E-1,3.262657E-1,-1.19270205E-1,-8.4547326E-2,1.0489916E0],"categories":[],"categories_nodes":[],"categories_segments":[],"categories_sizes":[],"default_left":[0,0,0,0,0,0,0,0,0,0,0,0,0,0,0,0,0,0,0,0,0,0,0,0,0,0,0,0,0,0,0,0,0,0,0],"id":9,"left_children":[1,3,5,7,9,-1,11,13,15,17,19,-1,21,-1,-1,23,25,27,29,31,33,-1,-1,-1,-1,-1,-1,-1,-1,-1,-1,-1,-1,-1,-1],"loss_changes":[6.8695405E3,3.538416E3,2.598218E4,3.1868696E3,3.479709E3,0E0,9.556953E2,2.1012507E3,2.6918608E3,2.2244653E3,1.8971387E3,0E0,2.2119727E2,0E0,0E0,1.1985083E3,8.824441E3,3.1002148E3,6.551987E2,2.4883174E3,4.918711E3,0E0,0E0,0E0,0E0,0E0,0E0,0E0,0E0,0E0,0E0,0E0,0E0,0E0,0E0],"parents":[2147483647,0,0,1,1,2,2,3,3,4,4,6,6,7,7,8,8,9,9,10,10,12,12,15,15,16,16,17,17,18,18,19,19,20,20],"right_children":[2,4,6,8,10,-1,12,14,16,18,20,-1,22,-1,-1,24,26,28,30,32,34,-1,-1,-1,-1,-1,-1,-1,-1,-1,-1,-1,-1,-1,-1],"split_conditions":[1.9147843E0,2.5711426E-1,1E0,4.0590197E-1,6.462713E-1,-7.8522134E-1,1.1502011E2,1E0,1.3821497E0,4.4425237E-1,1.2247668E2,1.2928742E0,2.3010905E0,2.299249E0,-6.324199E-1,6.6573435E-1,1E0,1E0,8.951377E1,1E0,1E0,2.0238886E0,2.848225E0,-9.7928844E-2,-4.8247534E-1,-7.780916E-1,9.147875E-1,2.454976E0,-6.9645756E-1,-5.1225454E-1,-1.7311202E-1,3.262657E-1,-1.19270205E-1,-8.4547326E-2,1.0489916E0],"split_indices":[4,8,3,4,2,0,0,3,4,4,0,0,4,0,0,4,3,3,1,3,3,0,0,0,0,0,0,0,0,0,0,0,0,0,0],"split_type":[0,0,0,0,0,0,0,0,0,0,0,0,0,0,0,0,0,0,0,0,0,0,0,0,0,0,0,0,0,0,0,0,0,0,0],"sum_hessian":[1.6E3,1.48E3,1.2E2,5.8E2,9E2,5.8E1,6.2E1,1E1,5.7E2,2.48E2,6.52E2,1.5E1,4.7E1,7E0,3E0,4.48E2,1.22E2,1.1E1,2.37E2,5E2,1.52E2,3E1,1.7E1,1.07E2,3.41E2,5.6E1,6.6E1,6E0,5E0,9.7E1,1.4E2,2.43E2,2.57E2,7.4E1,7.8E1],"tree_param":{"num_deleted":"0","num_feature":"9","num_nodes":"35","size_leaf_vector":"1"}},{"base_weights":[5.8088467E-2,-9.927151E-1,3.4723492E0,1.2305293E0,-3.101275E0,-6.938952E0,1.28198395E1,1.069342E1,-3.2475634E0,-5.349708E0,2.8089938E0,-6.957067E-1,-1.8572684E-1,7.890413E0,1.7430271E1,1.5828839E1,5.500703E0,-8.8726574E-1,-6.4535074E0,-6.8611064E0,-2.97251E0,-9.372434E-2,5.4575577E0,2.9260404E0,9.934482E0,1.4354302E1,2.2670815E1,9.942875E-1,1.8754139E0,2.6488337E-1,8.0210394E-1,-2.8667602E-1,3.1338543E-1,-7.747138E-1,-5.271315E-1,-7.693661E-1,-5.5584484E-1,-5.048831E-1,-9.5415436E-2,-3.1115156E-1,1.640447E-1,2.6460704E-1,7.9210556E-1,-1.2759407E-1,3.6215737E-1,7.962492E-1,1.2537664E0,1.2459114E0,1.7912378E0,1.8870894E0,2.72942E0],"categories":[],"categories_nodes":[],"categories_segments":[],"categories_sizes":[],"default_left":[0,0,0,0,0,0,0,0,0,0,0,0,0,0,0,0,0,0,0,0,0,0,0,0,0,0,0,0,0,0,0,0,0,0,0,0,0,0,0,0,0,0,0,0,0,0,0,0,0,0,0],"id":10,"left_children":[1,3,5,7,9,11,13,15,17,19,21,-1,-1,23,25,27,29,31,33,35,37,39,41,43,45,47,49,-1,-1,-1,-1,-1,-1,-1,-1,-1,-1,-1,-1,-1,-1,-1,-1,-1,-1,-1,-1,-1,-1,-1,-1],"loss_changes":[5.747383E3,5.746425E3,3.677842E4,2.5333023E4,8.37371E3,3.5566406E0,4.3850977E3,5.032951E3,3.0664692E3,1.6179648E3,1.3382296E3,0E0,0E0,9.653882E2,1.3187891E3,1.4664785E3,6.759573E2,1.8795334E3,2.2220508E2,2.5873438E2,7.453275E2,4.4470706E2,6.093147E2,9.229944E1,2.5437695E2,2.2862402E2,1.1740039E2,0E0,0E0,0E0,0E0,0E0,0E0,0E0,0E0,0E0,0E0,0E0,0E0,0E0,0E0,0E0,0E0,0E0,0E0,0E0,0E0,0E0,0E0,0E0,0E0],"parents":[2147483647,0,0,1,1,2,2,3,3,4,4,5,5,6,6,7,7,8,8,9,9,10,10,13,13,14,14,15,15,16,16,17,17,18,18,19,19,20,20,21,21,22,22,23,23,24,24,25,25,26,26],"right_children":[2,4,6,8,10,12,14,16,18,20,22,-1,-1,24,26,28,30,32,34,36,38,40,42,44,46,48,50,-1,-1,-1,-1,-1,-1,-1,-1,-1,-1,-1,-1,-1,-1,-1,-1,-1,-1,-1,-1,-1,-1,-1,-1],"split_conditions":[1.3864082E0,1E0,1E0,7.6151234E-1,1.0727226E0,1.9859054E0,1.6789911E0,6.0347027E-1,1.0532548E0,8.313478E-1,1.1203095E2,-6.957067E-1,-1.8572684E-1,1.0270415E2,1.3938925E2,1.2147533E2,1.1085273E2,3.7421545E-1,8.606776E-1,1.1816795E0,1.1713965E0,7.7405525E1,2.8422642E-1,7.579028E1,1.3191023E2,2.0483913E0,2.1758013E0,9.942875E-1,1.8754139E0,2.6488337E-1,8.0210394E-1,-2.8667602E-1,3.1338543E-1,-7.747138E-1,-5.271315E-1,-7.693661E-1,-5.5584484E-1,-5.048831E-1,-9.5415436E-2,-3.1115156E-1,1.640447E-1,2.6460704E-1,7.9210556E-1,-1.2759407E-1,3.6215737E-1,7.962492E-1,1.2537664E0,1.2459114E0,1.7912378E0,1.8870894E0,2.72942E0],"split_indices":[4,3,3,4,4,2,4,4,4,4,0,0,0,0,0,1,1,8,2,2,2,0,8,0,0,4,4,0,0,0,0,0,0,0,0,0,0,0,0,0,0,0,0,0,0,0,0,0,0,0,0],"split_type":[0,0,0,0,0,0,0,0,0,0,0,0,0,0,0,0,0,0,0,0,0,0,0,0,0,0,0,0,0,0,0,0,0,0,0,0,0,0,0,0,0,0,0,0,0,0,0,0,0,0,0],"sum_hessian":[1.6E3,1.224E3,3.76E2,5.96E2,6.28E2,1.78E2,1.98E2,1.91E2,4.05E2,4.55E2,1.73E2,1.77E2,1E0,9.7E1,1.01E2,9.5E1,9.6E1,2.34E2,1.71E2,2.77E2,1.78E2,8.3E1,9E1,2.9E1,6.8E1,6.6E1,3.5E1,3.3E1,6.2E1,4.6E1,5E1,1.57E2,7.7E1,7.9E1,9.2E1,1.66E2,1.11E2,8.7E1,9.1E1,3E1,5.3E1,4.3E1,4.7E1,4E0,2.5E1,4.1E1,2.7E1,4.6E1,2E1,2.2E1,1.3E1],"tree_param":{"num_deleted":"0","num_feature":"9","num_nodes":"51","size_leaf_vector":"1"}},{"base_weights":[5.896458E-2,-8.9210016E-1,3.1491377E0,1.1119345E0,-2.7927625E0,-6.249981E0,1.1587797E1,9.644582E0,-2.9259477E0,-4.8189597E0,2.533322E0,-6.3962585E-1,-4.8448353E0,7.1246834E0,1.576228E1,1.4058875E1,4.6936235E0,-1.4165984E-1,-5.142895E0,-6.632405E0,-3.1592243E0,-8.6103596E-2,4.923415E0,-2.4338432E-1,-5.2689605E0,3.0168688E0,9.163776E0,1.3932506E1,2.3527203E0,8.796715E-1,1.6837969E0,1.4851405E-1,6.4630264E-1,-1.8981203E-1,3.5225147E-1,-6.510343E-1,-3.0804142E-1,-7.085E-1,-5.6225264E-1,-6.075496E-1,-1.6631167E-1,-3.2742003E-1,1.4814895E-1,3.1688747E-1,8.3853513E-1,-5.6595486E-1,-2.5846612E-1,-1.1738656E-1,3.6147624E-1,7.327435E-1,1.1328676E0,1.0035018E0,1.5573835E0],"categories":[],"categories_nodes":[],"categories_segments":[],"categories_sizes":[],"default_left":[0,0,0,0,0,0,0,0,0,0,0,0,0,0,0,0,0,0,0,0,0,0,0,0,0,0,0,0,0,0,0,0,0,0,0,0,0,0,0,0,0,0,0,0,0,0,0,0,0,0,0,0,0],"id":11,"left_children":[1,3,5,7,9,11,13,15,17,19,21,-1,23,25,27,29,31,33,35,37,39,41,43,-1,45,47,49,51,-1,-1,-1,-1,-1,-1,-1,-1,-1,-1,-1,-1,-1,-1,-1,-1,-1,-1,-1,-1,-1,-1,-1,-1,-1],"loss_changes":[4.708076E3,4.6691226E3,2.9974543E4,2.059715E4,6.800186E3,5.8032227E0,3.5953066E3,4.130172E3,2.5053555E3,1.3515332E3,1.0897805E3,0E0,8.649994E0,7.9322314E2,1.1214297E3,1.3289082E3,5.1269495E2,1.171598E3,6.1734033E2,5.9347656E1,1.0370293E3,4.246523E2,5.2617163E2,0E0,3.1957092E0,8.943405E1,1.7539746E2,3.874668E2,0E0,0E0,0E0,0E0,0E0,0E0,0E0,0E0,0E0,0E0,0E0,0E0,0E0,0E0,0E0,0E0,0E0,0E0,0E0,0E0,0E0,0E0,0E0,0E0,0E0],"parents":[2147483647,0,0,1,1,2,2,3,3,4,4,5,5,6,6,7,7,8,8,9,9,10,10,12,12,13,13,14,14,15,15,16,16,17,17,18,18,19,19,20,20,21,21,22,22,24,24,25,25,26,26,27,27],"right_children":[2,4,6,8,10,12,14,16,18,20,22,-1,24,26,28,30,32,34,36,38,40,42,44,-1,46,48,50,52,-1,-1,-1,-1,-1,-1,-1,-1,-1,-1,-1,-1,-1,-1,-1,-1,-1,-1,-1,-1,-1,-1,-1,-1,-1],"split_conditions":[1.3864082E0,1E0,1E0,7.6151234E-1,1.0727226E0,4.3012336E-1,1.6789911E0,6.1258125E-1,9.731269E-1,7.820346E1,1.1203095E2,-6.3962585E-1,1.559134E0,1.065732E2,2.3010905E0,1.2147533E2,9.876278E1,3.7421545E-1,1.009854E2,1.3353556E0,2.3623037E-1,6.462713E-1,1.2709786E0,-2.4338432E-1,1.7819538E0,7.579028E1,1.3191023E2,1.20407974E2,2.3527203E0,8.796715E-1,1.6837969E0,1.4851405E-1,6.4630264E-1,-1.8981203E-1,3.5225147E-1,-6.510343E-1,-3.0804142E-1,-7.085E-1,-5.6225264E-1,-6.075496E-1,-1.6631167E-1,-3.2742003E-1,1.4814895E-1,3.1688747E-1,8.3853513E-1,-5.6595486E-1,-2.5846612E-1,-1.1738656E-1,3.6147624E-1,7.327435E-1,1.1328676E0,1.0035018E0,1.5573835E0],"split_indices":[4,3,3,4,4,8,4,4,4,0,0,0,4,0,4,1,1,8,1,2,8,2,4,0,2,0,0,0,0,0,0,0,0,0,0,0,0,0,0,0,0,0,0,0,0,0,0,0,0,0,0,0,0],"split_type":[0,0,0,0,0,0,0,0,0,0,0,0,0,0,0,0,0,0,0,0,0,0,0,0,0,0,0,0,0,0,0,0,0,0,0,0,0,0,0,0,0,0,0,0,0,0,0,0,0,0,0,0,0],"sum_hessian":[1.6E3,1.224E3,3.76E2,5.96E2,6.28E2,1.78E2,1.98E2,1.91E2,4.05E2,4.55E2,1.73E2,1.58E2,2E1,9.7E1,1.01E2,1E2,9.1E1,1.8E2,2.25E2,2.16E2,2.39E2,8.3E1,9E1,4E0,1.6E1,3.3E1,6.4E1,8.4E1,1.7E1,3.6E1,6.4E1,3.3E1,5.8E1,1.22E2,5.8E1,1.34E2,9.1E1,1.45E2,7.1E1,8E1,1.59E2,2.7E1,5.6E1,6.1E1,2.9E1,1.3E1,3E0,4E0,2.9E1,3.7E1,2.7E1,2.7E1,5.7E1],"tree_param":{"num_deleted":"0","num_feature":"9","num_nodes":"53","size_leaf_vector":"1"}},{"base_weights":[5.7321135E-2,-8.016712E-1,2.8483245E0,1.0050321E0,-2.515185E0,-5.6345215E0,1.0464311E1,7.2442436E0,-3.5420382E0,-5.2146273E0,8.6810076E-1,-5.892491E-1,-4.891165E0,6.4337435E0,1.4234224E1,1.2678369E1,3.5857508E0,-4.7200794E0,1.3077112E-1,-6.206235E0,-3.9270809E0,-3.5688034E-1,5.3656464E0,-5.1518416E-1,-2.8134605E-1,2.3556755E0,8.113574E0,1.1520268E1,1.8690626E1,9.948584E-1,1.7541717E0,2.0464258E-1,6.422483E-1,-5.8961356E-1,-3.3009055E-1,-3.298943E-1,2.973922E-1,-6.309614E-1,-9.952282E-2,-5.837488E-1,-2.0631051E-1,-3.205021E-1,1.5517016E-1,3.8133222E-1,8.7758845E-1,-1.5746517E-1,2.850699E-1,6.5052634E-1,1.0236269E0,9.875229E-1,1.4575104E0,1.5579648E0,2.2688687E0],"categories":[],"categories_nodes":[],"categories_segments":[],"categories_sizes":[],"default_left":[0,0,0,0,0,0,0,0,0,0,0,0,0,0,0,0,0,0,0,0,0,0,0,0,0,0,0,0,0,0,0,0,0,0,0,0,0,0,0,0,0,0,0,0,0,0,0,0,0,0,0,0,0],"id":12,"left_children":[1,3,5,7,9,11,13,15,17,19,21,-1,23,25,27,29,31,33,35,37,39,41,43,-1,-1,45,47,49,51,-1,-1,-1,-1,-1,-1,-1,-1,-1,-1,-1,-1,-1,-1,-1,-1,-1,-1,-1,-1,-1,-1,-1,-1],"loss_changes":[3.8406018E3,3.7948962E3,2.4415135E4,1.6962629E4,5.7491743E3,5.5039062E0,2.9322012E3,4.9644766E3,1.4976626E3,4.2248828E2,1.5445492E3,0E0,1.3669189E1,6.5223193E2,1.0183164E3,1.1663516E3,6.505879E2,4.1782275E2,8.3866223E2,9.930713E1,5.399043E2,1.2063092E3,2.8416248E2,0E0,0E0,6.285695E1,1.6897314E2,1.8773828E2,1.0671973E2,0E0,0E0,0E0,0E0,0E0,0E0,0E0,0E0,0E0,0E0,0E0,0E0,0E0,0E0,0E0,0E0,0E0,0E0,0E0,0E0,0E0,0E0,0E0,0E0],"parents":[2147483647,0,0,1,1,2,2,3,3,4,4,5,5,6,6,7,7,8,8,9,9,10,10,12,12,13,13,14,14,15,15,16,16,17,17,18,18,19,19,20,20,21,21,22,22,25,25,26,26,27,27,28,28],"right_children":[2,4,6,8,10,12,14,16,18,20,22,-1,24,26,28,30,32,34,36,38,40,42,44,-1,-1,46,48,50,52,-1,-1,-1,-1,-1,-1,-1,-1,-1,-1,-1,-1,-1,-1,-1,-1,-1,-1,-1,-1,-1,-1,-1,-1],"split_conditions":[1.3864082E0,1E0,1E0,8.378116E-1,9.321652E-1,1.4874213E0,1.6789911E0,6.1258125E-1,1.2132069E2,3.0780074E-1,1.2519231E0,-5.892491E-1,4.4543082E-1,1.0270415E2,1.3902638E2,1.3389973E2,1.23148636E2,1.0192249E0,3.020656E-1,1.2636058E2,1.074462E0,9.1149956E-1,1.3170721E2,-5.1518416E-1,-2.8134605E-1,7.418523E1,1.3191023E2,2.0483913E0,2.1758013E0,9.948584E-1,1.7541717E0,2.0464258E-1,6.422483E-1,-5.8961356E-1,-3.3009055E-1,-3.298943E-1,2.973922E-1,-6.309614E-1,-9.952282E-2,-5.837488E-1,-2.0631051E-1,-3.205021E-1,1.5517016E-1,3.8133222E-1,8.7758845E-1,-1.5746517E-1,2.850699E-1,6.5052634E-1,1.0236269E0,9.875229E-1,1.4575104E0,1.5579648E0,2.2688687E0],"split_indices":[4,3,3,4,4,2,4,4,1,8,4,0,8,0,0,1,1,2,8,0,2,2,0,0,0,0,0,4,4,0,0,0,0,0,0,0,0,0,0,0,0,0,0,0,0,0,0,0,0,0,0,0,0],"split_type":[0,0,0,0,0,0,0,0,0,0,0,0,0,0,0,0,0,0,0,0,0,0,0,0,0,0,0,0,0,0,0,0,0,0,0,0,0,0,0,0,0,0,0,0,0,0,0,0,0,0,0,0,0],"sum_hessian":[1.6E3,1.224E3,3.76E2,5.96E2,6.28E2,1.78E2,1.98E2,2.51E2,3.45E2,3.49E2,2.79E2,1.27E2,5.1E1,9.7E1,1.01E2,1E2,1.51E2,2.61E2,8.4E1,1.95E2,1.54E2,2.2E2,5.9E1,4.4E1,7E0,2.9E1,6.8E1,6.5E1,3.6E1,6.6E1,3.4E1,9.9E1,5.2E1,1.41E2,1.2E2,3.8E1,4.6E1,1.91E2,4E0,7.5E1,7.9E1,8.8E1,1.32E2,4.2E1,1.7E1,3E0,2.6E1,4.1E1,2.7E1,4.5E1,2E1,2.3E1,1.3E1],"tree_param":{"num_deleted":"0","num_feature":"9","num_nodes":"53","size_leaf_vector":"1"}},{"base_weights":[5.7150774E-2,-7.281037E-1,2.556284E0,9.3637794E-1,-2.3063369E0,-5.069606E0,9.41448E0,8.893438E0,-1.9675417E0,-4.387085E0,1.1981094E0,-5.2898115E-1,-4.417366E0,5.8292217E0,1.2872291E1,1.618213E1,6.8560653E0,1.491942E0,-3.574591E0,-5.6519356E0,-3.2232492E0,-2.284936E0,2.7292821E0,-4.9160776E-1,-3.3736235E-1,2.441727E0,7.4372454E0,1.0405288E1,1.6924992E1,1.2833692E0,1.8775648E0,2.4522603E-1,8.6593074E-1,4.4996593E-2,6.003224E-1,-5.1379293E-1,-1.6746007E-1,-5.7942575E-1,-3.4793684E-1,-6.1408985E-1,-2.204806E-1,-3.8004944E-1,-1.578915E-2,9.1836534E-2,5.183019E-1,-1.04249194E-1,2.9410392E-1,3.5786524E-1,8.2001823E-1,9.090788E-1,1.3659387E0,1.4215105E0,2.0834394E0],"categories":[],"categories_nodes":[],"categories_segments":[],"categories_sizes":[],"default_left":[0,0,0,0,0,0,0,0,0,0,0,0,0,0,0,0,0,0,0,0,0,0,0,0,0,0,0,0,0,0,0,0,0,0,0,0,0,0,0,0,0,0,0,0,0,0,0,0,0,0,0,0,0],"id":13,"left_children":[1,3,5,7,9,11,13,15,17,19,21,-1,23,25,27,29,31,33,35,37,39,41,43,-1,-1,45,47,49,51,-1,-1,-1,-1,-1,-1,-1,-1,-1,-1,-1,-1,-1,-1,-1,-1,-1,-1,-1,-1,-1,-1,-1,-1],"loss_changes":[3.1437527E3,3.2043994E3,2.007857E4,1.3742856E4,4.569967E3,2.7729492E0,2.4291875E3,2.250171E3,2.4293018E3,5.603091E2,1.2541919E3,0E0,1.0482422E1,5.320044E2,8.4368945E2,5.4302734E1,9.793467E2,6.5068884E2,8.7655347E2,3.7660645E1,6.015525E2,2.3150345E2,7.1953284E2,0E0,0E0,6.2216263E1,1.7083716E2,1.5814111E2,9.581738E1,0E0,0E0,0E0,0E0,0E0,0E0,0E0,0E0,0E0,0E0,0E0,0E0,0E0,0E0,0E0,0E0,0E0,0E0,0E0,0E0,0E0,0E0,0E0,0E0],"parents":[2147483647,0,0,1,1,2,2,3,3,4,4,5,5,6,6,7,7,8,8,9,9,10,10,12,12,13,13,14,14,15,15,16,16,17,17,18,18,19,19,20,20,21,21,22,22,25,25,26,26,27,27,28,28],"right_children":[2,4,6,8,10,12,14,16,18,20,22,-1,24,26,28,30,32,34,36,38,40,42,44,-1,-1,46,48,50,52,-1,-1,-1,-1,-1,-1,-1,-1,-1,-1,-1,-1,-1,-1,-1,-1,-1,-1,-1,-1,-1,-1,-1,-1],"split_conditions":[1.3821497E0,1E0,1E0,7.0469886E-1,9.898566E-1,1.4874213E0,1.6789911E0,4.8249343E-1,8.8854945E-1,6.862192E-1,9.21721E1,-5.2898115E-1,3.710445E-1,1.065732E2,1.3902638E2,1.321637E2,1.0296597E2,1.3583417E2,1.009854E2,4.7336534E-1,6.99513E-1,1.1382816E0,1.1713965E0,-4.9160776E-1,-3.3736235E-1,7.579028E1,1.6270518E-1,2.135035E0,2.2076602E0,1.2833692E0,1.8775648E0,2.4522603E-1,8.6593074E-1,4.4996593E-2,6.003224E-1,-5.1379293E-1,-1.6746007E-1,-5.7942575E-1,-3.4793684E-1,-6.1408985E-1,-2.204806E-1,-3.8004944E-1,-1.578915E-2,9.1836534E-2,5.183019E-1,-1.04249194E-1,2.9410392E-1,3.5786524E-1,8.2001823E-1,9.090788E-1,1.3659387E0,1.4215105E0,2.0834394E0],"split_indices":[4,3,3,4,4,2,4,4,4,4,0,0,8,0,0,1,1,1,1,8,2,4,2,0,0,0,8,4,4,0,0,0,0,0,0,0,0,0,0,0,0,0,0,0,0,0,0,0,0,0,0,0,0],"split_type":[0,0,0,0,0,0,0,0,0,0,0,0,0,0,0,0,0,0,0,0,0,0,0,0,0,0,0,0,0,0,0,0,0,0,0,0,0,0,0,0,0,0,0,0,0,0,0,0,0,0,0,0,0],"sum_hessian":[1.6E3,1.218E3,3.82E2,5.93E2,6.25E2,1.81E2,2.01E2,1.58E2,4.35E2,3.92E2,2.33E2,1.3E2,5.1E1,1E2,1.01E2,3.3E1,1.25E2,1.38E2,2.97E2,1.86E2,2.06E2,7.1E1,1.62E2,3.2E1,1.9E1,3.3E1,6.7E1,6.5E1,3.6E1,1.7E1,1.6E1,3.7E1,8.8E1,1.13E2,2.5E1,1.62E2,1.35E2,1.73E2,1.3E1,5.2E1,1.54E2,4.1E1,3E1,9.4E1,6.8E1,4E0,2.9E1,1.2E1,5.5E1,4.9E1,1.6E1,2.4E1,1.2E1],"tree_param":{"num_deleted":"0","num_feature":"9","num_nodes":"53","size_leaf_vector":"1"}},{"base_weights":[5.673119E-2,-5.6324625E-1,2.6612575E0,-1.9513627E0,1.0257467E0,-4.6684475E0,1.0021277E1,5.6693535E0,-2.2937648E0,-1.7874283E0,2.3511243E0,-4.681544E-1,-1.3258176E-1,6.7178173E0,1.2993005E1,1.5429476E0,-5.119402E-1,-2.9231708E0,-1.333815E0,-3.5196872E0,-4.0429357E-1,4.8060455E0,1.1262557E-1,3.666473E0,7.8365536E0,1.145944E0,1.8002131E0,-1.6972707E-1,-3.6163136E-1,-2.4341936E-1,-5.261502E-3,-3.9634907E-1,-1.3303281E-1,-1.2798409E-1,2.4399479E-1,9.988684E-1,1.974733E-1,-3.2303506E-1,4.485747E-1,1.9137123E-1,4.3568474E-1,6.997568E-1,9.391796E-1],"categories":[],"categories_nodes":[],"categories_segments":[],"categories_sizes":[],"default_left":[0,0,0,0,0,0,0,0,0,0,0,0,0,0,0,0,0,0,0,0,0,0,0,0,0,0,0,0,0,0,0,0,0,0,0,0,0,0,0,0,0,0,0],"id":14,"left_children":[1,3,5,7,9,11,13,15,17,19,21,-1,-1,23,25,-1,-1,27,29,31,33,35,37,39,41,-1,-1,-1,-1,-1,-1,-1,-1,-1,-1,-1,-1,-1,-1,-1,-1,-1,-1],"loss_changes":[2.58671E3,2.856187E3,1.666239E4,1.8160637E3,2.256228E3,5.7836914E-1,1.4245312E3,3.237977E3,3.9608032E2,4.633908E2,2.2580425E3,0E0,0E0,2.2729126E2,4.0825E2,0E0,0E0,3.329021E2,3.7206052E2,7.828882E1,2.7456195E2,2.856314E3,3.1722466E3,1.82836E1,4.740967E0,0E0,0E0,0E0,0E0,0E0,0E0,0E0,0E0,0E0,0E0,0E0,0E0,0E0,0E0,0E0,0E0,0E0,0E0],"parents":[2147483647,0,0,1,1,2,2,3,3,4,4,5,5,6,6,7,7,8,8,9,9,10,10,13,13,14,14,17,17,18,18,19,19,20,20,21,21,22,22,23,23,24,24],"right_children":[2,4,6,8,10,12,14,16,18,20,22,-1,-1,24,26,-1,-1,28,30,32,34,36,38,40,42,-1,-1,-1,-1,-1,-1,-1,-1,-1,-1,-1,-1,-1,-1,-1,-1,-1,-1],"split_conditions":[1.4927027E0,3.067347E-1,1E0,4.6161723E-1,9.226292E1,1.9859054E0,1.2523745E2,1E0,1.2535571E0,8.606776E-1,1E0,-4.681544E-1,-1.3258176E-1,1.0126885E2,2.3010905E0,1.5429476E0,-5.119402E-1,7.93811E-1,2.3329669E-1,4.6370602E-1,4.5051694E-1,7.0469886E-1,9.0686536E-1,1.5686548E0,1.956864E0,1.145944E0,1.8002131E0,-1.6972707E-1,-3.6163136E-1,-2.4341936E-1,-5.261502E-3,-3.9634907E-1,-1.3303281E-1,-1.2798409E-1,2.4399479E-1,9.988684E-1,1.974733E-1,-3.2303506E-1,4.485747E-1,1.9137123E-1,4.3568474E-1,6.997568E-1,9.391796E-1],"split_indices":[4,8,3,4,1,2,0,3,2,2,3,0,0,0,4,0,0,4,8,8,8,4,4,4,4,0,0,0,0,0,0,0,0,0,0,0,0,0,0,0,0,0,0],"split_type":[0,0,0,0,0,0,0,0,0,0,0,0,0,0,0,0,0,0,0,0,0,0,0,0,0,0,0,0,0,0,0,0,0,0,0,0,0,0,0,0,0,0,0],"sum_hessian":[1.6E3,1.293E3,3.07E2,6.9E2,6.03E2,1.54E2,1.53E2,2.9E1,6.61E2,1.93E2,4.1E2,1.53E2,1E0,7.4E1,7.9E1,1.5E1,1.4E1,3.98E2,2.63E2,8.5E1,1.08E2,1.95E2,2.15E2,2.1E1,5.3E1,6.3E1,1.6E1,1.45E2,2.53E2,1.41E2,1.22E2,7E1,1.5E1,8.3E1,2.5E1,6.8E1,1.27E2,1.22E2,9.3E1,7E0,1.4E1,3.8E1,1.5E1],"tree_param":{"num_deleted":"0","num_feature":"9","num_nodes":"43","size_leaf_vector":"1"}},{"base_weights":[5.466277E-2,-5.976825E-1,2.1307833E0,8.0412996E-1,-1.9268819E0,-4.150887E0,7.7799573E0,5.7837863E0,-2.6598024E0,-3.2131429E0,2.5612319E0,-4.2542252E-1,-3.1560426E0,6.279422E0,1.3519149E1,1.0788917E1,3.455341E0,-3.6641173E0,6.2719154E-1,-4.401127E0,-1.4863803E0,4.9598897E-1,4.561313E0,-3.6540443E-1,-1.6380326E-1,2.9420567E0,7.49893E0,1.1482326E1,1.7484611E0,8.4848356E-1,1.4741479E0,2.146972E-1,6.3327235E-1,-5.7076186E-1,-2.9305717E-1,-2.1919946E-1,3.5686016E-1,-4.7480056E-1,-2.5214285E-1,-4.124363E-1,-9.617453E-3,-2.2859326E-1,1.5772133E-1,2.8142387E-1,7.865407E-1,1.0691837E-1,4.0409732E-1,4.782341E-1,8.454146E-1,3.3586675E-1,1.1646637E0],"categories":[],"categories_nodes":[],"categories_segments":[],"categories_sizes":[],"default_left":[0,0,0,0,0,0,0,0,0,0,0,0,0,0,0,0,0,0,0,0,0,0,0,0,0,0,0,0,0,0,0,0,0,0,0,0,0,0,0,0,0,0,0,0,0,0,0,0,0,0,0],"id":15,"left_children":[1,3,5,7,9,11,13,15,17,19,21,-1,23,25,27,29,31,33,35,37,39,41,43,-1,-1,45,47,49,-1,-1,-1,-1,-1,-1,-1,-1,-1,-1,-1,-1,-1,-1,-1,-1,-1,-1,-1,-1,-1,-1,-1],"loss_changes":[2.1695835E3,2.272898E3,1.3623526E4,1.0261404E4,3.6220557E3,5.2841797E0,1.6547041E3,2.8063389E3,1.1610112E3,9.9247314E2,5.760291E2,0E0,9.889954E0,6.3726855E2,1.3039062E2,5.7616113E2,6.188699E2,3.8650488E2,6.960901E2,1.758125E2,7.3307104E2,2.1415712E2,3.8771216E2,0E0,0E0,8.829535E1,2.65771E2,9.267578E-1,0E0,0E0,0E0,0E0,0E0,0E0,0E0,0E0,0E0,0E0,0E0,0E0,0E0,0E0,0E0,0E0,0E0,0E0,0E0,0E0,0E0,0E0,0E0],"parents":[2147483647,0,0,1,1,2,2,3,3,4,4,5,5,6,6,7,7,8,8,9,9,10,10,12,12,13,13,14,14,15,15,16,16,17,17,18,18,19,19,20,20,21,21,22,22,25,25,26,26,27,27],"right_children":[2,4,6,8,10,12,14,16,18,20,22,-1,24,26,28,30,32,34,36,38,40,42,44,-1,-1,46,48,50,-1,-1,-1,-1,-1,-1,-1,-1,-1,-1,-1,-1,-1,-1,-1,-1,-1,-1,-1,-1,-1,-1,-1],"split_conditions":[1.3821497E0,1E0,1E0,8.279512E-1,1.1118153E0,4.3012336E-1,2.0483913E0,5.804444E-1,1.2270567E2,9.019309E1,1.1203095E2,-4.2542252E-1,7.271796E1,1.065732E2,2.448325E0,1.3389973E2,1.2925948E2,2.028474E-1,3.2822457E-1,4.417384E-1,2.3623037E-1,7.4640205E1,3.3643815E-1,-3.6540443E-1,-1.6380326E-1,1.4996605E0,1.4927027E0,1.0754742E2,1.7484611E0,8.4848356E-1,1.4741479E0,2.146972E-1,6.3327235E-1,-5.7076186E-1,-2.9305717E-1,-2.1919946E-1,3.5686016E-1,-4.7480056E-1,-2.5214285E-1,-4.124363E-1,-9.617453E-3,-2.2859326E-1,1.5772133E-1,2.8142387E-1,7.865407E-1,1.0691837E-1,4.0409732E-1,4.782341E-1,8.454146E-1,3.3586675E-1,1.1646637E0],"split_indices":[4,3,3,4,4,8,4,4,1,0,0,0,1,0,4,1,1,8,8,8,8,0,8,0,0,4,4,0,0,0,0,0,0,0,0,0,0,0,0,0,0,0,0,0,0,0,0,0,0,0,0],"split_type":[0,0,0,0,0,0,0,0,0,0,0,0,0,0,0,0,0,0,0,0,0,0,0,0,0,0,0,0,0,0,0,0,0,0,0,0,0,0,0,0,0,0,0,0,0,0,0,0,0,0,0],"sum_hessian":[1.6E3,1.218E3,3.82E2,5.93E2,6.25E2,1.81E2,2.01E2,2.43E2,3.5E2,4.86E2,1.39E2,1.61E2,2E1,1.61E2,4E1,7.6E1,1.67E2,2.68E2,8.2E1,2.87E2,1.99E2,6.9E1,7E1,1.4E1,6E0,4.4E1,1.17E2,2.9E1,1.1E1,5E1,2.6E1,1.16E2,5.1E1,6.9E1,1.99E2,4.2E1,4E1,2.41E2,4.6E1,6.8E1,1.31E2,1.9E1,5E1,4.7E1,2.3E1,1.7E1,2.7E1,3.2E1,8.5E1,1E0,2.8E1],"tree_param":{"num_deleted":"0","num_feature":"9","num_nodes":"51","size_leaf_vector":"1"}},{"base_weights":[5.3207472E-2,-5.3603363E-1,1.9284861E0,-1.6908115E0,7.948412E-1,-3.7410433E0,7.0271287E0,4.746417E0,-1.9975841E0,-2.426497E-1,3.5787787E0,-3.9262494E-1,-3.2025232E0,5.1146836E0,1.0979288E1,1.2835573E0,-4.1984436E-1,-4.010184E0,-1.619534E0,-2.4051163E0,7.117806E-1,2.2990432E0,6.828816E0,-3.624851E-1,-2.3455563E0,3.0956342E0,7.031822E0,9.274492E0,1.5247272E0,-4.8714533E-1,-3.1546092E-1,-4.834701E-2,-2.6353487E-1,-3.5230908E-1,-1.2845396E-1,3.0895102E-1,-1.4359874E-1,4.5992398E-1,-8.328295E-3,4.9008894E-1,9.2342204E-1,-2.7191997E-1,-1.4451914E-1,1.4008084E-1,4.6103135E-1,6.133818E-1,8.9701426E-1,6.689457E-1,1.0325131E0],"categories":[],"categories_nodes":[],"categories_segments":[],"categories_sizes":[],"default_left":[0,0,0,0,0,0,0,0,0,0,0,0,0,0,0,0,0,0,0,0,0,0,0,0,0,0,0,0,0,0,0,0,0,0,0,0,0,0,0,0,0,0,0,0,0,0,0,0,0],"id":16,"left_children":[1,3,5,7,9,11,13,15,17,19,21,-1,23,25,27,-1,-1,29,31,33,35,37,39,-1,41,43,45,47,-1,-1,-1,-1,-1,-1,-1,-1,-1,-1,-1,-1,-1,-1,-1,-1,-1,-1,-1,-1,-1],"loss_changes":[1.7701246E3,1.874782E3,1.1097634E4,1.2990028E3,1.6385399E3,5.578125E0,1.4706191E3,2.2245803E3,4.6828418E2,8.5617633E2,6.248153E2,0E0,1.0317627E1,5.1240234E2,3.3153174E2,0E0,0E0,5.684668E1,6.0689966E2,1.5457703E2,1.4751981E3,6.141227E2,1.5415417E2,0E0,2.7985458E0,1.7067291E2,6.682202E1,6.401172E1,0E0,0E0,0E0,0E0,0E0,0E0,0E0,0E0,0E0,0E0,0E0,0E0,0E0,0E0,0E0,0E0,0E0,0E0,0E0,0E0,0E0],"parents":[2147483647,0,0,1,1,2,2,3,3,4,4,5,5,6,6,7,7,8,8,9,9,10,10,12,12,13,13,14,14,17,17,18,18,19,19,20,20,21,21,22,22,24,24,25,25,26,26,27,27],"right_children":[2,4,6,8,10,12,14,16,18,20,22,-1,24,26,28,-1,-1,30,32,34,36,38,40,-1,42,44,46,48,-1,-1,-1,-1,-1,-1,-1,-1,-1,-1,-1,-1,-1,-1,-1,-1,-1,-1,-1,-1,-1],"split_conditions":[1.3821497E0,3.067347E-1,1E0,4.6161723E-1,1.4421068E0,1.4874213E0,1.3682713E2,1E0,8.112175E1,9.1894775E1,1.04190094E2,-3.9262494E-1,3.710445E-1,1.61327E0,2.1758013E0,1.2835573E0,-4.1984436E-1,1E0,1E0,7.229014E-1,1E0,1E0,4.2553166E-1,-3.624851E-1,7.5096664E1,1.0192249E0,2.0168457E0,1.5335319E0,1.5247272E0,-4.8714533E-1,-3.1546092E-1,-4.834701E-2,-2.6353487E-1,-3.5230908E-1,-1.2845396E-1,3.0895102E-1,-1.4359874E-1,4.5992398E-1,-8.328295E-3,4.9008894E-1,9.2342204E-1,-2.7191997E-1,-1.4451914E-1,1.4008084E-1,4.6103135E-1,6.133818E-1,8.9701426E-1,6.689457E-1,1.0325131E0],"split_indices":[4,8,3,4,2,2,0,3,1,1,0,0,8,4,4,0,0,3,3,2,3,3,8,0,1,2,4,4,0,0,0,0,0,0,0,0,0,0,0,0,0,0,0,0,0,0,0,0,0],"split_type":[0,0,0,0,0,0,0,0,0,0,0,0,0,0,0,0,0,0,0,0,0,0,0,0,0,0,0,0,0,0,0,0,0,0,0,0,0,0,0,0,0,0,0,0,0,0,0,0,0],"sum_hessian":[1.6E3,1.218E3,3.82E2,6.52E2,5.66E2,1.81E2,2.01E2,2.9E1,6.23E2,4.13E2,1.53E2,1.3E2,5.1E1,1.37E2,6.4E1,1.5E1,1.4E1,9.7E1,5.26E2,1.26E2,2.87E2,1.11E2,4.2E1,3.2E1,1.9E1,6.8E1,6.9E1,4.8E1,1.6E1,4.6E1,5.1E1,2.49E2,2.77E2,6.2E1,6.4E1,1.36E2,1.51E2,5.6E1,5.5E1,2.5E1,1.7E1,1.2E1,7E0,3.3E1,3.5E1,5E1,1.9E1,1.6E1,3.2E1],"tree_param":{"num_deleted":"0","num_feature":"9","num_nodes":"49","size_leaf_vector":"1"}},{"base_weights":[5.1300317E-2,-4.0297598E-1,2.0554676E0,-8.349179E-1,1.7566009E0,-2.907746E0,6.468171E0,4.8853097E0,-1.0576962E0,2.2267842E-1,3.703641E0,1.204777E0,-3.6032064E0,2.281214E0,9.176699E0,1.2088068E1,-4.0909407E-1,-2.4977078E0,-6.457251E-1,-8.7414587E-1,1.8969467E0,1.5882112E-1,5.088443E0,-1.0937834E0,3.019846E0,-4.125975E0,-2.7034593E0,-3.0764288E-1,3.992505E0,7.746163E0,1.2492635E0,1.3535593E0,7.682013E-1,-2.965593E-1,5.338716E-2,-1.6399239E-1,1.7681805E-2,-2.396611E-1,8.417639E-2,5.3900486E-1,-3.0171916E-1,2.9669735E-1,-2.472709E-1,2.910695E-1,6.788429E-1,6.421371E-2,-2.9581314E-1,4.2223297E-2,4.8149648E-1,-1.9397794E-1,-4.325432E-1,-3.989565E-2,-3.165948E-1,-9.068272E-2,2.3902969E-1,1.1722739E-2,5.3723466E-1,5.338966E-1,8.4304583E-1],"categories":[],"categories_nodes":[],"categories_segments":[],"categories_sizes":[],"default_left":[0,0,0,0,0,0,0,0,0,0,0,0,0,0,0,0,0,0,0,0,0,0,0,0,0,0,0,0,0,0,0,0,0,0,0,0,0,0,0,0,0,0,0,0,0,0,0,0,0,0,0,0,0,0,0,0,0,0,0],"id":17,"left_children":[1,3,5,7,9,11,13,15,17,19,21,23,25,27,29,31,-1,33,35,37,39,41,43,45,47,49,51,53,55,57,-1,-1,-1,-1,-1,-1,-1,-1,-1,-1,-1,-1,-1,-1,-1,-1,-1,-1,-1,-1,-1,-1,-1,-1,-1,-1,-1,-1,-1],"loss_changes":[1.4584518E3,1.2197189E3,6.50156E3,1.3929263E3,6.502558E2,4.047544E2,1.7595225E3,2.7002559E3,6.206991E2,2.2753271E2,4.704436E2,9.091603E1,4.528894E1,2.803364E2,3.5386914E2,4.2710205E1,0E0,3.3207776E2,6.684092E2,1.9794835E2,8.5737646E2,2.142491E2,2.3568872E2,3.4263123E1,5.3923256E1,2.3877441E1,4.8829834E1,4.4198235E1,2.0256635E2,6.8649414E1,0E0,0E0,0E0,0E0,0E0,0E0,0E0,0E0,0E0,0E0,0E0,0E0,0E0,0E0,0E0,0E0,0E0,0E0,0E0,0E0,0E0,0E0,0E0,0E0,0E0,0E0,0E0,0E0,0E0],"parents":[2147483647,0,0,1,1,2,2,3,3,4,4,5,5,6,6,7,7,8,8,9,9,10,10,11,11,12,12,13,13,14,14,15,15,17,17,18,18,19,19,20,20,21,21,22,22,23,23,24,24,25,25,26,26,27,27,28,28,29,29],"right_children":[2,4,6,8,10,12,14,16,18,20,22,24,26,28,30,32,-1,34,36,38,40,42,44,46,48,50,52,54,56,58,-1,-1,-1,-1,-1,-1,-1,-1,-1,-1,-1,-1,-1,-1,-1,-1,-1,-1,-1,-1,-1,-1,-1,-1,-1,-1,-1,-1,-1],"split_conditions":[1.3144685E2,4.3012336E-1,1E0,4.4425237E-1,1.1867921E0,1.0532548E0,1.2758124E0,1E0,4.9728498E-1,1.1522243E2,6.3401524E1,9.708906E-1,1.1978334E0,2.4549021E-1,2.0483913E0,1.577683E0,-4.0909407E-1,1.5401855E0,2.5711426E-1,1E0,1E0,1E0,9.935466E1,9.490262E-1,3.1681335E-1,1.0895835E0,1.2470528E0,1.1663237E0,8.720312E-1,6.1671364E-1,1.2492635E0,1.3535593E0,7.682013E-1,-2.965593E-1,5.338716E-2,-1.6399239E-1,1.7681805E-2,-2.396611E-1,8.417639E-2,5.3900486E-1,-3.0171916E-1,2.9669735E-1,-2.472709E-1,2.910695E-1,6.788429E-1,6.421371E-2,-2.9581314E-1,4.2223297E-2,4.8149648E-1,-1.9397794E-1,-4.325432E-1,-3.989565E-2,-3.165948E-1,-9.068272E-2,2.3902969E-1,1.1722739E-2,5.3723466E-1,5.338966E-1,8.4304583E-1],"split_indices":[0,8,3,4,2,4,4,3,2,1,0,2,2,8,4,2,0,4,8,3,3,3,1,4,8,4,4,4,2,2,0,0,0,0,0,0,0,0,0,0,0,0,0,0,0,0,0,0,0,0,0,0,0,0,0,0,0,0,0],"split_type":[0,0,0,0,0,0,0,0,0,0,0,0,0,0,0,0,0,0,0,0,0,0,0,0,0,0,0,0,0,0,0,0,0,0,0,0,0,0,0,0,0,0,0,0,0,0,0,0,0,0,0,0,0,0,0,0,0,0,0],"sum_hessian":[1.6E3,1.305E3,2.95E2,1.088E3,2.17E2,1.39E2,1.56E2,4E1,1.048E3,1.22E2,9.5E1,2E1,1.19E2,6.2E1,9.4E1,2.2E1,1.8E1,2.32E2,8.16E2,7.4E1,4.8E1,2.7E1,6.8E1,9E0,1.1E1,7.3E1,4.6E1,2.5E1,3.7E1,6.8E1,2.6E1,1.5E1,7E0,2.01E2,3.1E1,3.69E2,4.47E2,3.9E1,3.5E1,2.8E1,2E1,1.3E1,1.4E1,3.1E1,3.7E1,5E0,4E0,5E0,6E0,7E0,6.6E1,8E0,3.8E1,2.1E1,4E0,1E1,2.7E1,1.7E1,5.1E1],"tree_param":{"num_deleted":"0","num_feature":"9","num_nodes":"59","size_leaf_vector":"1"}},{"base_weights":[4.9329035E-2,-4.5423123E-1,1.6519156E0,6.474775E-1,-1.4988971E0,-3.1785276E0,5.995919E0,4.9153066E0,-2.321177E0,-2.5184762E0,2.8213155E0,-3.2652077E-1,-2.3131588E0,3.4414787E0,7.8600607E0,8.171934E0,2.59701E0,-3.1244683E0,3.1022722E-1,-3.5042274E0,-8.8297683E-1,-9.844267E-1,3.5025685E0,-2.779643E-1,-1.0497395E-1,2.135118E0,5.2328477E0,6.4898095E0,1.0973907E1,6.364489E-1,1.1398417E0,5.0890714E-2,3.571947E-1,-4.7651908E-1,-2.534593E-1,-2.6524875E-1,2.0372824E-1,-3.803798E-1,-1.0685729E-1,-3.7451217E-1,-5.6608883E-3,-3.173966E-1,-1.8895175E-2,2.52057E-1,5.775346E-1,4.3574717E-2,3.4678692E-1,2.1036796E-1,5.788559E-1,5.5391586E-1,8.256375E-1,1.3016354E0,8.8933784E-1],"categories":[],"categories_nodes":[],"categories_segments":[],"categories_sizes":[],"default_left":[0,0,0,0,0,0,0,0,0,0,0,0,0,0,0,0,0,0,0,0,0,0,0,0,0,0,0,0,0,0,0,0,0,0,0,0,0,0,0,0,0,0,0,0,0,0,0,0,0,0,0,0,0],"id":18,"left_children":[1,3,5,7,9,11,13,15,17,19,21,-1,23,25,27,29,31,33,35,37,39,41,43,-1,-1,45,47,49,51,-1,-1,-1,-1,-1,-1,-1,-1,-1,-1,-1,-1,-1,-1,-1,-1,-1,-1,-1,-1,-1,-1,-1,-1],"loss_changes":[1.2927557E3,1.4039388E3,8.055725E3,7.5372163E3,2.764509E3,6.098755E0,9.3484033E2,1.8209355E3,7.429076E2,8.1428906E2,3.1456885E2,0E0,8.869392E0,1.9242249E2,4.237251E2,5.1645557E2,2.913329E2,2.4826587E2,4.300959E2,2.2650464E2,4.5390344E2,3.249302E1,2.130929E2,0E0,0E0,1.162605E2,5.0423645E1,9.3656006E1,2.8719238E1,0E0,0E0,0E0,0E0,0E0,0E0,0E0,0E0,0E0,0E0,0E0,0E0,0E0,0E0,0E0,0E0,0E0,0E0,0E0,0E0,0E0,0E0,0E0,0E0],"parents":[2147483647,0,0,1,1,2,2,3,3,4,4,5,5,6,6,7,7,8,8,9,9,10,10,12,12,13,13,14,14,15,15,16,16,17,17,18,18,19,19,20,20,21,21,22,22,25,25,26,26,27,27,28,28],"right_children":[2,4,6,8,10,12,14,16,18,20,22,-1,24,26,28,30,32,34,36,38,40,42,44,-1,-1,46,48,50,52,-1,-1,-1,-1,-1,-1,-1,-1,-1,-1,-1,-1,-1,-1,-1,-1,-1,-1,-1,-1,-1,-1,-1,-1],"split_conditions":[1.3821497E0,1E0,1E0,8.279512E-1,1.1428031E0,4.314121E-1,1.61327E0,6.1258125E-1,1.2270567E2,8.952207E-1,8.187525E1,-3.2652077E-1,7.271796E1,1.232671E0,1.4208723E2,1.3389973E2,9.821321E1,2.028474E-1,2.7926832E-1,1.8385029E0,6.1671364E-1,6.5524025E1,1.3961642E0,-2.779643E-1,-1.0497395E-1,1.4745998E0,1.5994512E-1,2.0168457E0,6.792532E1,6.364489E-1,1.1398417E0,5.0890714E-2,3.571947E-1,-4.7651908E-1,-2.534593E-1,-2.6524875E-1,2.0372824E-1,-3.803798E-1,-1.0685729E-1,-3.7451217E-1,-5.6608883E-3,-3.173966E-1,-1.8895175E-2,2.52057E-1,5.775346E-1,4.3574717E-2,3.4678692E-1,2.1036796E-1,5.788559E-1,5.5391586E-1,8.256375E-1,1.3016354E0,8.8933784E-1],"split_indices":[4,3,3,4,4,8,4,4,1,4,0,0,1,2,0,1,1,8,8,2,2,0,2,0,0,4,8,4,1,0,0,0,0,0,0,0,0,0,0,0,0,0,0,0,0,0,0,0,0,0,0,0,0],"split_type":[0,0,0,0,0,0,0,0,0,0,0,0,0,0,0,0,0,0,0,0,0,0,0,0,0,0,0,0,0,0,0,0,0,0,0,0,0,0,0,0,0,0,0,0,0,0,0,0,0,0,0,0,0],"sum_hessian":[1.6E3,1.218E3,3.82E2,5.93E2,6.25E2,1.81E2,2.01E2,2.43E2,3.5E2,5.06E2,1.19E2,1.62E2,1.9E1,8.6E1,1.15E2,1E2,1.43E2,2.68E2,8.2E1,3.15E2,1.91E2,1.8E1,1.01E2,1.3E1,6E0,5.1E1,3.5E1,8.2E1,3.3E1,6.6E1,3.4E1,4.6E1,9.7E1,6.9E1,1.99E2,3E1,5.2E1,2.8E2,3.5E1,4.2E1,1.49E2,4E0,1.4E1,7.2E1,2.9E1,2.3E1,2.8E1,6E0,2.9E1,5.6E1,2.6E1,1.4E1,1.9E1],"tree_param":{"num_deleted":"0","num_feature":"9","num_nodes":"53","size_leaf_vector":"1"}},{"base_weights":[4.7556356E-2,-4.4719973E-1,1.3831737E0,8.097245E-1,-1.6405324E0,-3.0842755E0,5.4134865E0,4.432729E0,-1.8961555E0,-3.0448153E0,2.3276034E-1,-4.560338E0,-2.864573E0,3.2286973E0,7.125573E0,8.114526E0,2.7188532E0,-2.3117225E0,2.4538677E0,-3.6510952E0,-1.9716896E0,-4.39387E0,7.260637E-1,-4.7758446E0,3.0590678E-2,-3.0942184E-1,-2.566105E0,1.4167907E0,4.2823796E0,6.5324945E0,1.226487E0,6.881976E-1,1.2750267E0,1.6170001E-1,4.8936844E-1,-4.496467E-1,-1.7094539E-1,-1.7287466E-1,3.863279E-1,-3.700713E-1,-7.972359E-2,-3.1432E-1,2.0687804E-2,-4.6194553E-1,-1.1997572E-1,-2.0440726E-2,2.9089445E-1,-4.9435353E-1,-4.594798E-2,-2.7051118E-1,-1.3850476E-1,-1.431255E-1,1.7831747E-1,2.932111E-1,4.8736244E-1,5.068254E-1,7.389151E-1],"categories":[],"categories_nodes":[],"categories_segments":[],"categories_sizes":[],"default_left":[0,0,0,0,0,0,0,0,0,0,0,0,0,0,0,0,0,0,0,0,0,0,0,0,0,0,0,0,0,0,0,0,0,0,0,0,0,0,0,0,0,0,0,0,0,0,0,0,0,0,0,0,0,0,0,0,0],"id":19,"left_children":[1,3,5,7,9,11,13,15,17,19,21,23,25,27,29,31,33,35,37,39,41,43,45,47,-1,-1,49,51,53,55,-1,-1,-1,-1,-1,-1,-1,-1,-1,-1,-1,-1,-1,-1,-1,-1,-1,-1,-1,-1,-1,-1,-1,-1,-1,-1,-1],"loss_changes":[1.058567E3,1.754745E3,7.812956E3,5.5963516E3,1.5790886E3,5.3741333E1,8.298384E2,1.5176123E3,5.967991E2,2.1596167E2,5.92032E2,2.7678589E1,4.534424E0,1.8866846E2,3.0697705E2,3.5221436E2,3.9467285E2,3.8573865E2,1.776343E2,2.791919E1,3.2222925E2,1.24713745E1,4.758737E2,1.5100098E1,0E0,0E0,1.0208252E1,4.3247833E1,3.6803833E1,1.0805469E2,0E0,0E0,0E0,0E0,0E0,0E0,0E0,0E0,0E0,0E0,0E0,0E0,0E0,0E0,0E0,0E0,0E0,0E0,0E0,0E0,0E0,0E0,0E0,0E0,0E0,0E0,0E0],"parents":[2147483647,0,0,1,1,2,2,3,3,4,4,5,5,6,6,7,7,8,8,9,9,10,10,11,11,12,12,13,13,14,14,15,15,16,16,17,17,18,18,19,19,20,20,21,21,22,22,23,23,26,26,27,27,28,28,29,29],"right_children":[2,4,6,8,10,12,14,16,18,20,22,24,26,28,30,32,34,36,38,40,42,44,46,48,-1,-1,50,52,54,56,-1,-1,-1,-1,-1,-1,-1,-1,-1,-1,-1,-1,-1,-1,-1,-1,-1,-1,-1,-1,-1,-1,-1,-1,-1,-1,-1],"split_conditions":[1.3221278E0,1E0,1E0,8.279512E-1,9.245324E-1,1.3821497E0,1.2159722E2,5.804444E-1,1.3583417E2,3.4709078E-1,2.9885483E-1,4.693198E-1,1.1713965E0,9.951769E1,2.448325E0,1.4094547E2,1.2689228E2,1.880517E-1,6.4062864E-1,1.2636058E2,1.3829386E0,1.3098744E2,3.7588063E-1,1.0983575E2,3.0590678E-2,-3.0942184E-1,4.314121E-1,7.418523E1,7.5922203E-1,1.5686548E0,1.226487E0,6.881976E-1,1.2750267E0,1.6170001E-1,4.8936844E-1,-4.496467E-1,-1.7094539E-1,-1.7287466E-1,3.863279E-1,-3.700713E-1,-7.972359E-2,-3.1432E-1,2.0687804E-2,-4.6194553E-1,-1.1997572E-1,-2.0440726E-2,2.9089445E-1,-4.9435353E-1,-4.594798E-2,-2.7051118E-1,-1.3850476E-1,-1.431255E-1,1.7831747E-1,2.932111E-1,4.8736244E-1,5.068254E-1,7.389151E-1],"split_indices":[4,3,3,4,4,4,0,4,1,8,2,8,2,0,4,1,1,8,2,0,2,0,8,1,0,0,8,0,2,4,0,0,0,0,0,0,0,0,0,0,0,0,0,0,0,0,0,0,0,0,0,0,0,0,0,0,0],"split_type":[0,0,0,0,0,0,0,0,0,0,0,0,0,0,0,0,0,0,0,0,0,0,0,0,0,0,0,0,0,0,0,0,0,0,0,0,0,0,0,0,0,0,0,0,0,0,0,0,0,0,0,0,0,0,0,0,0],"sum_hessian":[1.6E3,1.168E3,4.32E2,5.69E2,5.99E2,2.05E2,2.27E2,2.43E2,3.26E2,3.42E2,2.57E2,2.4E1,1.81E2,1.01E2,1.26E2,7.6E1,1.67E2,2.98E2,2.8E1,2.17E2,1.25E2,2.4E1,2.33E2,2.3E1,1E0,9.7E1,8.4E1,3.8E1,6.3E1,1.15E2,1.1E1,6.2E1,1.4E1,1.12E2,5.5E1,6.3E1,2.35E2,7E0,2.1E1,2.13E2,4E0,8.1E1,4.4E1,2.2E1,2E0,1.64E2,6.9E1,2.2E1,1E0,7.4E1,1E1,4E0,3.4E1,2.1E1,4.2E1,4.5E1,7E1],"tree_param":{"num_deleted":"0","num_feature":"9","num_nodes":"57","size_leaf_vector":"1"}},{"base_weights":[4.4807162E-2,-9.1828626E-1,6.624831E-1,3.0394564E0,-1.1720655E0,-2.3670101E-1,2.091788E0,9.311385E0,-3.070849E-1,-1.8202819E0,3.7183088E-1,-8.0039835E-1,1.955852E0,7.609353E-1,3.468884E0,2.8928098E-1,9.896347E-1,-8.036342E-1,-2.9521298E0,-3.2132616E0,3.6411345E0,4.8196273E0,-9.430962E-1,-2.643511E-1,5.9680824E0,2.5760832E0,-8.8371694E-1,1.0310307E0,5.7182374E0,3.0723166E-1,-2.7493262E-1,-3.512586E-1,-1.654192E-1,-5.250909E-1,-2.8007242E-1,2.6075312E-1,6.8113476E-1,9.0069497E-1,-2.844014E-1,-1.9989905E-1,-4.7089916E-2,4.4023973E-1,8.2075065E-1,-1.6742514E-1,5.3383386E-1,-2.743486E-1,4.6384595E-2,4.915493E-1,-1.5302728E-1,3.4047914E-1,6.9898087E-1],"categories":[],"categories_nodes":[],"categories_segments":[],"categories_sizes":[],"default_left":[0,0,0,0,0,0,0,0,0,0,0,0,0,0,0,0,0,0,0,0,0,0,0,0,0,0,0,0,0,0,0,0,0,0,0,0,0,0,0,0,0,0,0,0,0,0,0,0,0,0,0],"id":20,"left_children":[1,3,5,7,9,11,13,15,-1,17,19,21,23,25,27,-1,-1,29,31,33,35,37,39,-1,41,43,45,47,49,-1,-1,-1,-1,-1,-1,-1,-1,-1,-1,-1,-1,-1,-1,-1,-1,-1,-1,-1,-1,-1,-1],"loss_changes":[9.530107E2,6.323122E2,1.2548584E3,1.484883E3,5.901356E2,7.4312726E2,6.8829297E2,4.270935E1,0E0,4.7516406E2,2.0628323E3,3.8788495E2,2.285582E3,5.784369E2,1.0085691E3,0E0,0E0,1.6675563E3,1.3676721E2,5.590442E1,2.8369946E2,4.106975E2,2.3190033E2,0E0,1.9527881E2,1.0890646E3,2.569004E2,9.029579E2,2.5860547E2,0E0,0E0,0E0,0E0,0E0,0E0,0E0,0E0,0E0,0E0,0E0,0E0,0E0,0E0,0E0,0E0,0E0,0E0,0E0,0E0,0E0,0E0],"parents":[2147483647,0,0,1,1,2,2,3,3,4,4,5,5,6,6,7,7,9,9,10,10,11,11,12,12,13,13,14,14,17,17,18,18,19,19,20,20,21,21,22,22,24,24,25,25,26,26,27,27,28,28],"right_children":[2,4,6,8,10,12,14,16,-1,18,20,22,24,26,28,-1,-1,30,32,34,36,38,40,-1,42,44,46,48,50,-1,-1,-1,-1,-1,-1,-1,-1,-1,-1,-1,-1,-1,-1,-1,-1,-1,-1,-1,-1,-1,-1],"split_conditions":[8.272898E-1,5.0046974E-1,3.3643815E-1,1E0,1.2709786E0,1.4927027E0,9.835457E1,1.0948474E2,-3.070849E-1,1E0,1E0,4.0590197E-1,1E0,1E0,1E0,2.8928098E-1,9.896347E-1,7.93811E-1,1.0208694E0,1.3695706E0,1.3902638E2,1E0,1.8395713E-1,-2.643511E-1,1.3584128E2,8.512194E1,6.812331E1,1.1047678E0,1.1047678E0,3.0723166E-1,-2.7493262E-1,-3.512586E-1,-1.654192E-1,-5.250909E-1,-2.8007242E-1,2.6075312E-1,6.8113476E-1,9.0069497E-1,-2.844014E-1,-1.9989905E-1,-4.7089916E-2,4.4023973E-1,8.2075065E-1,-1.6742514E-1,5.3383386E-1,-2.743486E-1,4.6384595E-2,4.915493E-1,-1.5302728E-1,3.4047914E-1,6.9898087E-1],"split_indices":[2,4,8,3,4,4,0,1,0,3,3,4,3,3,3,0,0,4,4,4,0,3,8,0,0,1,0,4,4,0,0,0,0,0,0,0,0,0,0,0,0,0,0,0,0,0,0,0,0,0,0],"split_type":[0,0,0,0,0,0,0,0,0,0,0,0,0,0,0,0,0,0,0,0,0,0,0,0,0,0,0,0,0,0,0,0,0,0,0,0,0,0,0,0,0,0,0,0,0,0,0,0,0,0,0],"sum_hessian":[1.6E3,6.25E2,9.75E2,3.7E1,5.88E2,5.99E2,3.76E2,1.8E1,1.9E1,4.14E2,1.74E2,4.77E2,1.22E2,1.92E2,1.84E2,2E0,1.6E1,2.19E2,1.95E2,8.3E1,9.1E1,1.1E1,4.66E2,5.7E1,6.5E1,9.1E1,1.01E2,8.9E1,9.5E1,7.3E1,1.46E2,1.35E2,6E1,1.2E1,7.1E1,7E1,2.1E1,7E0,4E0,1.43E2,3.23E2,4E1,2.5E1,3.6E1,5.5E1,4.2E1,5.9E1,3.5E1,5.4E1,3.5E1,6E1],"tree_param":{"num_deleted":"0","num_feature":"9","num_nodes":"51","size_leaf_vector":"1"}},{"base_weights":[4.2516686E-2,-1.6963334E-1,2.3663504E0,-1.1137115E0,4.2230225E-1,-2.5635705E0,6.0490656E0,5.1437197E0,-1.2355065E0,-1.0435412E0,1.0862018E0,-4.482419E0,-2.2559645E0,8.190405E0,3.9690993E0,7.9626477E-1,-1.7800663E-1,-1.6765652E0,6.2203795E-2,4.79304E0,-1.2981368E0,-4.8620886E-1,1.6980002E0,-1.9400856E-1,-5.1113355E-1,-2.6216471E0,-1.0761368E0,6.725164E-1,1.0378145E0,1.3879491E0,4.869256E0,-6.5314785E-2,-2.5547847E-1,-2.5191033E-1,2.4682577E-1,9.886023E-1,-1.9476128E-1,-2.9957239E-2,-1.745088E-1,1.3999054E-1,-2.4543957E-1,1.0559877E-1,2.9537734E-1,-2.1457033E-1,-3.513712E-1,-1.6456959E-1,7.5918436E-2,2.698643E-1,-1.9080992E-1,-1.0094942E-1,5.32522E-1],"categories":[],"categories_nodes":[],"categories_segments":[],"categories_sizes":[],"default_left":[0,0,0,0,0,0,0,0,0,0,0,0,0,0,0,0,0,0,0,0,0,0,0,0,0,0,0,0,0,0,0,0,0,0,0,0,0,0,0,0,0,0,0,0,0,0,0,0,0,0,0],"id":21,"left_children":[1,3,5,7,9,11,13,15,17,19,21,23,25,27,29,-1,-1,31,33,35,37,39,41,-1,-1,43,45,-1,-1,47,49,-1,-1,-1,-1,-1,-1,-1,-1,-1,-1,-1,-1,-1,-1,-1,-1,-1,-1,-1,-1],"loss_changes":[7.896966E2,8.208378E2,2.4483438E3,4.3771716E2,8.7990857E2,2.4122284E1,3.1044263E2,2.2886826E2,3.1834003E2,4.252651E2,5.9918854E2,1.2759857E0,1.961377E1,4.881128E1,8.850275E1,0E0,0E0,3.7132727E2,8.8814624E2,4.3121445E2,1.20427124E2,6.530753E2,3.5806836E2,0E0,0E0,9.018921E0,1.5883917E1,0E0,0E0,5.6990593E1,8.579071E1,0E0,0E0,0E0,0E0,0E0,0E0,0E0,0E0,0E0,0E0,0E0,0E0,0E0,0E0,0E0,0E0,0E0,0E0,0E0,0E0],"parents":[2147483647,0,0,1,1,2,2,3,3,4,4,5,5,6,6,7,7,8,8,9,9,10,10,11,11,12,12,13,13,14,14,17,17,18,18,19,19,20,20,21,21,22,22,25,25,26,26,29,29,30,30],"right_children":[2,4,6,8,10,12,14,16,18,20,22,24,26,28,30,-1,-1,32,34,36,38,40,42,-1,-1,44,46,-1,-1,48,50,-1,-1,-1,-1,-1,-1,-1,-1,-1,-1,-1,-1,-1,-1,-1,-1,-1,-1,-1,-1],"split_conditions":[1.4154883E2,2.5711426E-1,1E0,4.0590197E-1,7.229014E-1,2.5503758E-1,9.096289E1,1E0,1.3221278E0,4.4425237E-1,7.579028E1,9.540016E1,3.710445E-1,2.2076602E0,1.8395713E-1,7.9626477E-1,-1.7800663E-1,1E0,1E0,1E0,8.2301736E-1,1E0,4.080356E-1,-1.9400856E-1,-5.1113355E-1,1.0166984E2,1.12732895E2,6.725164E-1,1.0378145E0,1.406087E2,2.2402585E-1,-6.5314785E-2,-2.5547847E-1,-2.5191033E-1,2.4682577E-1,9.886023E-1,-1.9476128E-1,-2.9957239E-2,-1.745088E-1,1.3999054E-1,-2.4543957E-1,1.0559877E-1,2.9537734E-1,-2.1457033E-1,-3.513712E-1,-1.6456959E-1,7.5918436E-2,2.698643E-1,-1.9080992E-1,-1.0094942E-1,5.32522E-1],"split_indices":[0,8,3,4,2,2,1,3,4,4,0,1,8,4,8,0,0,3,3,3,4,3,8,0,0,1,1,0,0,1,2,0,0,0,0,0,0,0,0,0,0,0,0,0,0,0,0,0,0,0,0],"split_type":[0,0,0,0,0,0,0,0,0,0,0,0,0,0,0,0,0,0,0,0,0,0,0,0,0,0,0,0,0,0,0,0,0,0,0,0,0,0,0,0,0,0,0,0,0,0,0,0,0,0,0],"sum_hessian":[1.6E3,1.467E3,1.33E2,5.65E2,9.02E2,5.7E1,7.6E1,1E1,5.55E2,2.81E2,6.21E2,6E0,5.1E1,3.6E1,4E1,7E0,3E0,4.14E2,1.41E2,1.1E1,2.7E2,1.74E2,4.47E2,2E0,4E0,3.8E1,1.3E1,2.4E1,1.2E1,1.1E1,2.9E1,1.92E2,2.22E2,6.8E1,7.3E1,6E0,5E0,8.4E1,1.86E2,8.9E1,8.5E1,2.97E2,1.5E2,2.7E1,1.1E1,1E1,3E0,8E0,3E0,2E0,2.7E1],"tree_param":{"num_deleted":"0","num_feature":"9","num_nodes":"51","size_leaf_vector":"1"}},{"base_weights":[3.953834E-2,-4.9390367E-1,8.8437784E-1,-8.9020646E-1,1.1736007E0,1.462977E-1,2.6325119E0,-1.8023123E0,-1.8535386E-1,-2.3645353E-1,4.483141E0,-2.6672375E-1,2.7458944E0,1.2746866E0,3.7603383E0,-2.2006574E0,-5.5326813E-1,1.6564591E0,-1.810614E0,2.383053E0,5.717898E0,-9.3536097E-1,2.6124388E-1,-1.969649E0,5.335537E0,-6.784926E-1,3.5958335E0,5.40088E0,2.1421292E0,-9.0604566E-2,-2.6232144E-1,-3.2325324E-1,1.12539195E-1,5.252368E-1,-1.1142083E-1,-2.730569E-1,1.1746903E-1,8.123471E-2,2.8425017E-1,4.7669587E-1,8.0944806E-1,4.7720477E-1,-1.1409726E-1,-7.645703E-2,9.5383264E-2,-2.4193783E-1,6.5897755E-2,2.8135645E-1,6.3522077E-1,-1.6841832E-1,1.0353523E-1,5.1059496E-2,6.21601E-1,3.028365E-1,7.221878E-1,-1.2023598E-1,5.5328625E-1],"categories":[],"categories_nodes":[],"categories_segments":[],"categories_sizes":[],"default_left":[0,0,0,0,0,0,0,0,0,0,0,0,0,0,0,0,0,0,0,0,0,0,0,0,0,0,0,0,0,0,0,0,0,0,0,0,0,0,0,0,0,0,0,0,0,0,0,0,0,0,0,0,0,0,0,0,0],"id":22,"left_children":[1,3,5,7,9,11,13,15,17,-1,19,21,23,25,27,29,31,33,35,37,39,41,43,45,47,49,51,53,55,-1,-1,-1,-1,-1,-1,-1,-1,-1,-1,-1,-1,-1,-1,-1,-1,-1,-1,-1,-1,-1,-1,-1,-1,-1,-1,-1,-1],"loss_changes":[7.2196405E2,6.499864E2,7.99578E2,5.1012866E2,2.2237153E3,4.6993457E2,2.769828E2,1.7093494E2,1.347047E3,0E0,2.4049756E2,1.3368547E2,7.432034E2,3.8779712E2,2.5390454E2,1.409497E2,3.8593164E2,2.10806E3,6.5958405E2,2.5113937E1,9.927307E1,2.0142091E2,1.5134834E2,2.7602066E1,8.212427E1,8.275281E1,3.1209708E2,1.898263E2,5.963466E2,0E0,0E0,0E0,0E0,0E0,0E0,0E0,0E0,0E0,0E0,0E0,0E0,0E0,0E0,0E0,0E0,0E0,0E0,0E0,0E0,0E0,0E0,0E0,0E0,0E0,0E0,0E0,0E0],"parents":[2147483647,0,0,1,1,2,2,3,3,4,4,5,5,6,6,7,7,8,8,10,10,11,11,12,12,13,13,14,14,15,15,16,16,17,17,18,18,19,19,20,20,21,21,22,22,23,23,24,24,25,25,26,26,27,27,28,28],"right_children":[2,4,6,8,10,12,14,16,18,-1,20,22,24,26,28,30,32,34,36,38,40,42,44,46,48,50,52,54,56,-1,-1,-1,-1,-1,-1,-1,-1,-1,-1,-1,-1,-1,-1,-1,-1,-1,-1,-1,-1,-1,-1,-1,-1,-1,-1,-1,-1],"split_conditions":[1.2535571E0,1.4996605E0,3.7491322E-1,1.03242065E2,1E0,1.3682713E2,9.821321E1,1.2758124E0,1E0,-2.3645353E-1,1.1951446E2,2.3329669E-1,1E0,1E0,1E0,7.6544017E-1,1E0,7.864018E-1,1.0208694E0,9.289941E1,2.2076602E0,4.0590197E-1,8.706422E1,1.2330001E2,1.2104515E0,8.406042E1,7.8571205E1,1.2147533E2,9.607787E1,-9.0604566E-2,-2.6232144E-1,-3.2325324E-1,1.12539195E-1,5.252368E-1,-1.1142083E-1,-2.730569E-1,1.1746903E-1,8.123471E-2,2.8425017E-1,4.7669587E-1,8.0944806E-1,4.7720477E-1,-1.1409726E-1,-7.645703E-2,9.5383264E-2,-2.4193783E-1,6.5897755E-2,2.8135645E-1,6.3522077E-1,-1.6841832E-1,1.0353523E-1,5.1059496E-2,6.21601E-1,3.028365E-1,7.221878E-1,-1.2023598E-1,5.5328625E-1],"split_indices":[2,4,8,1,3,0,1,4,3,0,0,8,3,3,3,4,3,4,4,0,4,4,0,1,4,1,0,1,0,0,0,0,0,0,0,0,0,0,0,0,0,0,0,0,0,0,0,0,0,0,0,0,0,0,0,0,0],"split_type":[0,0,0,0,0,0,0,0,0,0,0,0,0,0,0,0,0,0,0,0,0,0,0,0,0,0,0,0,0,0,0,0,0,0,0,0,0,0,0,0,0,0,0,0,0,0,0,0,0,0,0,0,0,0,0,0,0],"sum_hessian":[1.6E3,9.81E2,6.19E2,7.93E2,1.88E2,4.36E2,1.83E2,3.45E2,4.48E2,9.1E1,9.7E1,3.77E2,5.9E1,8.4E1,9.9E1,2.61E2,8.4E1,2.1E2,2.38E2,3.7E1,6E1,1.66E2,2.11E2,2.1E1,3.8E1,4.6E1,3.8E1,4.8E1,5.1E1,6.5E1,1.96E2,3.2E1,5.2E1,9.1E1,1.19E2,1.82E2,5.6E1,9E0,2.8E1,4.5E1,1.5E1,5E0,1.61E2,8.5E1,1.26E2,1.8E1,3E0,1.2E1,2.6E1,2.9E1,1.7E1,1.8E1,2E1,2.2E1,2.6E1,2.6E1,2.5E1],"tree_param":{"num_deleted":"0","num_feature":"9","num_nodes":"57","size_leaf_vector":"1"}},{"base_weights":[3.8269293E-2,-3.708093E-1,9.503714E-1,-6.8576854E-1,1.0085552E0,1.86197E-2,2.4255478E0,-1.873134E0,-2.3946108E-1,-2.1606824E0,4.0776377E0,-2.5185728E-1,2.9307325E0,1.3232075E0,3.6344838E0,-2.233998E0,-5.1689327E-1,9.350666E-1,-1.2753209E0,-1.850624E-1,-2.3468795E0,3.4162512E0,7.30033E-1,-5.5810404E-1,1.2399627E0,-1.7770152E-1,5.121788E0,2.7396421E0,-9.1434285E-2,1.380238E0,5.6251574E0,-8.2091555E-2,-2.5080582E-1,-2.7290195E-1,1.2700374E-1,4.3665367E-1,-1.3086468E-1,-2.4461885E-1,8.959171E-2,-2.4712513E-1,-1.4778952E-1,1.8439682E-1,4.1454554E-1,3.4178752E-1,-6.963772E-2,-2.1072176E-1,4.4036576E-1,5.498467E-1,-6.408792E-2,-1.266236E-1,4.4439313E-1,-2.51185E-1,7.797774E-2,4.9118257E-1,-1.0252737E-1,3.474017E-1,6.497676E-1],"categories":[],"categories_nodes":[],"categories_segments":[],"categories_sizes":[],"default_left":[0,0,0,0,0,0,0,0,0,0,0,0,0,0,0,0,0,0,0,0,0,0,0,0,0,0,0,0,0,0,0,0,0,0,0,0,0,0,0,0,0,0,0,0,0,0,0,0,0,0,0,0,0,0,0,0,0],"id":23,"left_children":[1,3,5,7,9,11,13,15,17,19,21,23,25,27,29,31,33,35,37,-1,39,41,-1,43,45,-1,47,49,51,53,55,-1,-1,-1,-1,-1,-1,-1,-1,-1,-1,-1,-1,-1,-1,-1,-1,-1,-1,-1,-1,-1,-1,-1,-1,-1,-1],"loss_changes":[5.977198E2,4.8118628E2,6.817059E2,4.7701843E2,2.0125007E3,2.4097426E2,2.510614E2,1.1924219E2,7.9931226E2,1.5455017E0,1.9886194E2,1.2861424E2,2.7728986E2,2.0463272E2,4.0059546E2,7.307141E1,2.1297052E2,2.3770789E3,8.894306E2,0E0,2.832367E0,9.4395874E1,0E0,1.3047679E2,5.1757336E2,0E0,4.259604E1,3.5381302E2,1.11610794E2,3.7882812E2,6.7518555E1,0E0,0E0,0E0,0E0,0E0,0E0,0E0,0E0,0E0,0E0,0E0,0E0,0E0,0E0,0E0,0E0,0E0,0E0,0E0,0E0,0E0,0E0,0E0,0E0,0E0,0E0],"parents":[2147483647,0,0,1,1,2,2,3,3,4,4,5,5,6,6,7,7,8,8,9,9,10,10,11,11,12,12,13,13,14,14,15,15,16,16,17,17,18,18,20,20,21,21,23,23,24,24,26,26,27,27,28,28,29,29,30,30],"right_children":[2,4,6,8,10,12,14,16,18,20,22,24,26,28,30,32,34,36,38,-1,40,42,-1,44,46,-1,48,50,52,54,56,-1,-1,-1,-1,-1,-1,-1,-1,-1,-1,-1,-1,-1,-1,-1,-1,-1,-1,-1,-1,-1,-1,-1,-1,-1,-1],"split_conditions":[1.3961642E0,1.4996605E0,3.3181456E-1,8.865405E1,1E0,1.4208723E2,9.835457E1,9.395117E1,1E0,2.5434378E-1,2.2076602E0,1.4927027E0,1E0,1E0,1E0,7.2176194E-1,1E0,7.864018E-1,9.769903E-1,-1.850624E-1,1.4430759E2,1.106715E2,7.30033E-1,4.1605118E-1,1E0,-1.7770152E-1,1.4362807E2,8.512194E1,6.0123605E-1,1.0373617E0,1.1159854E2,-8.2091555E-2,-2.5080582E-1,-2.7290195E-1,1.2700374E-1,4.3665367E-1,-1.3086468E-1,-2.4461885E-1,8.959171E-2,-2.4712513E-1,-1.4778952E-1,1.8439682E-1,4.1454554E-1,3.4178752E-1,-6.963772E-2,-2.1072176E-1,4.4036576E-1,5.498467E-1,-6.408792E-2,-1.266236E-1,4.4439313E-1,-2.51185E-1,7.797774E-2,4.9118257E-1,-1.0252737E-1,3.474017E-1,6.497676E-1],"split_indices":[2,4,8,1,3,0,0,0,3,8,4,4,3,3,3,4,3,4,4,0,0,0,0,4,3,0,1,1,4,4,0,0,0,0,0,0,0,0,0,0,0,0,0,0,0,0,0,0,0,0,0,0,0,0,0,0,0],"split_type":[0,0,0,0,0,0,0,0,0,0,0,0,0,0,0,0,0,0,0,0,0,0,0,0,0,0,0,0,0,0,0,0,0,0,0,0,0,0,0,0,0,0,0,0,0,0,0,0,0,0,0,0,0,0,0,0,0],"sum_hessian":[1.6E3,1.105E3,4.95E2,9E2,2.05E2,3.04E2,1.91E2,2.45E2,6.55E2,1.01E2,1.04E2,2.79E2,2.5E1,1.01E2,9E1,1.93E2,5.2E1,3.07E2,3.48E2,4.2E1,5.9E1,8.8E1,1.6E1,2.32E2,4.7E1,8E0,1.7E1,5E1,5.1E1,4.3E1,4.7E1,3.2E1,1.61E2,2.3E1,2.9E1,1.21E2,1.86E2,2.26E2,1.22E2,5E1,9E0,2.9E1,5.9E1,7E0,2.25E2,2.3E1,2.4E1,1.6E1,1E0,1.5E1,3.5E1,1.3E1,3.8E1,1.7E1,2.6E1,1.5E1,3.2E1],"tree_param":{"num_deleted":"0","num_feature":"9","num_nodes":"57","size_leaf_vector":"1"}},{"base_weights":[3.616697E-2,-6.749074E-1,4.9220833E-1,-1.0839211E0,9.4069725E-1,-6.92104E-1,1.044504E0,2.622559E0,-1.2599988E0,-1.7281838E-1,3.5129867E0,5.3478556E0,-8.4877366E-1,1.2563829E-1,1.9304729E0,6.4419556E-1,-2.1296875E-1,-1.8943699E-1,-1.5250483E0,2.4653096E0,5.5907235E0,-1.11892514E-1,9.451709E-1,-1.256599E0,3.2866034E-1,1.4051344E0,-1.0430044E0,2.7472728E-1,3.3572714E0,4.0946713E-1,-2.8281465E-1,-2.1703331E-1,-1.0422134E-1,1.4206587E-1,3.5915464E-1,2.3770332E-1,5.803899E-1,-2.0224936E-2,-1.9274722E-1,-2.3642719E-1,3.2964104E-1,-2.0512135E-1,3.2889614E-1,-2.6279837E-1,-1.4830433E-2,2.7597588E-1,-1.7333631E-1,1.3256148E-1,4.5294052E-1],"categories":[],"categories_nodes":[],"categories_segments":[],"categories_sizes":[],"default_left":[0,0,0,0,0,0,0,0,0,0,0,0,0,0,0,0,0,0,0,0,0,0,0,0,0,0,0,0,0,0,0,0,0,0,0,0,0,0,0,0,0,0,0,0,0,0,0,0,0],"id":24,"left_children":[1,3,5,7,9,11,13,15,17,-1,19,21,23,25,27,-1,-1,29,31,33,35,-1,-1,37,39,41,43,45,47,-1,-1,-1,-1,-1,-1,-1,-1,-1,-1,-1,-1,-1,-1,-1,-1,-1,-1,-1,-1],"loss_changes":[5.1950336E2,4.1468326E2,6.3911523E2,3.2961865E2,8.779432E2,2.988317E2,5.419391E2,4.3118576E2,1.3534448E2,0E0,1.2770892E2,2.228855E2,1.4638992E2,4.9191544E2,7.999364E2,0E0,0E0,1.0968141E3,1.1706781E2,4.7841248E1,5.906372E-1,0E0,0E0,1.5946783E2,6.391576E2,1.0289988E3,2.4352016E2,7.932302E2,4.2740576E2,0E0,0E0,0E0,0E0,0E0,0E0,0E0,0E0,0E0,0E0,0E0,0E0,0E0,0E0,0E0,0E0,0E0,0E0,0E0,0E0],"parents":[2147483647,0,0,1,1,2,2,3,3,4,4,5,5,6,6,7,7,8,8,10,10,11,11,12,12,13,13,14,14,17,17,18,18,19,19,20,20,23,23,24,24,25,25,26,26,27,27,28,28],"right_children":[2,4,6,8,10,12,14,16,18,-1,20,22,24,26,28,-1,-1,30,32,34,36,-1,-1,38,40,42,44,46,48,-1,-1,-1,-1,-1,-1,-1,-1,-1,-1,-1,-1,-1,-1,-1,-1,-1,-1,-1,-1],"split_conditions":[2.5711426E-1,1.523904E0,7.229014E-1,4.6734557E-1,1E0,4.1605118E-1,9.835457E1,1E0,6.6573435E-1,-1.7281838E-1,1.3902638E2,5.366714E1,1.3152313E0,1E0,1E0,6.4419556E-1,-2.1296875E-1,1E0,1.6912802E-1,8.5240185E-1,1.0879461E-1,-1.11892514E-1,9.451709E-1,8.2301736E-1,1E0,8.2302734E1,6.4863235E-1,1.1047678E0,1.1047678E0,4.0946713E-1,-2.8281465E-1,-2.1703331E-1,-1.0422134E-1,1.4206587E-1,3.5915464E-1,2.3770332E-1,5.803899E-1,-2.0224936E-2,-1.9274722E-1,-2.3642719E-1,3.2964104E-1,-2.0512135E-1,3.2889614E-1,-2.6279837E-1,-1.4830433E-2,2.7597588E-1,-1.7333631E-1,1.3256148E-1,4.5294052E-1],"split_indices":[8,4,2,4,3,4,0,3,4,0,0,0,4,3,3,0,0,3,8,2,8,0,0,4,3,1,4,4,4,0,0,0,0,0,0,0,0,0,0,0,0,0,0,0,0,0,0,0,0],"split_type":[0,0,0,0,0,0,0,0,0,0,0,0,0,0,0,0,0,0,0,0,0,0,0,0,0,0,0,0,0,0,0,0,0,0,0,0,0,0,0,0,0,0,0,0,0,0,0,0,0],"sum_hessian":[1.6E3,6.25E2,9.75E2,4.99E2,1.26E2,3.1E2,6.65E2,2.2E1,4.77E2,6.2E1,6.4E1,7E0,3.03E2,3.27E2,3.38E2,1.2E1,1E1,9.5E1,3.82E2,4.4E1,2E1,3E0,4E0,2.25E2,7.8E1,1.56E2,1.71E2,1.57E2,1.81E2,3.6E1,5.9E1,1.62E2,2.2E2,2.4E1,2E1,2E0,1.8E1,8.8E1,1.37E2,4.1E1,3.7E1,5.5E1,1.01E2,6.1E1,1.1E2,7E1,8.7E1,6.7E1,1.14E2],"tree_param":{"num_deleted":"0","num_feature":"9","num_nodes":"49","size_leaf_vector":"1"}},{"base_weights":[3.41936E-2,-3.1622913E-1,8.6059064E-1,-6.341297E-1,1.0638433E0,-2.935864E-1,1.8497444E0,2.3084936E0,-7.8543156E-1,-1.6863407E0,3.7526793E0,-3.1313255E0,1.5133944E-1,7.9432017E-1,2.7124033E0,6.65499E0,-2.1383722E0,-1.9469998E0,-5.622007E-1,-1.841419E-1,-1.4098799E-1,2.7244592E0,5.279104E0,1.0829153E0,-3.4710183E0,-3.5646904E-1,1.5253713E0,-7.029473E-1,2.7457438E0,1.719295E0,4.2805724E0,7.342493E-1,4.034627E-1,-1.7363209E-1,-2.9881307E-1,-3.04003E-1,-1.20398E-1,-1.3612841E-1,-2.18418E-2,1.8618333E-1,3.7608498E-1,8.016945E-1,4.600105E-1,3.0323353E-1,-1.4079623E-1,-2.6259616E-1,-4.3789306E-1,6.819276E-1,-5.087767E-2,-5.294762E-2,3.0499086E-1,-1.7522556E-1,3.6703587E-2,-2.8785596E-2,4.01774E-1,4.2446852E-1,-1.960797E-2,3.5576025E-1,7.1058804E-1],"categories":[],"categories_nodes":[],"categories_segments":[],"categories_sizes":[],"default_left":[0,0,0,0,0,0,0,0,0,0,0,0,0,0,0,0,0,0,0,0,0,0,0,0,0,0,0,0,0,0,0,0,0,0,0,0,0,0,0,0,0,0,0,0,0,0,0,0,0,0,0,0,0,0,0,0,0,0,0],"id":25,"left_children":[1,3,5,7,9,11,13,15,17,19,21,23,25,27,29,31,33,35,37,-1,-1,39,41,43,45,47,49,51,53,55,57,-1,-1,-1,-1,-1,-1,-1,-1,-1,-1,-1,-1,-1,-1,-1,-1,-1,-1,-1,-1,-1,-1,-1,-1,-1,-1,-1,-1],"loss_changes":[4.6390305E2,4.942412E2,5.4511426E2,4.0919345E2,1.5666299E3,2.7950482E2,2.3183661E2,8.840038E2,2.2475385E2,1.9054871E0,1.5355383E2,4.670526E1,1.3451079E2,3.4378107E2,2.122284E2,1.1810425E1,2.6695251E0,1.10039856E2,2.007912E2,0E0,0E0,5.200305E1,4.1198975E1,1.8836714E1,9.983734E0,1.5757135E2,1.6451483E2,7.586687E1,1.9795163E2,4.2649432E2,8.50213E1,0E0,0E0,0E0,0E0,0E0,0E0,0E0,0E0,0E0,0E0,0E0,0E0,0E0,0E0,0E0,0E0,0E0,0E0,0E0,0E0,0E0,0E0,0E0,0E0,0E0,0E0,0E0,0E0],"parents":[2147483647,0,0,1,1,2,2,3,3,4,4,5,5,6,6,7,7,8,8,9,9,10,10,11,11,12,12,13,13,14,14,15,15,16,16,17,17,18,18,21,21,22,22,23,23,24,24,25,25,26,26,27,27,28,28,29,29,30,30],"right_children":[2,4,6,8,10,12,14,16,18,20,22,24,26,28,30,32,34,36,38,-1,-1,40,42,44,46,48,50,52,54,56,58,-1,-1,-1,-1,-1,-1,-1,-1,-1,-1,-1,-1,-1,-1,-1,-1,-1,-1,-1,-1,-1,-1,-1,-1,-1,-1,-1,-1],"split_conditions":[3.7491322E-1,1.5335319E0,9.4111806E-1,4.6734557E-1,1E0,2.2402585E-1,9.59124E1,1E0,7.6740204E1,1.351207E2,1.3465143E2,5.3919214E-1,1.22003654E2,1E0,1.06093796E2,1.577683E0,1.3876742E0,1.0978166E0,1.8395713E-1,-1.841419E-1,-1.4098799E-1,1.0227052E0,5.6600983E1,6.2518578E1,9.096289E1,2.4584031E-1,1E0,7.64062E1,1.0895835E0,1E0,1.8955457E0,7.342493E-1,4.034627E-1,-1.7363209E-1,-2.9881307E-1,-3.04003E-1,-1.20398E-1,-1.3612841E-1,-2.18418E-2,1.8618333E-1,3.7608498E-1,8.016945E-1,4.600105E-1,3.0323353E-1,-1.4079623E-1,-2.6259616E-1,-4.3789306E-1,6.819276E-1,-5.087767E-2,-5.294762E-2,3.0499086E-1,-1.7522556E-1,3.6703587E-2,-2.8785596E-2,4.01774E-1,4.2446852E-1,-1.960797E-2,3.5576025E-1,7.1058804E-1],"split_indices":[8,4,2,4,3,2,1,3,1,0,0,4,0,3,0,2,2,4,8,0,0,2,1,0,1,2,3,1,4,3,2,0,0,0,0,0,0,0,0,0,0,0,0,0,0,0,0,0,0,0,0,0,0,0,0,0,0,0,0],"split_type":[0,0,0,0,0,0,0,0,0,0,0,0,0,0,0,0,0,0,0,0,0,0,0,0,0,0,0,0,0,0,0,0,0,0,0,0,0,0,0,0,0,0,0,0,0,0,0,0,0,0,0,0,0,0,0,0,0,0,0],"sum_hessian":[1.6E3,1.124E3,4.76E2,9.14E2,2.1E2,2.2E2,2.56E2,4.4E1,8.7E2,1.04E2,1.06E2,2.9E1,1.91E2,1.16E2,1.4E2,2.2E1,2.2E1,1.39E2,7.31E2,6.3E1,4.1E1,6.5E1,4.1E1,2E0,2.7E1,1.4E2,5.1E1,6.6E1,5E1,8.7E1,5.3E1,1.6E1,6E0,1.7E1,5E0,5.5E1,8.4E1,2.19E2,5.12E2,3.7E1,2.8E1,6E0,3.5E1,1E0,1E0,1.6E1,1.1E1,2E0,1.38E2,2.2E1,2.9E1,3.3E1,3.3E1,1.5E1,3.5E1,3.7E1,5E1,4.4E1,9E0],"tree_param":{"num_deleted":"0","num_feature":"9","num_nodes":"59","size_leaf_vector":"1"}},{"base_weights":[3.3043075E-2,-1.8501282E-1,1.1688341E0,-4.385995E-1,1.0713966E0,2.752229E-1,2.3312628E0,3.4289386E0,-5.301145E-1,-1.4922564E0,3.2690372E0,-2.293611E0,5.6287163E-1,-5.4036822E-2,3.0895817E0,6.7193313E0,-1.6688089E0,-7.3825437E-1,2.0964298E-1,-1.7435158E0,1.3815688E0,1.3035108E0,4.361084E0,1.8775247E0,-3.079749E0,-5.8222882E-2,1.4725882E0,6.4925754E-1,-2.256671E-1,1.8313885E0,4.1672783E0,3.538894E-1,7.484569E-1,-9.7973965E-2,-2.2997442E-1,1.3864725E-2,-1.5295324E-1,-1.9254036E-1,2.1413021E-1,-2.4248986E-1,-1.301636E-1,1.5528584E-2,1.9688293E-1,-6.3696325E-2,2.2949801E-1,3.8800564E-1,6.938247E-1,2.8807184E-1,-6.443119E-3,-3.7511837E-1,-6.312256E-2,-1.118386E-1,1.0849842E-1,3.0511355E-1,-4.805721E-2,1.2465944E-1,-8.0883496E-2,1.9671554E-2,3.3788523E-1,3.1294128E-1,5.5502206E-1],"categories":[],"categories_nodes":[],"categories_segments":[],"categories_sizes":[],"default_left":[0,0,0,0,0,0,0,0,0,0,0,0,0,0,0,0,0,0,0,0,0,0,0,0,0,0,0,0,0,0,0,0,0,0,0,0,0,0,0,0,0,0,0,0,0,0,0,0,0,0,0,0,0,0,0,0,0,0,0,0,0],"id":26,"left_children":[1,3,5,7,9,11,13,15,17,19,21,23,25,27,29,31,33,35,37,39,41,43,45,47,49,51,53,55,-1,57,59,-1,-1,-1,-1,-1,-1,-1,-1,-1,-1,-1,-1,-1,-1,-1,-1,-1,-1,-1,-1,-1,-1,-1,-1,-1,-1,-1,-1,-1,-1],"loss_changes":[3.9672937E2,4.2868E2,2.6735822E2,3.97874E2,1.2781595E3,1.0991253E2,2.0275464E2,4.4732666E2,1.6860123E2,7.822673E1,2.5618176E2,5.4968643E1,7.52334E1,4.4839962E1,1.076239E2,1.2453491E1,2.52919E0,5.927794E2,9.9805084E2,2.6049347E1,6.175598E0,8.803824E1,6.977478E1,6.03008E0,1.9004456E1,9.81723E1,1.6795673E2,2.0169682E1,0E0,1.0304883E2,4.721991E1,0E0,0E0,0E0,0E0,0E0,0E0,0E0,0E0,0E0,0E0,0E0,0E0,0E0,0E0,0E0,0E0,0E0,0E0,0E0,0E0,0E0,0E0,0E0,0E0,0E0,0E0,0E0,0E0,0E0,0E0],"parents":[2147483647,0,0,1,1,2,2,3,3,4,4,5,5,6,6,7,7,8,8,9,9,10,10,11,11,12,12,13,13,14,14,15,15,16,16,17,17,18,18,19,19,20,20,21,21,22,22,23,23,24,24,25,25,26,26,27,27,29,29,30,30],"right_children":[2,4,6,8,10,12,14,16,18,20,22,24,26,28,30,32,34,36,38,40,42,44,46,48,50,52,54,56,-1,58,60,-1,-1,-1,-1,-1,-1,-1,-1,-1,-1,-1,-1,-1,-1,-1,-1,-1,-1,-1,-1,-1,-1,-1,-1,-1,-1,-1,-1,-1,-1],"split_conditions":[4.3012336E-1,1.338898E2,1.1867921E0,4.1605118E-1,1E0,2.3432356E-1,6.3401524E1,1E0,1.3221278E0,1.3706691E2,1.2616966E0,7.7618694E-1,1.148639E2,1.2813219E2,9.935466E1,1.2925948E2,8.7837845E-1,1E0,1E0,1.3821497E0,7.5922203E-1,9.176584E-1,2.448325E0,6.2518578E1,1.2980818E0,1E0,1E0,7.3105085E-1,-2.256671E-1,1E0,1.5606196E0,3.538894E-1,7.484569E-1,-9.7973965E-2,-2.2997442E-1,1.3864725E-2,-1.5295324E-1,-1.9254036E-1,2.1413021E-1,-2.4248986E-1,-1.301636E-1,1.5528584E-2,1.9688293E-1,-6.3696325E-2,2.2949801E-1,3.8800564E-1,6.938247E-1,2.8807184E-1,-6.443119E-3,-3.7511837E-1,-6.312256E-2,-1.118386E-1,1.0849842E-1,3.0511355E-1,-4.805721E-2,1.2465944E-1,-8.0883496E-2,1.9671554E-2,3.3788523E-1,3.1294128E-1,5.5502206E-1],"split_indices":[8,0,2,4,3,2,0,3,4,1,4,4,1,1,1,1,2,3,3,4,2,2,4,0,4,3,3,4,0,3,2,0,0,0,0,0,0,0,0,0,0,0,0,0,0,0,0,0,0,0,0,0,0,0,0,0,0,0,0,0,0],"split_type":[0,0,0,0,0,0,0,0,0,0,0,0,0,0,0,0,0,0,0,0,0,0,0,0,0,0,0,0,0,0,0,0,0,0,0,0,0,0,0,0,0,0,0,0,0,0,0,0,0,0,0,0,0,0,0,0,0,0,0,0,0],"sum_hessian":[1.6E3,1.343E3,2.57E2,1.118E3,2.25E2,1.46E2,1.11E2,2.5E1,1.093E3,1.04E2,1.21E2,1.4E1,1.32E2,2.7E1,8.4E1,1.5E1,1E1,8.53E2,2.4E2,9.6E1,8E0,4.4E1,7.7E1,2E0,1.2E1,7.9E1,5.3E1,2.1E1,6E0,4E1,4.4E1,4E0,1.1E1,6E0,4E0,4.05E2,4.48E2,1.14E2,1.26E2,3.6E1,6E1,3E0,5E0,1.5E1,2.9E1,6.7E1,1E1,1E0,1E0,9E0,3E0,4.1E1,3.8E1,2.9E1,2.4E1,1.5E1,6E0,2E1,2E1,2.7E1,1.7E1],"tree_param":{"num_deleted":"0","num_feature":"9","num_nodes":"61","size_leaf_vector":"1"}},{"base_weights":[3.154074E-2,-3.480679E-1,6.32741E-1,-6.047326E-1,7.3203677E-1,1.3138652E-1,1.820019E0,-1.2113118E0,-1.0229124E-2,-1.4265827E0,2.7510262E0,-1.5339296E-1,1.9233075E0,3.3388746E-1,2.3569565E0,-2.4798412E0,-1.03183E0,1.4222679E0,-1.2753305E0,-1.1589532E-1,-1.5934525E0,2.1644173E0,5.2379313E0,-1.6988016E0,-2.4906548E-2,-1.2842541E0,3.6833856E0,2.0431945E0,-1.1978629E0,1.3175608E0,3.2481284E0,-3.22556E-1,-1.6647576E-1,-1.2712474E-1,-2.5787786E-2,4.153746E-1,-6.648015E-2,-1.7529495E-1,1.7124973E-1,-1.715838E-1,-1.0221163E-1,1.0005635E-1,2.7278152E-1,6.314175E-1,3.1033546E-1,-2.2096038E-1,1.1949702E-1,-3.1573355E-2,5.9591986E-2,-1.6851716E-1,4.1590016E-2,1.2503074E-1,4.0878755E-1,5.5304664E-1,5.7352245E-2,-2.285348E-1,-4.2373348E-2,-4.110427E-2,3.7016115E-1,2.638058E-1,5.58713E-1],"categories":[],"categories_nodes":[],"categories_segments":[],"categories_sizes":[],"default_left":[0,0,0,0,0,0,0,0,0,0,0,0,0,0,0,0,0,0,0,0,0,0,0,0,0,0,0,0,0,0,0,0,0,0,0,0,0,0,0,0,0,0,0,0,0,0,0,0,0,0,0,0,0,0,0,0,0,0,0,0,0],"id":27,"left_children":[1,3,5,7,9,11,13,15,17,19,21,23,25,27,29,31,33,35,37,-1,39,41,43,45,47,49,51,53,55,57,59,-1,-1,-1,-1,-1,-1,-1,-1,-1,-1,-1,-1,-1,-1,-1,-1,-1,-1,-1,-1,-1,-1,-1,-1,-1,-1,-1,-1,-1,-1],"loss_changes":[3.6560175E2,2.726773E2,3.688141E2,2.8631464E2,8.2762994E2,2.2329715E2,1.4603766E2,8.69187E1,7.3033997E2,2.2619324E0,1.3162933E2,7.5014885E1,3.4346393E2,1.3335905E2,1.2076825E2,2.3805756E1,6.3785156E1,1.0802097E3,3.0838916E2,0E0,2.0220642E0,5.038336E1,2.1756714E1,4.5506622E1,6.3381733E1,1.5696541E1,3.3270996E1,1.1983164E2,2.1761684E1,2.652705E2,8.800165E1,0E0,0E0,0E0,0E0,0E0,0E0,0E0,0E0,0E0,0E0,0E0,0E0,0E0,0E0,0E0,0E0,0E0,0E0,0E0,0E0,0E0,0E0,0E0,0E0,0E0,0E0,0E0,0E0,0E0,0E0],"parents":[2147483647,0,0,1,1,2,2,3,3,4,4,5,5,6,6,7,7,8,8,9,9,10,10,11,11,12,12,13,13,14,14,15,15,16,16,17,17,18,18,20,20,21,21,22,22,23,23,24,24,25,25,26,26,27,27,28,28,29,29,30,30],"right_children":[2,4,6,8,10,12,14,16,18,20,22,24,26,28,30,32,34,36,38,-1,40,42,44,46,48,50,52,54,56,58,60,-1,-1,-1,-1,-1,-1,-1,-1,-1,-1,-1,-1,-1,-1,-1,-1,-1,-1,-1,-1,-1,-1,-1,-1,-1,-1,-1,-1,-1,-1],"split_conditions":[1.2535571E0,1.4996605E0,3.7491322E-1,1.0832524E2,1E0,1.3682713E2,7.346421E1,6.31715E1,1E0,2.5434378E-1,1.4402303E2,1.21559314E-1,1E0,1E0,9.821321E1,1E0,1.2550714E0,7.864018E-1,1.3718436E2,-1.1589532E-1,1.4321182E2,1.106715E2,7.64062E1,1.4025285E0,1.1595108E2,1.1085273E2,1.0532548E0,4.8249343E-1,5.0046974E-1,1E0,1.8955457E0,-3.22556E-1,-1.6647576E-1,-1.2712474E-1,-2.5787786E-2,4.153746E-1,-6.648015E-2,-1.7529495E-1,1.7124973E-1,-1.715838E-1,-1.0221163E-1,1.0005635E-1,2.7278152E-1,6.314175E-1,3.1033546E-1,-2.2096038E-1,1.1949702E-1,-3.1573355E-2,5.9591986E-2,-1.6851716E-1,4.1590016E-2,1.2503074E-1,4.0878755E-1,5.5304664E-1,5.7352245E-2,-2.285348E-1,-4.2373348E-2,-4.110427E-2,3.7016115E-1,2.638058E-1,5.58713E-1],"split_indices":[2,4,8,1,3,0,0,1,3,8,0,8,3,3,1,3,4,4,0,0,0,0,1,4,1,1,4,4,4,3,2,0,0,0,0,0,0,0,0,0,0,0,0,0,0,0,0,0,0,0,0,0,0,0,0,0,0,0,0,0,0],"split_type":[0,0,0,0,0,0,0,0,0,0,0,0,0,0,0,0,0,0,0,0,0,0,0,0,0,0,0,0,0,0,0,0,0,0,0,0,0,0,0,0,0,0,0,0,0,0,0,0,0,0,0,0,0,0,0,0,0,0,0,0,0],"sum_hessian":[1.6E3,9.81E2,6.19E2,7.93E2,1.88E2,4.36E2,1.83E2,3.92E2,4.01E2,9.1E1,9.7E1,3.77E2,5.9E1,4.9E1,1.34E2,4.7E1,3.45E2,1.88E2,2.13E2,3.8E1,5.3E1,8E1,1.7E1,2.8E1,3.49E2,2.1E1,3.8E1,2.3E1,2.6E1,6.3E1,7.1E1,2.3E1,2.4E1,2.63E2,8.2E1,8.1E1,1.07E2,1.84E2,2.9E1,4.2E1,1.1E1,2.7E1,5.3E1,1E1,7E0,2.4E1,4E0,2.38E2,1.11E2,1.7E1,4E0,6E0,3.2E1,6E0,1.7E1,1E1,1.6E1,3.7E1,2.6E1,5.8E1,1.3E1],"tree_param":{"num_deleted":"0","num_feature":"9","num_nodes":"61","size_leaf_vector":"1"}},{"base_weights":[2.9918412E-2,-9.071649E-1,2.4140246E-1,4.5694456E0,-1.056143E0,-1.1246435E-1,1.0498884E0,6.320975E0,-4.567614E-2,-1.4125206E0,3.2163376E-1,-3.3292687E-1,1.1338893E0,-2.9408637E-1,1.478086E0,6.859431E-1,1.8143463E-1,-2.66815E-1,-2.0869522E0,-1.16329014E-1,1.9490796E0,1.851397E0,-4.2962468E-1,-1.3014699E0,3.2868273E0,9.695268E-1,-1.4528263E0,1.2581526E0,4.687717E0,2.9312608E-1,-2.1226625E-1,-3.1342742E-1,-1.4965229E-1,1.02601066E-1,3.0062407E-1,4.9470803E-1,-1.746959E-1,-8.6273305E-2,-6.906522E-3,-1.111175E-1,-1.4743362E-1,2.6608834E-1,5.0516075E-1,4.30991E-1,-4.9763448E-3,-1.6946943E-1,6.436327E-2,2.7872756E-2,2.2494934E-1,5.5778414E-1,1.07980184E-1],"categories":[],"categories_nodes":[],"categories_segments":[],"categories_sizes":[],"default_left":[0,0,0,0,0,0,0,0,0,0,0,0,0,0,0,0,0,0,0,0,0,0,0,0,0,0,0,0,0,0,0,0,0,0,0,0,0,0,0,0,0,0,0,0,0,0,0,0,0,0,0],"id":28,"left_children":[1,3,5,7,9,11,13,15,-1,17,19,21,23,25,27,-1,-1,29,31,-1,33,35,37,39,41,43,45,47,49,-1,-1,-1,-1,-1,-1,-1,-1,-1,-1,-1,-1,-1,-1,-1,-1,-1,-1,-1,-1,-1,-1],"loss_changes":[3.1750223E2,2.4551523E2,3.74046E2,7.331557E1,1.4186484E2,2.5042212E2,2.294784E2,2.1143646E0,0E0,1.7639151E2,1.4726534E2,1.6427914E2,7.22593E2,1.4343585E2,2.072854E2,0E0,0E0,5.1664417E2,8.4354675E1,0E0,2.5214706E1,3.7624152E2,1.1581209E2,4.999771E-1,6.719794E1,1.6024101E2,2.6951149E1,2.7512103E2,5.499539E1,0E0,0E0,0E0,0E0,0E0,0E0,0E0,0E0,0E0,0E0,0E0,0E0,0E0,0E0,0E0,0E0,0E0,0E0,0E0,0E0,0E0,0E0],"parents":[2147483647,0,0,1,1,2,2,3,3,4,4,5,5,6,6,7,7,9,9,10,10,11,11,12,12,13,13,14,14,17,17,18,18,20,20,21,21,22,22,23,23,24,24,25,25,26,26,27,27,28,28],"right_children":[2,4,6,8,10,12,14,16,-1,18,20,22,24,26,28,-1,-1,30,32,-1,34,36,38,40,42,44,46,48,50,-1,-1,-1,-1,-1,-1,-1,-1,-1,-1,-1,-1,-1,-1,-1,-1,-1,-1,-1,-1,-1,-1],"split_conditions":[4.5017266E-1,4.4425237E-1,3.7491322E-1,1E0,1.4561802E0,1.61327E0,7.346421E1,5.8483772E1,-4.567614E-2,7.864018E-1,1E0,4.5937166E-1,1E0,1E0,1.4317537E2,6.859431E-1,1.8143463E-1,1E0,2.2402585E-1,-1.16329014E-1,1.8693261E0,1E0,2.3329669E-1,2.4549021E-1,2.135035E0,5.2137667E-1,1.0114057E0,1E0,1E0,2.9312608E-1,-2.1226625E-1,-3.1342742E-1,-1.4965229E-1,1.02601066E-1,3.0062407E-1,4.9470803E-1,-1.746959E-1,-8.6273305E-2,-6.906522E-3,-1.111175E-1,-1.4743362E-1,2.6608834E-1,5.0516075E-1,4.30991E-1,-4.9763448E-3,-1.6946943E-1,6.436327E-2,2.7872756E-2,2.2494934E-1,5.5778414E-1,1.07980184E-1],"split_indices":[2,4,8,3,4,4,0,0,0,4,3,4,3,3,1,0,0,3,2,0,4,3,8,8,4,4,4,3,3,0,0,0,0,0,0,0,0,0,0,0,0,0,0,0,0,0,0,0,0,0,0],"split_type":[0,0,0,0,0,0,0,0,0,0,0,0,0,0,0,0,0,0,0,0,0,0,0,0,0,0,0,0,0,0,0,0,0,0,0,0,0,0,0,0,0,0,0,0,0,0,0,0,0,0,0],"sum_hessian":[1.6E3,2.94E2,1.306E3,7E0,2.87E2,9.09E2,3.97E2,5E0,2E0,2.28E2,5.9E1,7.73E2,1.36E2,9.6E1,3.01E2,4E0,1E0,8.5E1,1.43E2,3.1E1,2.8E1,3.2E1,7.41E2,6.4E1,7.2E1,4.6E1,5E1,2.83E2,1.8E1,3.1E1,5.4E1,5E1,9.3E1,1.6E1,1.2E1,1.7E1,1.5E1,3.36E2,4.05E2,3.4E1,3E1,5.5E1,1.7E1,1E1,3.6E1,4.5E1,5E0,1.43E2,1.4E2,1.4E1,4E0],"tree_param":{"num_deleted":"0","num_feature":"9","num_nodes":"51","size_leaf_vector":"1"}},{"base_weights":[2.8616581E-2,-2.3525476E-1,6.8765634E-1,-3.8380316E-1,9.163736E-1,-1.4008512E-2,1.5848795E0,5.909658E-1,-5.864231E-1,-1.2543617E0,3.0732245E0,-2.8186977E-1,1.4973629E0,3.0518073E-1,2.1668785E0,4.344324E0,-1.8932422E0,-8.046754E-1,6.567261E-1,-1.0411454E0,-1.7650969E0,2.7421088E0,6.564415E-1,2.7560768E0,-3.799247E-1,-8.267862E-1,3.1501095E0,1.4983294E0,-1.0132785E0,1.2054203E0,3.0571923E0,3.583104E-1,7.1332693E-1,-1.4784577E-1,-2.0449738E-1,-1.0441238E-1,-7.096159E-3,-1.3041463E-1,1.1795944E-1,-1.2322672E-1,-8.537947E-2,-1.8289609E-1,-3.3970393E-2,1.1025931E-1,2.8665823E-1,3.695019E-1,-1.4387877E-1,-1.3799249E-1,7.534507E-3,-1.18455015E-1,6.3208416E-2,1.2834779E-2,3.7795147E-1,4.8251042E-1,2.8912544E-2,-1.3335781E-1,1.4821386E-1,3.2560584E-1,-9.409842E-2,1.5914464E-1,4.153359E-1],"categories":[],"categories_nodes":[],"categories_segments":[],"categories_sizes":[],"default_left":[0,0,0,0,0,0,0,0,0,0,0,0,0,0,0,0,0,0,0,0,0,0,0,0,0,0,0,0,0,0,0,0,0,0,0,0,0,0,0,0,0,0,0,0,0,0,0,0,0,0,0,0,0,0,0,0,0,0,0,0,0],"id":29,"left_children":[1,3,5,7,9,11,13,15,17,19,21,23,25,27,29,31,33,35,37,39,41,43,-1,45,47,49,51,53,55,57,59,-1,-1,-1,-1,-1,-1,-1,-1,-1,-1,-1,-1,-1,-1,-1,-1,-1,-1,-1,-1,-1,-1,-1,-1,-1,-1,-1,-1,-1,-1],"loss_changes":[2.785784E2,1.9605869E2,2.8835608E2,2.006193E2,6.171907E2,1.0487023E2,1.490401E2,1.6399464E3,2.2843732E2,5.3494873E0,5.829486E1,6.658194E1,1.5241245E2,1.0219777E2,1.1444275E2,1.23051025E2,3.6477966E0,1.2554187E2,1.3072339E2,7.0243454E-1,1.0172577E0,9.492065E0,0E0,3.288749E1,9.753169E1,9.621566E0,4.3258896E1,1.3537842E2,2.6754267E1,3.023658E2,1.07466E2,0E0,0E0,0E0,0E0,0E0,0E0,0E0,0E0,0E0,0E0,0E0,0E0,0E0,0E0,0E0,0E0,0E0,0E0,0E0,0E0,0E0,0E0,0E0,0E0,0E0,0E0,0E0,0E0,0E0,0E0],"parents":[2147483647,0,0,1,1,2,2,3,3,4,4,5,5,6,6,7,7,8,8,9,9,10,10,11,11,12,12,13,13,14,14,15,15,16,16,17,17,18,18,19,19,20,20,21,21,23,23,24,24,25,25,26,26,27,27,28,28,29,29,30,30],"right_children":[2,4,6,8,10,12,14,16,18,20,22,24,26,28,30,32,34,36,38,40,42,44,-1,46,48,50,52,54,56,58,60,-1,-1,-1,-1,-1,-1,-1,-1,-1,-1,-1,-1,-1,-1,-1,-1,-1,-1,-1,-1,-1,-1,-1,-1,-1,-1,-1,-1,-1,-1],"split_conditions":[1.4421068E0,1.7403098E0,3.125323E-1,6.2940496E-1,1E0,1.3621277E2,7.598132E1,1E0,4.3788368E-1,3.6438954E-1,2.6124616E0,4.1605118E-1,1E0,1E0,1E0,1.4094547E2,2.1761589E-1,1.2709786E0,4.364563E-1,1.2723184E2,7.709427E1,1.0270415E2,6.564415E-1,1.441692E2,8.220792E1,1.0983575E2,1.0532548E0,4.8249343E-1,9.97203E-1,1.0373617E0,1.0754742E2,3.583104E-1,7.1332693E-1,-1.4784577E-1,-2.0449738E-1,-1.0441238E-1,-7.096159E-3,-1.3041463E-1,1.1795944E-1,-1.2322672E-1,-8.537947E-2,-1.8289609E-1,-3.3970393E-2,1.1025931E-1,2.8665823E-1,3.695019E-1,-1.4387877E-1,-1.3799249E-1,7.534507E-3,-1.18455015E-1,6.3208416E-2,1.2834779E-2,3.7795147E-1,4.8251042E-1,2.8912544E-2,-1.3335781E-1,1.4821386E-1,3.2560584E-1,-9.409842E-2,1.5914464E-1,4.153359E-1],"split_indices":[2,4,8,4,3,0,0,3,8,8,4,4,3,3,3,1,8,4,2,0,1,0,0,1,0,1,4,4,4,4,0,0,0,0,0,0,0,0,0,0,0,0,0,0,0,0,0,0,0,0,0,0,0,0,0,0,0,0,0,0,0],"split_type":[0,0,0,0,0,0,0,0,0,0,0,0,0,0,0,0,0,0,0,0,0,0,0,0,0,0,0,0,0,0,0,0,0,0,0,0,0,0,0,0,0,0,0,0,0,0,0,0,0,0,0,0,0,0,0,0,0,0,0,0,0],"sum_hessian":[1.6E3,1.143E3,4.57E2,1.013E3,1.3E2,2.57E2,2E2,1.74E2,8.39E2,6.5E1,6.5E1,2.19E2,3.8E1,6.3E1,1.37E2,6.9E1,1.05E2,7.14E2,1.25E2,4.8E1,1.7E1,6.1E1,4E0,6E0,2.13E2,1.6E1,2.2E1,3.3E1,3E1,6.7E1,7E1,5.6E1,1.3E1,3.1E1,7.4E1,5.38E2,1.76E2,2.6E1,9.9E1,2.1E1,2.7E1,1.6E1,1E0,5E0,5.6E1,5E0,1E0,6.6E1,1.47E2,1.3E1,3E0,4E0,1.8E1,8E0,2.5E1,2.7E1,3E0,3.4E1,3.3E1,3.1E1,3.9E1],"tree_param":{"num_deleted":"0","num_feature":"9","num_nodes":"61","size_leaf_vector":"1"}},{"base_weights":[2.7620006E-2,-8.9212954E-1,1.8335305E-1,3.4379728E0,-1.082304E0,-1.05480604E-1,8.575549E-1,5.313082E0,-7.029615E-1,-1.422031E0,2.9310635E-1,-3.7594596E-1,5.765181E-1,2.2879148E-1,1.5262436E0,5.683771E-1,1.5444756E-1,-9.709545E-2,-2.8997904E-2,-4.5937973E-1,-2.2495382E0,-1.0179445E0,1.7100205E0,-9.261042E-1,2.2022502E-1,-1.354924E0,2.1693335E0,9.3531156E-1,-4.288694E-1,4.017365E-1,2.8564088E0,1.6537051E-1,-1.8590955E-1,-2.4380186E-1,-8.586239E-2,-1.08767115E-1,-5.354489E-2,2.6794706E-2,2.2340515E-1,-1.6478679E-1,-6.159661E-2,1.8004714E-1,-1.0676271E-1,-2.9661298E-1,-1.1395023E-1,2.3606407E-2,2.5727925E-1,-1.2918893E-1,2.4289747E-1,-8.6994894E-2,1.395041E-1,2.2931452E-1,-1.1241776E-1,1.614861E-1,3.4110865E-1],"categories":[],"categories_nodes":[],"categories_segments":[],"categories_sizes":[],"default_left":[0,0,0,0,0,0,0,0,0,0,0,0,0,0,0,0,0,0,0,0,0,0,0,0,0,0,0,0,0,0,0,0,0,0,0,0,0,0,0,0,0,0,0,0,0,0,0,0,0,0,0,0,0,0,0],"id":30,"left_children":[1,3,5,7,9,11,13,15,17,19,21,23,25,27,29,-1,-1,-1,-1,31,33,35,37,39,41,43,45,47,49,51,53,-1,-1,-1,-1,-1,-1,-1,-1,-1,-1,-1,-1,-1,-1,-1,-1,-1,-1,-1,-1,-1,-1,-1,-1],"loss_changes":[2.2948344E2,1.9476704E2,2.6687357E2,8.1381935E1,1.0461673E2,1.772955E2,1.7245453E2,1.000412E0,1.6114914E-1,1.4155817E2,8.53348E1,2.2585995E2,8.428048E2,9.9371704E1,2.965127E2,0E0,0E0,0E0,0E0,2.5152274E2,2.3074005E1,2.2503471E-1,1.6026596E1,7.912198E1,6.7554816E2,3.9659073E1,1.1639203E2,3.4578677E2,9.0511955E1,3.1716577E2,5.7159546E1,0E0,0E0,0E0,0E0,0E0,0E0,0E0,0E0,0E0,0E0,0E0,0E0,0E0,0E0,0E0,0E0,0E0,0E0,0E0,0E0,0E0,0E0,0E0,0E0],"parents":[2147483647,0,0,1,1,2,2,3,3,4,4,5,5,6,6,7,7,8,8,9,9,10,10,11,11,12,12,13,13,14,14,19,19,20,20,21,21,22,22,23,23,24,24,25,25,26,26,27,27,28,28,29,29,30,30],"right_children":[2,4,6,8,10,12,14,16,18,20,22,24,26,28,30,-1,-1,-1,-1,32,34,36,38,40,42,44,46,48,50,52,54,-1,-1,-1,-1,-1,-1,-1,-1,-1,-1,-1,-1,-1,-1,-1,-1,-1,-1,-1,-1,-1,-1,-1,-1],"split_conditions":[3.7743995E-1,4.6161723E-1,3.7491322E-1,1E0,1.4342105E0,1.3293723E0,1.0180788E2,5.8483772E1,1.3050903E2,8.62543E-1,1E0,1.1364014E2,1E0,1E0,1E0,5.683771E-1,1.5444756E-1,-9.709545E-2,-2.8997904E-2,1E0,4.6370602E-1,2.135035E0,1.5788426E-1,8.112175E1,1E0,1.3821497E0,1.0126885E2,8.2302734E1,1.0691139E0,1.1539781E0,1.1775644E2,1.6537051E-1,-1.8590955E-1,-2.4380186E-1,-8.586239E-2,-1.08767115E-1,-5.354489E-2,2.6794706E-2,2.2340515E-1,-1.6478679E-1,-6.159661E-2,1.8004714E-1,-1.0676271E-1,-2.9661298E-1,-1.1395023E-1,2.3606407E-2,2.5727925E-1,-1.2918893E-1,2.4289747E-1,-8.6994894E-2,1.395041E-1,2.2931452E-1,-1.1241776E-1,1.614861E-1,3.4110865E-1],"split_indices":[2,4,8,3,4,4,0,0,1,4,3,1,3,3,3,0,0,0,0,3,8,4,8,1,3,4,0,1,4,4,0,0,0,0,0,0,0,0,0,0,0,0,0,0,0,0,0,0,0,0,0,0,0,0,0],"split_type":[0,0,0,0,0,0,0,0,0,0,0,0,0,0,0,0,0,0,0,0,0,0,0,0,0,0,0,0,0,0,0,0,0,0,0,0,0,0,0,0,0,0,0,0,0,0,0,0,0,0,0,0,0,0,0],"sum_hessian":[1.6E3,2.31E2,1.369E3,9E0,2.22E2,9.59E2,4.1E2,6E0,3E0,1.78E2,4.4E1,6.87E2,2.72E2,2.12E2,1.98E2,5E0,1E0,1E0,2E0,8.3E1,9.5E1,2.3E1,2.1E1,3.57E2,3.3E2,1.23E2,1.49E2,1.02E2,1.1E2,1.08E2,9E1,3.3E1,5E1,8.3E1,1.2E1,1.9E1,4E0,6E0,1.5E1,1.06E2,2.51E2,1.48E2,1.82E2,1.3E1,1.1E2,2.6E1,1.23E2,4.1E1,6.1E1,8.9E1,2.1E1,4.8E1,6E1,2.9E1,6.1E1],"tree_param":{"num_deleted":"0","num_feature":"9","num_nodes":"55","size_leaf_vector":"1"}},{"base_weights":[2.5381047E-2,-2.6588064E-1,4.8666108E-1,-3.5998574E-1,1.2124072E0,6.674732E-2,1.2235463E0,1.1658025E0,-4.6164173E-1,-1.4979664E0,2.985645E0,-1.60816E-1,1.5109597E0,1.0525721E0,4.794234E0,4.5686197E0,-1.3705571E0,-1.1257575E0,-2.7359483E-1,-6.586754E-1,-2.4299765E0,3.6267657E0,-8.244203E-1,-1.4027599E0,-4.5967776E-2,-8.250632E-1,2.8026597E0,1.1414671E-1,1.4127733E0,5.958486E-1,1.5582345E0,3.6039388E-1,6.168074E-1,-8.293142E-2,-1.7079614E-1,-1.3977495E-2,-1.437588E-1,-3.5017744E-2,1.5830304E-1,-7.187995E-2,6.1469437E-3,-3.3899412E-1,-6.000308E-2,6.067528E-1,3.040448E-1,-1.9587202E-1,-2.0581627E-2,-1.6593015E-1,2.8902036E-1,-3.7548404E-2,3.633323E-2,-1.07646085E-1,4.4964243E-2,2.915645E-1,-5.194178E-2,1.0695554E-1,-8.449441E-2,5.5896517E-2,2.216904E-1,-1.0228586E-1,2.7595517E-1],"categories":[],"categories_nodes":[],"categories_segments":[],"categories_sizes":[],"default_left":[0,0,0,0,0,0,0,0,0,0,0,0,0,0,0,0,0,0,0,0,0,0,0,0,0,0,0,0,0,0,0,0,0,0,0,0,0,0,0,0,0,0,0,0,0,0,0,0,0,0,0,0,0,0,0,0,0,0,0,0,0],"id":31,"left_children":[1,3,5,7,9,11,13,15,17,19,21,23,25,27,29,31,33,35,37,39,41,43,45,47,49,51,53,55,57,-1,59,-1,-1,-1,-1,-1,-1,-1,-1,-1,-1,-1,-1,-1,-1,-1,-1,-1,-1,-1,-1,-1,-1,-1,-1,-1,-1,-1,-1,-1,-1],"loss_changes":[2.1522887E2,1.3704681E2,1.9176384E2,1.4385567E2,2.880345E2,1.3038829E2,1.3231519E2,5.068461E2,1.07967224E2,1.7172897E1,9.092758E1,4.8859337E1,1.652542E2,7.285147E1,2.8390472E1,1.6344666E1,4.7925606E0,5.8523804E1,9.681372E1,6.503577E-1,1.7289444E1,2.5914948E1,3.8069582E0,3.6734108E1,4.2620796E1,6.893181E0,1.4651489E1,5.679946E1,1.0586627E2,0E0,1.5225478E1,0E0,0E0,0E0,0E0,0E0,0E0,0E0,0E0,0E0,0E0,0E0,0E0,0E0,0E0,0E0,0E0,0E0,0E0,0E0,0E0,0E0,0E0,0E0,0E0,0E0,0E0,0E0,0E0,0E0,0E0],"parents":[2147483647,0,0,1,1,2,2,3,3,4,4,5,5,6,6,7,7,8,8,9,9,10,10,11,11,12,12,13,13,14,14,15,15,16,16,17,17,18,18,19,19,20,20,21,21,22,22,23,23,24,24,25,25,26,26,27,27,28,28,30,30],"right_children":[2,4,6,8,10,12,14,16,18,20,22,24,26,28,30,32,34,36,38,40,42,44,46,48,50,52,54,56,58,-1,60,-1,-1,-1,-1,-1,-1,-1,-1,-1,-1,-1,-1,-1,-1,-1,-1,-1,-1,-1,-1,-1,-1,-1,-1,-1,-1,-1,-1,-1,-1],"split_conditions":[1.2535571E0,1.4472833E2,3.4198E-1,5.0046974E-1,1E0,1.3682713E2,1.4467563E2,1E0,3.6087006E-1,1.0166984E2,1.3706691E2,1.21559314E-1,1E0,7.272696E1,1E0,1.4094547E2,2.8846902E-1,7.4620587E-1,4.8369417E-1,4.5911834E-1,7.5922203E-1,5.937765E1,1.6837795E-1,1.4362807E2,1.0270415E2,1.2330001E2,1.4362807E2,1E0,1E0,5.958486E-1,8.460997E1,3.6039388E-1,6.168074E-1,-8.293142E-2,-1.7079614E-1,-1.3977495E-2,-1.437588E-1,-3.5017744E-2,1.5830304E-1,-7.187995E-2,6.1469437E-3,-3.3899412E-1,-6.000308E-2,6.067528E-1,3.040448E-1,-1.9587202E-1,-2.0581627E-2,-1.6593015E-1,2.8902036E-1,-3.7548404E-2,3.633323E-2,-1.07646085E-1,4.4964243E-2,2.915645E-1,-5.194178E-2,1.0695554E-1,-8.449441E-2,5.5896517E-2,2.216904E-1,-1.0228586E-1,2.7595517E-1],"split_indices":[2,0,8,4,3,0,1,3,2,1,1,8,3,0,3,1,8,4,8,8,2,1,8,1,0,1,1,3,3,0,0,0,0,0,0,0,0,0,0,0,0,0,0,0,0,0,0,0,0,0,0,0,0,0,0,0,0,0,0,0,0],"split_type":[0,0,0,0,0,0,0,0,0,0,0,0,0,0,0,0,0,0,0,0,0,0,0,0,0,0,0,0,0,0,0,0,0,0,0,0,0,0,0,0,0,0,0,0,0,0,0,0,0,0,0,0,0,0,0,0,0,0,0,0,0],"sum_hessian":[1.6E3,9.81E2,6.19E2,9.23E2,5.8E1,3.95E2,2.24E2,5.7E1,8.66E2,2.3E1,3.5E1,3.42E2,5.3E1,2.15E2,9E0,2.4E1,3.3E1,1.9E2,6.76E2,1.3E1,1E1,3E1,5E0,2.8E1,3.14E2,1.9E1,3.4E1,6E1,1.55E2,6E0,3E0,1.7E1,7E0,