{"learner":{"attributes":{"scikit_learn":"{\"_estimator_type\": \"regressor\"}"},"feature_names":[],"feature_types":[],"gradient_booster":{"model":{"cats":{"enc":[],"feature_segments":[],"sorted_idx":[]},"gbtree_model_param":{"num_parallel_tree":"1","num_trees":"100"},"iteration_indptr":[0,1,2,3,4,5,6,7,8,9,10,11,12,13,14,15,16,17,18,19,20,21,22,23,24,25,26,27,28,29,30,31,32,33,34,35,36,37,38,39,40,41,42,43,44,45,46,47,48,49,50,51,52,53,54,55,56,57,58,59,60,61,62,63,64,65,66,67,68,69,70,71,72,73,74,75,76,77,78,79,80,81,82,83,84,85,86,87,88,89,90,91,92,93,94,95,96,97,98,99,100],"tree_info":[0,0,0,0,0,0,0,0,0,0,0,0,0,0,0,0,0,0,0,0,0,0,0,0,0,0,0,0,0,0,0,0,0,0,0,0,0,0,0,0,0,0,0,0,0,0,0,0,0,0,0,0,0,0,0,0,0,0,0,0,0,0,0,0,0,0,0,0,0,0,0,0,0,0,0,0,0,0,0,0,0,0,0,0,0,0,0,0,0,0,0,0,0,0,0,0,0,0,0,0],"trees":[{"base_weights":[3.4944247E-7,3.0470839E0,-1.18409626E-1,5.5450183E-1,5.8561416E0,-8.2849056E-1,3.9425102E-1,2.2834651E0,-1.676015E0,7.380841E-1,2.593069E0,5.722681E-2,-1.7709875E0,2.1653827E-1,2.4269962E0,-2.3695545E-1,4.003238E0,-4.032302E0,3.5952303E-1,-1.6853555E-1,4.0160057E-1,-3.5354707E-1,4.9821115E0,-4.240779E0,-1.2254095E0,5.6320574E-2,2.9377904E0,3.158305E0,-4.21305E0,1.19510844E-1,-1.5900342E-1,4.795623E0,2.065754E-3,-7.291851E-2,-4.547088E-1,-4.340401E-2,1.8123675E-2,1.9880417E-1,-1.6387618E0,6.100808E-1,1.9720361E0,-4.9034204E0,2.9157075E-1,3.5883007E0,-1.5285337E0,3.0960745E-1,-1.1769308E0,4.567955E0,-6.897629E-1,4.5699773E0,-8.049237E-2,-1.2118035E-1,-4.8095307E-1,5.802822E-2,5.7043874E-1,-5.9333265E-2,2.3309468E-1,-3.546254E-2,-3.512509E-1,-3.4953284E-1,4.2127094E-1,-2.6941058E-1,-6.604683E-1,5.4593533E-1,3.5240985E-2,4.7930717E-1,-1.6726352E-1,2.277628E-2,6.841162E-1,5.2883815E-2,-3.7235826E-1,-2.1484068E-1,5.1589394E-1,1.142182E-1,-1.4907749E-1,5.2865994E-1,-1.9697008E-1,3.2385314E-1,-2.4397247E-1],"categories":[],"categories_nodes":[],"categories_segments":[],"categories_sizes":[],"default_left":[0,0,0,0,0,0,0,0,0,0,0,0,0,0,0,0,0,0,0,0,0,0,0,0,0,0,0,0,0,0,0,0,0,0,0,0,0,0,0,0,0,0,0,0,0,0,0,0,0,0,0,0,0,0,0,0,0,0,0,0,0,0,0,0,0,0,0,0,0,0,0,0,0,0,0,0,0,0,0],"id":0,"left_children":[1,3,5,7,9,11,13,15,17,-1,19,21,23,25,27,29,31,33,-1,35,-1,37,39,41,43,45,47,49,51,-1,-1,53,-1,-1,-1,-1,-1,55,57,-1,59,61,-1,63,65,67,69,71,73,75,77,-1,-1,-1,-1,-1,-1,-1,-1,-1,-1,-1,-1,-1,-1,-1,-1,-1,-1,-1,-1,-1,-1,-1,-1,-1,-1,-1,-1],"loss_changes":[2.893657E2,2.0680695E2,2.8135822E2,6.938731E1,5.0513855E1,2.7057196E2,1.6167337E2,4.4294098E1,1.1386159E2,0E0,2.425436E1,3.4162778E2,2.0635516E2,1.8033553E2,1.8811934E2,1.1588738E1,1.8835342E1,6.8867188E0,0E0,3.5726237E-1,0E0,1.1106863E2,3.174466E1,1.470781E2,1.9517458E2,1.2281201E2,1.3916151E2,1.5124783E2,1.3325424E0,0E0,0E0,1.5843613E1,0E0,0E0,0E0,0E0,0E0,1.8716737E2,1.11843254E2,0E0,7.597769E1,7.993054E1,0E0,4.651223E1,1.2006424E2,1.7271257E2,2.9301715E2,7.4591736E1,1.3442015E1,1.18201904E2,9.4034966E1,0E0,0E0,0E0,0E0,0E0,0E0,0E0,0E0,0E0,0E0,0E0,0E0,0E0,0E0,0E0,0E0,0E0,0E0,0E0,0E0,0E0,0E0,0E0,0E0,0E0,0E0,0E0,0E0],"parents":[2147483647,0,0,1,1,2,2,3,3,4,4,5,5,6,6,7,7,8,8,10,10,11,11,12,12,13,13,14,14,15,15,16,16,17,17,19,19,21,21,22,22,23,23,24,24,25,25,26,26,27,27,28,28,31,31,37,37,38,38,40,40,41,41,43,43,44,44,45,45,46,46,47,47,48,48,49,49,50,50],"right_children":[2,4,6,8,10,12,14,16,18,-1,20,22,24,26,28,30,32,34,-1,36,-1,38,40,42,44,46,48,50,52,-1,-1,54,-1,-1,-1,-1,-1,56,58,-1,60,62,-1,64,66,68,70,72,74,76,78,-1,-1,-1,-1,-1,-1,-1,-1,-1,-1,-1,-1,-1,-1,-1,-1,-1,-1,-1,-1,-1,-1,-1,-1,-1,-1,-1,-1],"split_conditions":[-1.5703156E0,-1.6372782E0,-2.8119722E-1,-3.292098E-1,8.0890113E-1,-4.6332674E-3,1.4955577E0,-1.058722E0,-4.286569E-1,7.380841E-1,1.2437596E0,-1.7147507E-1,2.8319058E-1,1.5740863E0,1.6578962E0,-1.6744124E0,-1.6463908E0,-1.6744124E0,3.5952303E-1,-1.5992283E0,4.0160057E-1,-5.244168E-1,-6.9162565E-1,1.4309843E0,3.7315786E-1,9.094483E-1,9.337971E-2,1.6354666E0,-4.061599E-1,1.19510844E-1,-1.5900342E-1,-1.7389172E0,2.065754E-3,-7.291851E-2,-4.547088E-1,-4.340401E-2,1.8123675E-2,-8.7597E-1,1.078175E-1,6.100808E-1,-6.3523096E-1,-2.993663E-1,2.9157075E-1,4.2409137E-1,-1.6483965E0,8.818683E-1,2.671652E-1,-1.6866814E0,1.6666052E0,1.6862361E0,2.9265454E-1,-1.2118035E-1,-4.8095307E-1,5.802822E-2,5.7043874E-1,-5.9333265E-2,2.3309468E-1,-3.546254E-2,-3.512509E-1,-3.4953284E-1,4.2127094E-1,-2.6941058E-1,-6.604683E-1,5.4593533E-1,3.5240985E-2,4.7930717E-1,-1.6726352E-1,2.277628E-2,6.841162E-1,5.2883815E-2,-3.7235826E-1,-2.1484068E-1,5.1589394E-1,1.142182E-1,-1.4907749E-1,5.2865994E-1,-1.9697008E-1,3.2385314E-1,-2.4397247E-1],"split_indices":[0,0,2,1,2,3,4,1,3,0,2,3,3,3,3,0,0,0,0,0,0,3,2,1,3,4,1,4,0,0,0,2,0,0,0,0,0,3,0,0,2,4,0,0,1,4,3,1,3,2,2,0,0,0,0,0,0,0,0,0,0,0,0,0,0,0,0,0,0,0,0,0,0,0,0,0,0,0,0],"split_type":[0,0,0,0,0,0,0,0,0,0,0,0,0,0,0,0,0,0,0,0,0,0,0,0,0,0,0,0,0,0,0,0,0,0,0,0,0,0,0,0,0,0,0,0,0,0,0,0,0,0,0,0,0,0,0,0,0,0,0,0,0,0,0,0,0,0,0,0,0,0,0,0,0,0,0,0,0,0,0],"sum_hessian":[8E2,2.9E1,7.71E2,1.6E1,1.3E1,3.23E2,4.48E2,9E0,7E0,8E0,5E0,1.67E2,1.56E2,4.13E2,3.5E1,4E0,5E0,5E0,2E0,2E0,3E0,1.55E2,1.2E1,2.7E1,1.29E2,3.91E2,2.2E1,3.2E1,3E0,2E0,2E0,4E0,1E0,1E0,4E0,1E0,1E0,1.09E2,4.6E1,8E0,4E0,2.5E1,2E0,7E0,1.22E2,3.25E2,6.6E1,1.5E1,7E0,2.2E1,1E1,1E0,2E0,1E0,3E0,8E1,2.9E1,2.8E1,1.8E1,1E0,3E0,1.2E1,1.3E1,4E0,3E0,2E0,1.2E2,3.22E2,3E0,4E1,2.6E1,1E0,1.4E1,2E0,5E0,2E1,2E0,4E0,6E0],"tree_param":{"num_deleted":"0","num_feature":"6","num_nodes":"79","size_leaf_vector":"1"}},{"base_weights":[3.401164E-3,2.7936203E0,-1.05031446E-1,5.2393043E-1,5.3501277E0,-7.4340755E-1,3.5585696E-1,2.5622897E0,-1.15915E0,6.7247665E-1,2.396482E0,5.4294836E-2,-1.5922649E0,1.9646294E-1,2.1790032E0,3.638172E0,-2.4844427E-1,-3.0859683E0,1.384862E0,-1.6010888E-1,3.7148046E-1,-3.1955764E-1,4.536348E0,-3.839498E0,-1.0959972E0,5.1676538E-2,2.655585E0,2.8549464E0,-3.942278E0,1.1154347E-1,4.42418E-1,1.962471E-3,-3.711012E-1,-9.223776E-2,2.1922662E0,-4.1233826E-2,1.7217493E-2,2.8286886E0,-5.0884587E-1,5.558514E-1,1.78918E0,-4.846465E0,6.604588E-1,3.3021173E0,-1.3731428E0,2.8081477E-1,-1.0640061E0,4.1299753E0,-6.2514395E-1,4.127401E0,-6.518121E-2,-1.1512132E-1,-4.4888955E-1,5.5126812E-2,2.5555095E-1,6.1550015E-1,1.3969882E-2,-3.0164037E-2,-3.6755043E-1,-3.320562E-1,3.896756E-1,-5.14213E-1,8.290806E-2,3.729752E-1,-3.6520848E-1,5.0226045E-1,3.25979E-2,-1.8662773E-1,4.4934556E-2,2.050567E-2,6.3280743E-1,4.7724392E-2,-3.3650154E-1,-2.0409863E-1,4.6774387E-1,1.0660368E-1,-1.3665436E-1,4.7831136E-1,-1.8383874E-1,2.9794487E-1,-2.2306052E-1],"categories":[],"categories_nodes":[],"categories_segments":[],"categories_sizes":[],"default_left":[0,0,0,0,0,0,0,0,0,0,0,0,0,0,0,0,0,0,0,0,0,0,0,0,0,0,0,0,0,0,0,0,0,0,0,0,0,0,0,0,0,0,0,0,0,0,0,0,0,0,0,0,0,0,0,0,0,0,0,0,0,0,0,0,0,0,0,0,0,0,0,0,0,0,0,0,0,0,0,0,0],"id":1,"left_children":[1,3,5,7,9,11,13,15,17,-1,19,21,23,25,27,29,-1,31,33,35,-1,37,39,41,43,45,47,49,51,-1,-1,-1,-1,-1,53,-1,-1,55,57,-1,59,61,63,65,67,69,71,73,75,77,79,-1,-1,-1,-1,-1,-1,-1,-1,-1,-1,-1,-1,-1,-1,-1,-1,-1,-1,-1,-1,-1,-1,-1,-1,-1,-1,-1,-1,-1,-1],"loss_changes":[2.4263657E2,1.712713E2,2.274025E2,6.1292362E1,4.072696E1,2.1947833E2,1.3005069E2,5.247634E1,5.329213E1,0E0,2.0817242E1,2.829549E2,1.708829E2,1.472664E2,1.6020996E2,8.945358E0,0E0,1.1719612E1,1.1336473E1,3.2242954E-1,0E0,9.4403824E1,2.65596E1,1.3007751E2,1.6299368E2,1.0051185E2,1.1383455E2,1.2288809E2,9.349022E-1,0E0,0E0,0E0,0E0,0E0,9.755554E-1,0E0,0E0,7.963994E1,9.600137E1,0E0,6.678526E1,4.2858643E1,9.304013E1,3.9326004E1,1.1138263E2,1.4805232E2,2.3921677E2,6.3600555E1,1.14875145E1,9.8765594E1,7.916803E1,0E0,0E0,0E0,0E0,0E0,0E0,0E0,0E0,0E0,0E0,0E0,0E0,0E0,0E0,0E0,0E0,0E0,0E0,0E0,0E0,0E0,0E0,0E0,0E0,0E0,0E0,0E0,0E0,0E0,0E0],"parents":[2147483647,0,0,1,1,2,2,3,3,4,4,5,5,6,6,7,7,8,8,10,10,11,11,12,12,13,13,14,14,15,15,17,17,18,18,19,19,21,21,22,22,23,23,24,24,25,25,26,26,27,27,28,28,34,34,37,37,38,38,40,40,41,41,42,42,43,43,44,44,45,45,46,46,47,47,48,48,49,49,50,50],"right_children":[2,4,6,8,10,12,14,16,18,-1,20,22,24,26,28,30,-1,32,34,36,-1,38,40,42,44,46,48,50,52,-1,-1,-1,-1,-1,54,-1,-1,56,58,-1,60,62,64,66,68,70,72,74,76,78,80,-1,-1,-1,-1,-1,-1,-1,-1,-1,-1,-1,-1,-1,-1,-1,-1,-1,-1,-1,-1,-1,-1,-1,-1,-1,-1,-1,-1,-1,-1],"split_conditions":[-1.5703156E0,-1.6372782E0,-2.8119722E-1,-1.6655715E0,8.0890113E-1,-4.6332674E-3,1.4955577E0,5.509884E-1,1.0025032E0,6.7247665E-1,1.2437596E0,-1.7147507E-1,2.8319058E-1,1.5740863E0,1.6578962E0,-1.1868349E0,-2.4844427E-1,-2.8119722E-1,-1.5206339E0,-1.5992283E0,3.7148046E-1,-1.6278775E0,-6.9162565E-1,-5.1243395E-1,3.7315786E-1,9.094483E-1,9.337971E-2,1.6354666E0,-4.061599E-1,1.1154347E-1,4.42418E-1,1.962471E-3,-3.711012E-1,-9.223776E-2,-5.89267E-1,-4.1233826E-2,1.7217493E-2,-1.2475007E0,1.5901923E0,5.558514E-1,-6.3523096E-1,1.4309843E0,-3.9505582E-2,4.2409137E-1,9.6673626E-1,8.818683E-1,2.671652E-1,-1.6866814E0,1.6666052E0,1.6862361E0,2.9265454E-1,-1.1512132E-1,-4.4888955E-1,5.5126812E-2,2.5555095E-1,6.1550015E-1,1.3969882E-2,-3.0164037E-2,-3.6755043E-1,-3.320562E-1,3.896756E-1,-5.14213E-1,8.290806E-2,3.729752E-1,-3.6520848E-1,5.0226045E-1,3.25979E-2,-1.8662773E-1,4.4934556E-2,2.050567E-2,6.3280743E-1,4.7724392E-2,-3.3650154E-1,-2.0409863E-1,4.6774387E-1,1.0660368E-1,-1.3665436E-1,4.7831136E-1,-1.8383874E-1,2.9794487E-1,-2.2306052E-1],"split_indices":[0,0,2,0,2,3,4,1,5,0,2,3,3,3,3,1,0,2,1,0,0,3,2,2,3,4,1,4,0,0,0,0,0,0,1,0,0,2,1,0,2,1,0,0,0,4,3,1,3,2,2,0,0,0,0,0,0,0,0,0,0,0,0,0,0,0,0,0,0,0,0,0,0,0,0,0,0,0,0,0,0],"split_type":[0,0,0,0,0,0,0,0,0,0,0,0,0,0,0,0,0,0,0,0,0,0,0,0,0,0,0,0,0,0,0,0,0,0,0,0,0,0,0,0,0,0,0,0,0,0,0,0,0,0,0,0,0,0,0,0,0,0,0,0,0,0,0,0,0,0,0,0,0,0,0,0,0,0,0,0,0,0,0,0,0],"sum_hessian":[8E2,2.9E1,7.71E2,1.6E1,1.3E1,3.23E2,4.48E2,7E0,9E0,8E0,5E0,1.67E2,1.56E2,4.13E2,3.5E1,6E0,1E0,5E0,4E0,2E0,3E0,1.55E2,1.2E1,2.7E1,1.29E2,3.91E2,2.2E1,3.2E1,3E0,2E0,4E0,1E0,4E0,1E0,3E0,1E0,1E0,8E0,1.47E2,8E0,4E0,2.2E1,5E0,7E0,1.22E2,3.25E2,6.6E1,1.5E1,7E0,2.2E1,1E1,1E0,2E0,1E0,2E0,3E0,5E0,1.39E2,8E0,1E0,3E0,2.1E1,1E0,3E0,2E0,4E0,3E0,9.6E1,2.6E1,3.22E2,3E0,4E1,2.6E1,1E0,1.4E1,2E0,5E0,2E1,2E0,4E0,6E0],"tree_param":{"num_deleted":"0","num_feature":"6","num_nodes":"81","size_leaf_vector":"1"}},{"base_weights":[6.048464E-3,2.5534167E0,-9.295037E-2,4.8064426E-1,4.887968E0,-6.66552E-1,3.2116964E-1,2.0185E0,-1.5017562E0,6.1270094E-1,2.2147448E0,5.3896286E-2,-1.4332321E0,1.1491823E-1,1.5378715E0,-1.731081E-1,3.5084236E0,-3.5637875E0,3.1228921E0,-1.5210342E-1,3.4361947E-1,-2.8611645E-1,4.1299033E0,-3.470675E0,-9.8337334E-1,3.4215707E-1,-1.7490121E0,1.850288E0,-3.689053E0,1.0410722E-1,-1.3295858E-1,4.202651E0,1.864338E-3,-9.139347E-2,-3.9109713E-1,3.7865478E-1,8.977904E-2,-3.9172124E-2,1.6356612E-2,2.0918062E-1,-1.4392349E0,5.316437E-1,1.8595418E0,-4.3805714E0,5.9570736E-1,3.038763E0,-1.2369808E0,2.061044E0,1.0920797E-1,8.918855E-1,-3.2492104E0,1.3984272E0,4.7255454E0,-1.0936528E-1,-4.1896352E-1,5.2370455E-2,4.991462E-1,1.4397328E-1,-9.188961E-2,-2.7962819E-2,-3.1334117E-1,3.4932637E-1,-3.1545338E-1,-4.651291E-1,7.876267E-2,3.4500203E-1,-3.4086126E-1,4.620796E-1,3.0153085E-2,-8.372262E-2,-3.5223702E-1,6.319272E-2,5.0905323E-1,3.2509465E-3,5.853469E-1,4.177971E-1,-2.1281777E-1,-3.6378103E-1,1.0721928E-1,1.7401792E-1,-3.3939552E-1,5.731856E-1,1.1377426E-1],"categories":[],"categories_nodes":[],"categories_segments":[],"categories_sizes":[],"default_left":[0,0,0,0,0,0,0,0,0,0,0,0,0,0,0,0,0,0,0,0,0,0,0,0,0,0,0,0,0,0,0,0,0,0,0,0,0,0,0,0,0,0,0,0,0,0,0,0,0,0,0,0,0,0,0,0,0,0,0,0,0,0,0,0,0,0,0,0,0,0,0,0,0,0,0,0,0,0,0,0,0,0,0],"id":2,"left_children":[1,3,5,7,9,11,13,15,17,-1,19,21,23,25,27,29,31,33,35,37,-1,39,41,43,45,47,49,51,53,-1,-1,55,-1,-1,-1,-1,-1,-1,-1,57,59,-1,61,63,65,67,69,71,73,75,77,79,81,-1,-1,-1,-1,-1,-1,-1,-1,-1,-1,-1,-1,-1,-1,-1,-1,-1,-1,-1,-1,-1,-1,-1,-1,-1,-1,-1,-1,-1,-1],"loss_changes":[2.0223874E2,1.4282042E2,1.835949E2,5.485828E1,3.2801514E1,1.7903973E2,1.1249822E2,3.326062E1,8.7418686E1,0E0,1.7868576E1,2.3401189E2,1.4048718E2,1.6366803E2,1.12969376E2,8.405057E0,1.4457855E1,1.9455414E0,1.0305767E0,2.9099247E-1,0E0,8.939831E1,2.5134048E1,1.0620917E2,1.3636456E2,1.3751704E2,1.6929645E2,7.394307E1,6.1483765E-1,0E0,0E0,1.1895905E1,0E0,0E0,0E0,0E0,0E0,0E0,0E0,1.5402026E2,9.145899E1,0E0,6.016925E1,3.5843506E1,8.033727E1,3.324984E1,1.0942314E2,1.7429233E2,1.3374487E2,1.6767842E2,4.9241486E1,9.5985435E1,2.2362152E1,0E0,0E0,0E0,0E0,0E0,0E0,0E0,0E0,0E0,0E0,0E0,0E0,0E0,0E0,0E0,0E0,0E0,0E0,0E0,0E0,0E0,0E0,0E0,0E0,0E0,0E0,0E0,0E0,0E0,0E0],"parents":[2147483647,0,0,1,1,2,2,3,3,4,4,5,5,6,6,7,7,8,8,10,10,11,11,12,12,13,13,14,14,15,15,16,16,17,17,18,18,19,19,21,21,22,22,23,23,24,24,25,25,26,26,27,27,28,28,31,31,39,39,40,40,42,42,43,43,44,44,45,45,46,46,47,47,48,48,49,49,50,50,51,51,52,52],"right_children":[2,4,6,8,10,12,14,16,18,-1,20,22,24,26,28,30,32,34,36,38,-1,40,42,44,46,48,50,52,54,-1,-1,56,-1,-1,-1,-1,-1,-1,-1,58,60,-1,62,64,66,68,70,72,74,76,78,80,82,-1,-1,-1,-1,-1,-1,-1,-1,-1,-1,-1,-1,-1,-1,-1,-1,-1,-1,-1,-1,-1,-1,-1,-1,-1,-1,-1,-1,-1,-1],"split_conditions":[-1.5703156E0,-1.6372782E0,-2.8119722E-1,-3.292098E-1,8.0890113E-1,-4.6332674E-3,1.1962005E0,-1.058722E0,-4.286569E-1,6.1270094E-1,1.2437596E0,-1.7147507E-1,2.8319058E-1,9.094483E-1,1.6578962E0,-1.6744124E0,-1.6463908E0,-1.6744124E0,-1.6744124E0,-1.5992283E0,3.4361947E-1,-5.244168E-1,-2.4373392E-2,-5.1243395E-1,3.7315786E-1,-1.3242285E0,3.6886224E-1,1.3191726E0,-4.061599E-1,1.0410722E-1,-1.3295858E-1,-1.7389172E0,1.864338E-3,-9.139347E-2,-3.9109713E-1,3.7865478E-1,8.977904E-2,-3.9172124E-2,1.6356612E-2,1.0025032E0,1.078175E-1,5.316437E-1,4.956946E-1,1.4309843E0,-3.9505582E-2,4.2409137E-1,1.3199942E0,8.674371E-1,8.818683E-1,7.898191E-2,1.406334E0,1.5778528E0,1.6047267E0,-1.0936528E-1,-4.1896352E-1,5.2370455E-2,4.991462E-1,1.4397328E-1,-9.188961E-2,-2.7962819E-2,-3.1334117E-1,3.4932637E-1,-3.1545338E-1,-4.651291E-1,7.876267E-2,3.4500203E-1,-3.4086126E-1,4.620796E-1,3.0153085E-2,-8.372262E-2,-3.5223702E-1,6.319272E-2,5.0905323E-1,3.2509465E-3,5.853469E-1,4.177971E-1,-2.1281777E-1,-3.6378103E-1,1.0721928E-1,1.7401792E-1,-3.3939552E-1,5.731856E-1,1.1377426E-1],"split_indices":[0,0,2,1,2,3,4,1,3,0,2,3,3,4,3,0,0,0,0,0,0,3,1,2,3,1,2,3,0,0,0,2,0,0,0,0,0,0,0,5,0,0,0,1,0,0,1,0,4,1,0,2,3,0,0,0,0,0,0,0,0,0,0,0,0,0,0,0,0,0,0,0,0,0,0,0,0,0,0,0,0,0,0],"split_type":[0,0,0,0,0,0,0,0,0,0,0,0,0,0,0,0,0,0,0,0,0,0,0,0,0,0,0,0,0,0,0,0,0,0,0,0,0,0,0,0,0,0,0,0,0,0,0,0,0,0,0,0,0,0,0,0,0,0,0,0,0,0,0,0,0,0,0,0,0,0,0,0,0,0,0,0,0,0,0,0,0,0,0],"sum_hessian":[8E2,2.9E1,7.71E2,1.6E1,1.3E1,3.23E2,4.48E2,9E0,7E0,8E0,5E0,1.67E2,1.56E2,3.84E2,6.4E1,4E0,5E0,5E0,2E0,2E0,3E0,1.55E2,1.2E1,2.7E1,1.29E2,3.43E2,4.1E1,6.1E1,3E0,2E0,2E0,4E0,1E0,1E0,4E0,1E0,1E0,1E0,1E0,1.09E2,4.6E1,7E0,5E0,2.2E1,5E0,7E0,1.22E2,4E1,3.03E2,1.5E1,2.6E1,5.4E1,7E0,1E0,2E0,1E0,3E0,5.2E1,5.7E1,2.8E1,1.8E1,4E0,1E0,2.1E1,1E0,3E0,2E0,4E0,3E0,1.05E2,1.7E1,2.8E1,1.2E1,3E2,3E0,7E0,8E0,2.4E1,2E0,5.1E1,3E0,5E0,2E0],"tree_param":{"num_deleted":"0","num_feature":"6","num_nodes":"83","size_leaf_vector":"1"}},{"base_weights":[8.560748E-3,2.3462076E0,-8.229154E-2,4.6260762E-1,4.46585E0,-6.523395E-1,2.5825837E-1,1.8691031E0,-1.3533375E0,5.582386E-1,2.0467377E0,-9.9162114E-1,4.8664758E-1,7.045897E-1,-3.2745296E-1,-1.615675E-1,3.2498114E0,-3.287824E0,2.9667475E0,-1.4449818E-1,3.1784803E-1,-5.548244E-1,-2.4538605E0,2.3702033E0,-1.0131766E0,5.008005E-1,4.773204E0,-1.3981054E0,2.7771026E-1,9.716676E-2,-1.2409468E-1,3.8926892E0,1.7711163E-3,-8.68238E-2,-3.5980937E-1,3.5972205E-1,8.52901E-2,-3.7213515E-2,1.5538788E-2,-4.1406143E-2,-2.3777206E0,-3.2329004E0,-7.0561045E-1,3.8470223E0,1.4305356E-1,3.4240517E-1,-1.4913404E0,3.0484387E-1,3.1510518E0,5.9464103E-1,2.4133945E0,-1.7699947E0,1.984204E0,5.0484524E0,-2.263071E-2,4.975195E-2,4.6171018E-1,-3.802061E-2,4.781683E-1,3.340202E-1,-2.622535E-1,-2.6760755E-2,-3.718196E-1,-2.6348275E-1,3.1779896E-2,4.2827055E-1,-1.7797938E-1,-2.7956206E-1,1.7597555E-1,1.3758598E-1,-2.693255E-1,1.2021471E-2,3.140119E-1,3.7010545E-1,-3.0994964E-1,-3.8187447E-1,4.4235712E-1,-4.958119E-2,-2.7374223E-1,-1.1164782E-1,4.0679094E-1,5.6294906E-1,4.9059298E-2,-4.4929597E-1,2.7311524E-2],"categories":[],"categories_nodes":[],"categories_segments":[],"categories_sizes":[],"default_left":[0,0,0,0,0,0,0,0,0,0,0,0,0,0,0,0,0,0,0,0,0,0,0,0,0,0,0,0,0,0,0,0,0,0,0,0,0,0,0,0,0,0,0,0,0,0,0,0,0,0,0,0,0,0,0,0,0,0,0,0,0,0,0,0,0,0,0,0,0,0,0,0,0,0,0,0,0,0,0,0,0,0,0,0,0],"id":3,"left_children":[1,3,5,7,9,11,13,15,17,-1,19,21,23,25,27,29,31,33,35,37,-1,39,41,43,45,47,49,51,53,-1,-1,55,-1,-1,-1,-1,-1,-1,-1,57,59,61,63,65,67,-1,69,71,73,-1,75,77,79,81,83,-1,-1,-1,-1,-1,-1,-1,-1,-1,-1,-1,-1,-1,-1,-1,-1,-1,-1,-1,-1,-1,-1,-1,-1,-1,-1,-1,-1,-1,-1],"loss_changes":[1.703099E2,1.177108E2,1.5003667E2,4.5949543E1,2.6388702E1,1.1216297E2,1.2675865E2,2.8562698E1,7.661131E1,0E0,1.5338772E1,1.4106895E2,1.9167657E2,2.25623E2,1.3645135E2,7.32174E0,1.23981285E1,1.3803406E0,9.3009377E-1,2.6262078E-1,0E0,1.6181366E2,6.717859E1,9.8122574E1,8.573187E1,1.3562433E2,2.1640015E1,9.910826E1,1.935489E2,0E0,0E0,1.0000412E1,0E0,0E0,0E0,0E0,0E0,0E0,0E0,2.2405052E2,6.1953262E1,4.937149E1,3.4401787E1,5.174945E1,6.6682076E1,0E0,1.2432007E2,1.2839725E2,7.335213E1,0E0,9.20587E1,8.369763E1,5.622899E1,1.842453E1,1.7045354E2,0E0,0E0,0E0,0E0,0E0,0E0,0E0,0E0,0E0,0E0,0E0,0E0,0E0,0E0,0E0,0E0,0E0,0E0,0E0,0E0,0E0,0E0,0E0,0E0,0E0,0E0,0E0,0E0,0E0,0E0],"parents":[2147483647,0,0,1,1,2,2,3,3,4,4,5,5,6,6,7,7,8,8,10,10,11,11,12,12,13,13,14,14,15,15,16,16,17,17,18,18,19,19,21,21,22,22,23,23,24,24,25,25,26,26,27,27,28,28,31,31,39,39,40,40,41,41,42,42,43,43,44,44,46,46,47,47,48,48,50,50,51,51,52,52,53,53,54,54],"right_children":[2,4,6,8,10,12,14,16,18,-1,20,22,24,26,28,30,32,34,36,38,-1,40,42,44,46,48,50,52,54,-1,-1,56,-1,-1,-1,-1,-1,-1,-1,58,60,62,64,66,68,-1,70,72,74,-1,76,78,80,82,84,-1,-1,-1,-1,-1,-1,-1,-1,-1,-1,-1,-1,-1,-1,-1,-1,-1,-1,-1,-1,-1,-1,-1,-1,-1,-1,-1,-1,-1,-1],"split_conditions":[-1.5703156E0,-1.6372782E0,-3.9843932E-1,-3.292098E-1,8.0890113E-1,8.798092E-1,5.9304863E-2,-1.058722E0,-4.286569E-1,5.582386E-1,1.2437596E0,9.869643E-1,1.2051357E0,4.876858E-3,5.8156204E-1,-1.6744124E0,-1.6463908E0,-1.6744124E0,-1.6744124E0,-1.5992283E0,3.1784803E-1,8.359353E-1,5.3098876E-2,-4.628032E-2,-1.7045292E0,1.5740863E0,4.834509E-2,1.5092481E0,6.601226E-1,9.716676E-2,-1.2409468E-1,-1.7389172E0,1.7711163E-3,-8.68238E-2,-3.5980937E-1,3.5972205E-1,8.52901E-2,-3.7213515E-2,1.5538788E-2,6.4048356E-1,-1.6483965E0,-1.693795E0,2.6160732E-1,-4.4804016E-1,9.665255E-1,3.4240517E-1,-1.3309815E0,1.5031134E0,-1.2830758E-1,5.9464103E-1,-1.8616979E-1,1.0025032E0,1.0155761E-1,1.5740863E0,7.418873E-1,4.975195E-2,4.6171018E-1,-3.802061E-2,4.781683E-1,3.340202E-1,-2.622535E-1,-2.6760755E-2,-3.718196E-1,-2.6348275E-1,3.1779896E-2,4.2827055E-1,-1.7797938E-1,-2.7956206E-1,1.7597555E-1,1.3758598E-1,-2.693255E-1,1.2021471E-2,3.140119E-1,3.7010545E-1,-3.0994964E-1,-3.8187447E-1,4.4235712E-1,-4.958119E-2,-2.7374223E-1,-1.1164782E-1,4.0679094E-1,5.6294906E-1,4.9059298E-2,-4.4929597E-1,2.7311524E-2],"split_indices":[0,0,2,1,2,0,1,1,3,0,2,4,0,1,1,0,0,0,0,0,0,3,0,3,4,3,1,0,1,0,0,2,0,0,0,0,0,0,0,3,1,2,3,2,3,0,2,4,1,0,2,5,2,3,1,0,0,0,0,0,0,0,0,0,0,0,0,0,0,0,0,0,0,0,0,0,0,0,0,0,0,0,0,0,0],"split_type":[0,0,0,0,0,0,0,0,0,0,0,0,0,0,0,0,0,0,0,0,0,0,0,0,0,0,0,0,0,0,0,0,0,0,0,0,0,0,0,0,0,0,0,0,0,0,0,0,0,0,0,0,0,0,0,0,0,0,0,0,0,0,0,0,0,0,0,0,0,0,0,0,0,0,0,0,0,0,0,0,0,0,0,0,0],"sum_hessian":[8E2,2.9E1,7.71E2,1.6E1,1.3E1,2.88E2,4.83E2,9E0,7E0,8E0,5E0,2.22E2,6.6E1,2.74E2,2.09E2,4E0,5E0,5E0,2E0,2E0,3E0,1.72E2,5E1,2.9E1,3.7E1,2.62E2,1.2E1,7.5E1,1.34E2,2E0,2E0,4E0,1E0,1E0,4E0,1E0,1E0,1E0,1E0,1.35E2,3.7E1,3.4E1,1.6E1,1.7E1,1.2E1,3E0,3.4E1,2.45E2,1.7E1,7E0,5E0,6.8E1,7E0,7E0,1.27E2,1E0,3E0,1.27E2,8E0,1E0,3.6E1,5E0,2.9E1,5E0,1.1E1,1.6E1,1E0,4E0,8E0,1E1,2.4E1,2.31E2,1.4E1,1.6E1,1E0,1E0,4E0,3E1,3.8E1,3E0,4E0,6E0,1E0,7E0,1.2E2],"tree_param":{"num_deleted":"0","num_feature":"6","num_nodes":"85","size_leaf_vector":"1"}},{"base_weights":[1.1177031E-2,2.1562233E0,-7.219416E-2,4.4485763E-1,4.080294E0,-3.8778733E-5,-2.532035E0,2.077561E0,-9.0579087E-1,5.0861734E-1,1.891426E0,-1.6365647E0,9.921461E-2,-3.4726446E0,2.5688689E0,2.9414318E0,-1.9847675E-1,-2.4212053E0,1.0938647E0,-1.3727348E-1,2.9400942E-1,-2.5935647E0,5.31047E-1,1.1459762E0,-5.4831464E-2,-3.9269397E0,2.5924334E-1,3.6596414E-1,-3.5172414E-2,9.0688966E-2,3.573871E0,1.6825676E-3,-2.9121765E-1,-7.4773215E-2,1.7411969E0,-3.5352852E-2,1.476183E-2,-1.0145205E0,-4.1049743E0,-2.102305E0,2.7688491E0,-2.222483E-1,3.1488512E0,-2.7073017E-1,9.14332E-1,-4.521948E0,-8.6267734E-1,2.1885891E-1,-1.7997241E-1,1.507967E-1,4.4484845E-1,4.7264338E-2,2.0065002E-1,-3.9702082E-1,1.1559129E-1,-2.2861612E-1,-5.063498E-1,-2.741029E-1,8.650198E-2,3.9504987E-1,-2.7513486E-1,-1.7028475E-1,1.2662885E-1,-2.4539797E-1,3.9023453E-1,3.7989657E-2,-7.510885E-2,1.965289E-1,-2.7033016E-2,-7.887807E-2,-4.748439E-1,-1.19602874E-1,6.8688393E-3],"categories":[],"categories_nodes":[],"categories_segments":[],"categories_sizes":[],"default_left":[0,0,0,0,0,0,0,0,0,0,0,0,0,0,0,0,0,0,0,0,0,0,0,0,0,0,0,0,0,0,0,0,0,0,0,0,0,0,0,0,0,0,0,0,0,0,0,0,0,0,0,0,0,0,0,0,0,0,0,0,0,0,0,0,0,0,0,0,0,0,0,0,0],"id":4,"left_children":[1,3,5,7,9,11,13,15,17,-1,19,21,23,25,27,29,-1,31,33,35,-1,37,39,41,43,45,47,-1,-1,-1,49,-1,-1,-1,51,-1,-1,53,55,57,59,61,63,65,67,69,71,-1,-1,-1,-1,-1,-1,-1,-1,-1,-1,-1,-1,-1,-1,-1,-1,-1,-1,-1,-1,-1,-1,-1,-1,-1,-1],"loss_changes":[1.4340256E2,9.696849E1,1.3702277E2,3.9370377E1,2.1204208E1,1.2214787E2,1.1447586E2,3.391267E1,3.295154E1,0E0,1.3168192E1,9.057668E1,1.1438873E2,3.3230225E1,1.4029993E1,5.7659607E0,0E0,7.2310143E0,7.262574E0,2.3701511E-1,0E0,6.743289E1,8.832185E1,2.5007463E2,1.2976779E2,2.7094452E1,1.5856236E1,0E0,0E0,0E0,2.3261719E0,0E0,0E0,0E0,3.9784622E-1,0E0,0E0,1.0723118E2,1.4574692E1,1.5638153E1,6.3052708E1,1.2337223E2,1.6577911E2,1.5874005E2,1.4121956E2,8.091949E0,1.3240411E0,0E0,0E0,0E0,0E0,0E0,0E0,0E0,0E0,0E0,0E0,0E0,0E0,0E0,0E0,0E0,0E0,0E0,0E0,0E0,0E0,0E0,0E0,0E0,0E0,0E0,0E0],"parents":[2147483647,0,0,1,1,2,2,3,3,4,4,5,5,6,6,7,7,8,8,10,10,11,11,12,12,13,13,14,14,15,15,17,17,18,18,19,19,21,21,22,22,23,23,24,24,25,25,26,26,30,30,34,34,37,37,38,38,39,39,40,40,41,41,42,42,43,43,44,44,45,45,46,46],"right_children":[2,4,6,8,10,12,14,16,18,-1,20,22,24,26,28,30,-1,32,34,36,-1,38,40,42,44,46,48,-1,-1,-1,50,-1,-1,-1,52,-1,-1,54,56,58,60,62,64,66,68,70,72,-1,-1,-1,-1,-1,-1,-1,-1,-1,-1,-1,-1,-1,-1,-1,-1,-1,-1,-1,-1,-1,-1,-1,-1,-1,-1],"split_conditions":[-1.5703156E0,-1.6372782E0,1.7672374E0,-1.6655715E0,8.0890113E-1,-1.5386347E0,1.3255587E0,5.509884E-1,1.0025032E0,5.0861734E-1,1.2437596E0,5.1687115E-1,-1.250138E0,1.8595767E0,-9.2683595E-1,-1.1868349E0,-1.9847675E-1,-2.8119722E-1,-1.5206339E0,-1.5992283E0,2.9400942E-1,-6.518702E-2,-6.1014974E-1,-1.4598908E0,1.0941409E0,1.0964829E0,1.0190145E0,3.6596414E-1,-3.5172414E-2,9.0688966E-2,-6.1167616E-2,1.6825676E-3,-2.9121765E-1,-7.4773215E-2,-5.89267E-1,-3.5352852E-2,1.476183E-2,-6.6409206E-1,-3.5830274E-1,1.0025032E0,1.3867716E0,-1.2068936E-2,-1.2093339E0,-3.114886E-1,4.0901315E-1,1.7873579E0,5.1026535E-1,2.1885891E-1,-1.7997241E-1,1.507967E-1,4.4484845E-1,4.7264338E-2,2.0065002E-1,-3.9702082E-1,1.1559129E-1,-2.2861612E-1,-5.063498E-1,-2.741029E-1,8.650198E-2,3.9504987E-1,-2.7513486E-1,-1.7028475E-1,1.2662885E-1,-2.4539797E-1,3.9023453E-1,3.7989657E-2,-7.510885E-2,1.965289E-1,-2.7033016E-2,-7.887807E-2,-4.748439E-1,-1.19602874E-1,6.8688393E-3],"split_indices":[0,0,1,0,2,2,2,1,5,0,2,0,1,1,3,1,0,2,1,0,0,3,1,1,1,4,0,0,0,0,2,0,0,0,1,0,0,3,4,5,0,0,2,0,4,1,0,0,0,0,0,0,0,0,0,0,0,0,0,0,0,0,0,0,0,0,0,0,0,0,0,0,0],"split_type":[0,0,0,0,0,0,0,0,0,0,0,0,0,0,0,0,0,0,0,0,0,0,0,0,0,0,0,0,0,0,0,0,0,0,0,0,0,0,0,0,0,0,0,0,0,0,0,0,0,0,0,0,0,0,0,0,0,0,0,0,0,0,0,0,0,0,0,0,0,0,0,0,0],"sum_hessian":[8E2,2.9E1,7.71E2,1.6E1,1.3E1,7.5E2,2.1E1,7E0,9E0,8E0,5E0,4.2E1,7.08E2,1.8E1,3E0,6E0,1E0,5E0,4E0,2E0,3E0,2.9E1,1.3E1,9E1,6.18E2,1.6E1,2E0,2E0,1E0,2E0,4E0,1E0,4E0,1E0,3E0,1E0,1E0,1.5E1,1.4E1,6E0,7E0,5.4E1,3.6E1,5.06E2,1.12E2,1.3E1,3E0,1E0,1E0,2E0,2E0,1E0,2E0,6E0,9E0,6E0,8E0,5E0,1E0,6E0,1E0,2.7E1,2.7E1,4E0,3.2E1,2.15E2,2.91E2,5.9E1,5.3E1,1E0,1.2E1,2E0,1E0],"tree_param":{"num_deleted":"0","num_feature":"6","num_nodes":"73","size_leaf_vector":"1"}},{"base_weights":[1.0066949E-2,1.9790509E0,-6.646101E-2,4.2222273E-1,3.7281244E0,-1.6040887E-1,1.5300134E0,1.6647605E0,-1.1837273E0,4.634069E-1,1.7478532E0,-9.4030194E-2,-2.2923212E0,-4.45204E-2,3.181645E0,-1.13873675E-1,2.8694956E0,-2.8799254E-1,2.603244E0,-1.3040988E-1,2.719587E-1,-1.4981195E0,-3.3707183E-3,-3.1584098E0,2.39468E0,2.3417275E0,-1.7458031E0,4.182616E0,-1.7885605E-2,8.464305E-2,-1.03622E-1,3.4370008E0,1.5984535E-3,3.1949353E-1,7.099309E-2,-3.3585217E-2,1.4023733E-2,-2.4717457E0,2.9935873E-1,1.0353405E0,-1.426828E-1,-3.573449E0,2.4628131E-1,3.4156653E-1,-3.3413794E-2,-2.8341383E-1,3.9899611E0,2.8390107E-1,-2.746523E0,4.852326E0,2.2577121E0,-2.0358065E-1,1.5000265E0,4.4901133E-2,4.0717456E-1,-1.7816949E-1,-4.704983E-1,-2.4550617E-1,2.7144703E-1,-8.430144E-2,2.9834744E-1,-1.8189658E-1,-6.760131E-5,-4.1093045E-1,-8.045929E-2,2.0791598E-1,-1.7097378E-1,5.6378317E-1,-6.3576765E-2,-1.4142524E-1,-3.496109E-1,1.3506894E-1,5.4803914E-1,-1.1552068E-1,4.2529735E-1,2.2164474E-1,5.224037E-2],"categories":[],"categories_nodes":[],"categories_segments":[],"categories_sizes":[],"default_left":[0,0,0,0,0,0,0,0,0,0,0,0,0,0,0,0,0,0,0,0,0,0,0,0,0,0,0,0,0,0,0,0,0,0,0,0,0,0,0,0,0,0,0,0,0,0,0,0,0,0,0,0,0,0,0,0,0,0,0,0,0,0,0,0,0,0,0,0,0,0,0,0,0,0,0,0,0],"id":5,"left_children":[1,3,5,7,9,11,13,15,17,-1,19,21,23,25,27,29,31,-1,33,35,-1,37,39,41,43,45,47,49,51,-1,-1,53,-1,-1,-1,-1,-1,55,57,59,61,63,65,-1,-1,-1,67,-1,69,71,73,-1,75,-1,-1,-1,-1,-1,-1,-1,-1,-1,-1,-1,-1,-1,-1,-1,-1,-1,-1,-1,-1,-1,-1,-1,-1],"loss_changes":[1.20828064E2,8.0116104E1,1.1603413E2,3.5893333E1,1.7016556E1,1.0308933E2,1.119653E2,2.1754585E1,5.888477E1,0E0,1.1305693E1,9.02464E1,9.686926E1,9.7460884E1,6.73302E1,5.3057528E0,9.661358E0,0E0,1.0925865E0,2.1390614E-1,0E0,7.5993034E1,9.666599E1,2.7728592E1,1.2285637E1,9.6618454E1,7.2031006E1,9.670868E0,2.1431923E1,0E0,0E0,7.654793E0,0E0,0E0,0E0,0E0,0E0,3.4766464E1,1.13099915E2,2.9159875E2,1.4020644E2,2.1916687E1,1.4310253E1,0E0,0E0,0E0,6.456518E1,0E0,7.0394287E0,1.678952E1,4.577105E1,0E0,1.6436768E0,0E0,0E0,0E0,0E0,0E0,0E0,0E0,0E0,0E0,0E0,0E0,0E0,0E0,0E0,0E0,0E0,0E0,0E0,0E0,0E0,0E0,0E0,0E0,0E0],"parents":[2147483647,0,0,1,1,2,2,3,3,4,4,5,5,6,6,7,7,8,8,10,10,11,11,12,12,13,13,14,14,15,15,16,16,18,18,19,19,21,21,22,22,23,23,24,24,25,25,26,26,27,27,28,28,31,31,37,37,38,38,39,39,40,40,41,41,42,42,46,46,48,48,49,49,50,50,52,52],"right_children":[2,4,6,8,10,12,14,16,18,-1,20,22,24,26,28,30,32,-1,34,36,-1,38,40,42,44,46,48,50,52,-1,-1,54,-1,-1,-1,-1,-1,56,58,60,62,64,66,-1,-1,-1,68,-1,70,72,74,-1,76,-1,-1,-1,-1,-1,-1,-1,-1,-1,-1,-1,-1,-1,-1,-1,-1,-1,-1,-1,-1,-1,-1,-1,-1],"split_conditions":[-1.5703156E0,-1.6372782E0,1.5243709E0,-3.292098E-1,8.0890113E-1,1.7672374E0,4.9764585E-2,-1.058722E0,-4.286569E-1,4.634069E-1,1.2437596E0,-1.5386347E0,1.3255587E0,1.6081073E0,6.0974514E-1,-1.6744124E0,-1.6463908E0,-2.8799254E-1,-1.6744124E0,-1.5992283E0,2.719587E-1,4.3032062E-1,-1.3242285E0,1.8595767E0,-9.2683595E-1,-1.4441955E0,-1.7045292E0,5.3083926E-1,1.6081073E0,8.464305E-2,-1.03622E-1,-1.7389172E0,1.5984535E-3,3.1949353E-1,7.099309E-2,-3.3585217E-2,1.4023733E-2,-4.353008E-3,-6.1014974E-1,-1.5066622E0,-1.0475935E0,1.0964829E0,1.0190145E0,3.4156653E-1,-3.3413794E-2,-2.8341383E-1,1.0025032E0,2.8390107E-1,-3.0931857E-1,-1.4694507E0,9.5277566E-1,-2.0358065E-1,1.6449627E0,4.4901133E-2,4.0717456E-1,-1.7816949E-1,-4.704983E-1,-2.4550617E-1,2.7144703E-1,-8.430144E-2,2.9834744E-1,-1.8189658E-1,-6.760131E-5,-4.1093045E-1,-8.045929E-2,2.0791598E-1,-1.7097378E-1,5.6378317E-1,-6.3576765E-2,-1.4142524E-1,-3.496109E-1,1.3506894E-1,5.4803914E-1,-1.1552068E-1,4.2529735E-1,2.2164474E-1,5.224037E-2],"split_indices":[0,0,0,1,2,1,2,1,3,0,2,2,2,0,3,0,0,0,0,0,0,0,1,1,3,4,4,4,0,0,0,2,0,0,0,0,0,0,1,1,1,4,0,0,0,0,5,0,2,4,4,0,0,0,0,0,0,0,0,0,0,0,0,0,0,0,0,0,0,0,0,0,0,0,0,0,0],"split_type":[0,0,0,0,0,0,0,0,0,0,0,0,0,0,0,0,0,0,0,0,0,0,0,0,0,0,0,0,0,0,0,0,0,0,0,0,0,0,0,0,0,0,0,0,0,0,0,0,0,0,0,0,0,0,0,0,0,0,0,0,0,0,0,0,0,0,0,0,0,0,0,0,0,0,0,0,0],"sum_hessian":[8E2,2.9E1,7.71E2,1.6E1,1.3E1,7.29E2,4.2E1,9E0,7E0,8E0,5E0,7.08E2,2.1E1,2.2E1,2E1,4E0,5E0,5E0,2E0,2E0,3E0,4.2E1,6.66E2,1.8E1,3E0,9E0,1.3E1,1.5E1,5E0,2E0,2E0,4E0,1E0,1E0,1E0,1E0,1E0,2.7E1,1.5E1,7.8E1,5.88E2,1.6E1,2E0,2E0,1E0,2E0,7E0,2E0,1.1E1,1E1,5E0,2E0,3E0,1E0,3E0,2.2E1,5E0,7E0,8E0,4E1,3.8E1,4.5E1,5.43E2,1.3E1,3E0,1E0,1E0,5E0,2E0,5E0,6E0,2E0,8E0,2E0,3E0,1E0,2E0],"tree_param":{"num_deleted":"0","num_feature":"6","num_nodes":"77","size_leaf_vector":"1"}},{"base_weights":[1.104393E-2,1.8229125E0,-5.937977E-2,4.115999E-1,3.406441E0,4.5049244E-1,-8.901798E-2,1.8398943E0,-7.721956E-1,4.2221522E-1,1.6151342E0,-2.3301871E-2,-2.2166352E0,2.6003172E0,-1.7415328E-1,-2.0663402E0,9.352171E-1,-1.2388929E-1,2.5156185E-1,-4.940453E-1,2.573834E-1,-2.9955807E0,2.2322505E0,7.900016E-2,3.166443E0,1.5185357E-3,-2.4856825E0,-6.5853454E-2,1.4982886E0,-3.1905938E-2,1.3322544E-2,-8.0246574E-1,5.983693E-1,-1.4040138E0,4.2447895E-1,-3.3674173E0,2.3396714E-1,3.1879547E-1,-3.1743098E-2,1.3677086E-1,3.9096966E-1,-3.0978835E-1,-1.04492046E-1,4.265609E-2,1.7133443E-1,-6.480912E-2,-3.9486474E-1,2.355655E-1,-7.3621646E-2,7.6571345E-2,-2.852132E-1,3.888816E-1,3.4887247E-2,-3.8424346E-1,-7.442482E-2,1.9752017E-1,-1.6242509E-1],"categories":[],"categories_nodes":[],"categories_segments":[],"categories_sizes":[],"default_left":[0,0,0,0,0,0,0,0,0,0,0,0,0,0,0,0,0,0,0,0,0,0,0,0,0,0,0,0,0,0,0,0,0,0,0,0,0,0,0,0,0,0,0,0,0,0,0,0,0,0,0,0,0,0,0,0,0],"id":6,"left_children":[1,3,5,7,9,-1,11,13,15,-1,17,19,21,23,-1,25,27,29,-1,31,33,35,37,-1,39,-1,41,-1,43,-1,-1,45,47,49,51,53,55,-1,-1,-1,-1,-1,-1,-1,-1,-1,-1,-1,-1,-1,-1,-1,-1,-1,-1,-1,-1],"loss_changes":[1.0231464E2,6.5643524E1,1.04835464E2,3.0164501E1,1.3637299E1,0E0,1.07329124E2,2.6315727E1,2.4028866E1,0E0,9.707437E0,9.869671E1,8.6391975E1,4.672573E0,0E0,5.2749767E0,5.473655E0,1.9305015E-1,0E0,9.448168E1,1.305184E2,2.480516E1,1.0758921E1,0E0,1.3372536E0,0E0,1.1731377E0,0E0,1.9107914E-1,0E0,0E0,1.0332141E2,1.4713968E2,1.3729085E2,1.1022394E2,1.9569183E1,1.2915003E1,0E0,0E0,0E0,0E0,0E0,0E0,0E0,0E0,0E0,0E0,0E0,0E0,0E0,0E0,0E0,0E0,0E0,0E0,0E0,0E0],"parents":[2147483647,0,0,1,1,2,2,3,3,4,4,6,6,7,7,8,8,10,10,11,11,12,12,13,13,15,15,16,16,17,17,19,19,20,20,21,21,22,22,24,24,26,26,28,28,31,31,32,32,33,33,34,34,35,35,36,36],"right_children":[2,4,6,8,10,-1,12,14,16,-1,18,20,22,24,-1,26,28,30,-1,32,34,36,38,-1,40,-1,42,-1,44,-1,-1,46,48,50,52,54,56,-1,-1,-1,-1,-1,-1,-1,-1,-1,-1,-1,-1,-1,-1,-1,-1,-1,-1,-1,-1],"split_conditions":[-1.5703156E0,-1.6372782E0,-1.6792371E0,-1.6655715E0,8.0890113E-1,4.5049244E-1,1.7508647E0,5.509884E-1,1.0025032E0,4.2221522E-1,1.2437596E0,-3.9843932E-1,1.3255587E0,-1.1868349E0,-1.7415328E-1,-2.8119722E-1,-1.5206339E0,-1.5992283E0,2.5156185E-1,8.798092E-1,-1.4055959E0,1.8595767E0,-9.2683595E-1,7.900016E-2,-6.1167616E-2,1.5185357E-3,1.3331513E-1,-6.5853454E-2,-5.89267E-1,-3.1905938E-2,1.3322544E-2,8.080168E-1,1.2051357E0,-5.754093E-1,-1.3554078E0,1.0964829E0,1.0190145E0,3.1879547E-1,-3.1743098E-2,1.3677086E-1,3.9096966E-1,-3.0978835E-1,-1.04492046E-1,4.265609E-2,1.7133443E-1,-6.480912E-2,-3.9486474E-1,2.355655E-1,-7.3621646E-2,7.6571345E-2,-2.852132E-1,3.888816E-1,3.4887247E-2,-3.8424346E-1,-7.442482E-2,1.9752017E-1,-1.6242509E-1],"split_indices":[0,0,3,0,2,0,1,1,5,0,2,2,2,1,0,2,1,0,0,0,3,1,3,0,2,0,2,0,1,0,0,0,0,0,3,4,0,0,0,0,0,0,0,0,0,0,0,0,0,0,0,0,0,0,0,0,0],"split_type":[0,0,0,0,0,0,0,0,0,0,0,0,0,0,0,0,0,0,0,0,0,0,0,0,0,0,0,0,0,0,0,0,0,0,0,0,0,0,0,0,0,0,0,0,0,0,0,0,0,0,0,0,0,0,0,0,0],"sum_hessian":[8E2,2.9E1,7.71E2,1.6E1,1.3E1,4E0,7.67E2,7E0,9E0,8E0,5E0,7.45E2,2.2E1,6E0,1E0,5E0,4E0,2E0,3E0,2.78E2,4.67E2,1.9E1,3E0,2E0,4E0,1E0,4E0,1E0,3E0,1E0,1E0,2.17E2,6.1E1,4.2E1,4.25E2,1.7E1,2E0,2E0,1E0,2E0,2E0,2E0,2E0,1E0,2E0,2.08E2,9E0,2.6E1,3.5E1,1.7E1,2.5E1,8E0,4.17E2,1.4E1,3E0,1E0,1E0],"tree_param":{"num_deleted":"0","num_feature":"6","num_nodes":"57","size_leaf_vector":"1"}},{"base_weights":[1.1255952E-2,1.4124687E0,-6.61943E-2,8.8810796E-1,3.9074E-1,-1.5272124E-1,1.3801436E0,2.2779865E0,-2.131379E-1,1.629286E-1,-4.8138818E-1,-1.664143E-2,2.8442347E0,2.5285091E0,-7.3992684E-2,-1.4646697E0,2.003685E0,2.7009618E-2,3.3506932E0,-1.1964629E0,4.9363475E-2,2.130388E0,-1.5490452E0,3.7456028E0,-3.3452272E-2,3.5188851E0,1.2220695E0,-4.3977076E-1,-3.221534E-1,-1.6036628E0,3.4734113E0,5.8838093E-1,-3.6715972E-1,4.516232E0,-2.8168732E-1,4.8517913E-2,-1.6193002E0,-5.160603E-1,1.5331599E-1,-2.6684538E-1,3.663655E0,2.698824E-1,-2.4819255E0,4.359696E0,1.9954983E0,-1.9233441E-1,1.3923297E0,3.905802E-1,4.052329E-2,-4.074545E-2,1.8331532E-1,-7.713218E-2,1.2720942E-1,1.2656403E-2,-2.5320584E-1,5.8876704E-2,3.932587E-1,-1.1185713E-1,1.0967703E-1,2.1095352E-1,-6.864761E-2,5.3089714E-1,1.4053254E-1,-1.8229604E-1,2.1144405E-1,-3.0267352E-1,-1.2010596E-1,1.9340658E-1,-1.2388839E-2,5.1751095E-1,-5.804717E-2,-1.2531315E-1,-3.1806168E-1,1.2373852E-1,4.9160558E-1,-1.10145144E-1,3.819336E-1,2.0881815E-1,4.643186E-2],"categories":[],"categories_nodes":[],"categories_segments":[],"categories_sizes":[],"default_left":[0,0,0,0,0,0,0,0,0,0,0,0,0,0,0,0,0,0,0,0,0,0,0,0,0,0,0,0,0,0,0,0,0,0,0,0,0,0,0,0,0,0,0,0,0,0,0,0,0,0,0,0,0,0,0,0,0,0,0,0,0,0,0,0,0,0,0,0,0,0,0,0,0,0,0,0,0,0,0],"id":7,"left_children":[1,3,5,7,-1,9,11,13,15,17,19,21,23,25,-1,27,29,31,33,35,37,39,41,43,45,47,49,51,-1,53,55,57,59,61,-1,63,65,-1,67,-1,69,-1,71,73,75,-1,77,-1,-1,-1,-1,-1,-1,-1,-1,-1,-1,-1,-1,-1,-1,-1,-1,-1,-1,-1,-1,-1,-1,-1,-1,-1,-1,-1,-1,-1,-1,-1,-1],"loss_changes":[8.702145E1,5.1476067E1,9.532265E1,5.5587044E1,0E0,7.4566376E1,8.7983215E1,1.3967812E1,6.1197643E1,1.5892242E2,1.3365259E2,7.897273E1,5.4596252E1,1.5107674E1,0E0,2.3791777E1,4.7984695E1,7.832623E1,1.205497E2,7.904222E1,1.10733795E2,8.335535E1,6.2176826E1,8.495865E0,1.8845371E1,8.055046E0,8.713132E0,6.6569004E0,0E0,5.1394715E0,5.6319656E0,1.2792508E2,1.6594478E2,2.4598969E1,0E0,1.5464137E2,6.229312E1,0E0,9.896594E1,0E0,5.432244E1,0E0,6.316841E0,1.3025345E1,3.809681E1,0E0,1.613451E0,0E0,0E0,0E0,0E0,0E0,0E0,0E0,0E0,0E0,0E0,0E0,0E0,0E0,0E0,0E0,0E0,0E0,0E0,0E0,0E0,0E0,0E0,0E0,0E0,0E0,0E0,0E0,0E0,0E0,0E0,0E0,0E0],"parents":[2147483647,0,0,1,1,2,2,3,3,5,5,6,6,7,7,8,8,9,9,10,10,11,11,12,12,13,13,15,15,16,16,17,17,18,18,19,19,20,20,21,21,22,22,23,23,24,24,25,25,26,26,27,27,29,29,30,30,31,31,32,32,33,33,35,35,36,36,38,38,40,40,42,42,43,43,44,44,46,46],"right_children":[2,4,6,8,-1,10,12,14,16,18,20,22,24,26,-1,28,30,32,34,36,38,40,42,44,46,48,50,52,-1,54,56,58,60,62,-1,64,66,-1,68,-1,70,-1,72,74,76,-1,78,-1,-1,-1,-1,-1,-1,-1,-1,-1,-1,-1,-1,-1,-1,-1,-1,-1,-1,-1,-1,-1,-1,-1,-1,-1,-1,-1,-1,-1,-1,-1,-1],"split_conditions":[-1.5229672E0,1.1962005E0,1.5243709E0,-3.292098E-1,3.9074E-1,-4.6332674E-3,4.9764585E-2,1.350989E0,1.4437386E0,-8.807989E-2,-2.6598567E-1,1.6081073E0,6.0974514E-1,-8.017228E-1,-7.3992684E-2,-9.2350535E-2,-1.0072738E0,-3.114886E-1,1.254677E0,-4.345482E-1,-1.4622169E0,-1.4441955E0,-1.7045292E0,5.3083926E-1,1.6081073E0,-6.4752537E-1,8.364137E-2,-1.4277288E-1,-3.221534E-1,-1.5881776E0,-1.6554713E0,-8.6294097E-1,-1.3327419E0,8.186825E-1,-2.8168732E-1,-1.0267808E0,-8.130618E-1,-5.160603E-1,8.364137E-2,-2.6684538E-1,1.0025032E0,2.698824E-1,-3.0931857E-1,-1.4694507E0,9.5277566E-1,-1.9233441E-1,1.6449627E0,3.905802E-1,4.052329E-2,-4.074545E-2,1.8331532E-1,-7.713218E-2,1.2720942E-1,1.2656403E-2,-2.5320584E-1,5.8876704E-2,3.932587E-1,-1.1185713E-1,1.0967703E-1,2.1095352E-1,-6.864761E-2,5.3089714E-1,1.4053254E-1,-1.8229604E-1,2.1144405E-1,-3.0267352E-1,-1.2010596E-1,1.9340658E-1,-1.2388839E-2,5.1751095E-1,-5.804717E-2,-1.2531315E-1,-3.1806168E-1,1.2373852E-1,4.9160558E-1,-1.10145144E-1,3.819336E-1,2.0881815E-1,4.643186E-2],"split_indices":[0,4,0,1,0,3,2,2,1,3,2,0,3,4,0,4,4,0,0,4,0,4,4,4,0,1,2,4,0,0,0,1,1,2,0,4,0,0,2,0,5,0,2,4,4,0,0,0,0,0,0,0,0,0,0,0,0,0,0,0,0,0,0,0,0,0,0,0,0,0,0,0,0,0,0,0,0,0,0],"split_type":[0,0,0,0,0,0,0,0,0,0,0,0,0,0,0,0,0,0,0,0,0,0,0,0,0,0,0,0,0,0,0,0,0,0,0,0,0,0,0,0,0,0,0,0,0,0,0,0,0,0,0,0,0,0,0,0,0,0,0,0,0,0,0,0,0,0,0,0,0,0,0,0,0,0,0,0,0,0,0],"sum_hessian":[8E2,4.1E1,7.59E2,3.5E1,6E0,7.17E2,4.2E1,1.5E1,2E1,3.66E2,3.51E2,2.2E1,2E1,1.4E1,1E0,1.3E1,7E0,3.52E2,1.4E1,1.49E2,2.02E2,9E0,1.3E1,1.5E1,5E0,7E0,7E0,9E0,4E0,2E0,5E0,1.45E2,2.07E2,1.2E1,2E0,3.8E1,1.11E2,3E0,1.99E2,2E0,7E0,2E0,1.1E1,1E1,5E0,2E0,3E0,6E0,1E0,2E0,5E0,8E0,1E0,1E0,1E0,1E0,4E0,3.3E1,1.12E2,2.3E1,1.84E2,9E0,3E0,2E1,1.8E1,2.4E1,8.7E1,2.6E1,1.73E2,5E0,2E0,5E0,6E0,2E0,8E0,2E0,3E0,1E0,2E0],"tree_param":{"num_deleted":"0","num_feature":"6","num_nodes":"79","size_leaf_vector":"1"}},{"base_weights":[1.2128189E-2,4.0603742E-1,-1.3283805E-2,1.290982E0,-8.572545E-2,8.114969E-1,3.5724797E0,-4.462735E-1,1.7992055E-1,2.0814178E0,-1.9470465E-1,3.8140258E-1,1.06160216E-1,7.140403E-2,-9.942748E-1,-3.217931E0,2.3481598E-1,2.313903E0,-7.029305E-2,-1.3376367E0,1.8297646E0,-2.0181102E-1,3.302459E0,-2.6124763E0,-6.3532966E-1,9.233141E-2,-4.062024E-1,2.4934795E-2,1.1966748E0,3.2208845E-1,1.1176839E-1,-3.9078593E-2,-2.963811E-1,-1.5234795E-1,3.201426E-1,-4.161766E-2,1.9715719E-1,4.164195E-1,1.09084204E-1,-3.0978906E-1,2.4652718E-1,3.426685E-1,-8.267551E-2,1.305839E-1,-2.150504E-2,2.975501E-1,4.76481E-2],"categories":[],"categories_nodes":[],"categories_segments":[],"categories_sizes":[],"default_left":[0,0,0,0,0,0,0,0,0,0,0,0,0,0,0,0,0,0,0,0,0,0,0,0,0,0,0,0,0,0,0,0,0,0,0,0,0,0,0,0,0,0,0,0,0,0,0],"id":8,"left_children":[1,-1,3,5,7,9,11,13,15,17,19,-1,-1,21,23,25,27,29,-1,31,33,35,37,39,41,-1,-1,43,45,-1,-1,-1,-1,-1,-1,-1,-1,-1,-1,-1,-1,-1,-1,-1,-1,-1,-1],"loss_changes":[8.2456024E1,0E0,7.541375E1,4.3046593E1,7.248857E1,4.640593E1,1.9646454E-1,9.113484E1,8.208121E1,1.1983635E1,5.1038006E1,0E0,0E0,1.4720677E2,8.895213E1,2.8219704E1,8.677687E1,1.26742935E1,0E0,2.0398209E1,4.1673424E1,7.25689E1,2.0233307E1,7.665184E1,1.0313994E2,0E0,0E0,1.0909971E2,9.722692E1,0E0,0E0,0E0,0E0,0E0,0E0,0E0,0E0,0E0,0E0,0E0,0E0,0E0,0E0,0E0,0E0,0E0,0E0],"parents":[2147483647,0,0,2,2,3,3,4,4,5,5,6,6,7,7,8,8,9,9,10,10,13,13,14,14,15,15,16,16,17,17,19,19,20,20,21,21,22,22,23,23,24,24,27,27,28,28],"right_children":[2,-1,4,6,8,10,12,14,16,18,20,-1,-1,22,24,26,28,30,-1,32,34,36,38,40,42,-1,-1,44,46,-1,-1,-1,-1,-1,-1,-1,-1,-1,-1,-1,-1,-1,-1,-1,-1,-1,-1],"split_conditions":[-1.6792371E0,4.0603742E-1,-1.5229672E0,1.1962005E0,-2.8119722E-1,-3.292098E-1,-1.5642384E0,-4.6332674E-3,-1.6537704E0,1.350989E0,1.4437386E0,3.8140258E-1,1.06160216E-1,-1.7147507E-1,2.8319058E-1,-9.863727E-1,1.2051357E0,-8.017228E-1,-7.029305E-2,-9.2350535E-2,-1.0072738E0,-3.9843932E-1,-6.9162565E-1,1.4309843E0,3.5772932E-1,9.233141E-2,-4.062024E-1,8.364137E-2,-7.5066555E-1,3.2208845E-1,1.1176839E-1,-3.9078593E-2,-2.963811E-1,-1.5234795E-1,3.201426E-1,-4.161766E-2,1.9715719E-1,4.164195E-1,1.09084204E-1,-3.0978906E-1,2.4652718E-1,3.426685E-1,-8.267551E-2,1.305839E-1,-2.150504E-2,2.975501E-1,4.76481E-2],"split_indices":[3,0,0,4,2,1,0,3,3,2,1,0,0,3,3,4,0,4,0,4,4,2,2,1,3,0,0,2,1,0,0,0,0,0,0,0,0,0,0,0,0,0,0,0,0,0,0],"split_type":[0,0,0,0,0,0,0,0,0,0,0,0,0,0,0,0,0,0,0,0,0,0,0,0,0,0,0,0,0,0,0,0,0,0,0,0,0,0,0,0,0,0,0,0,0,0,0],"sum_hessian":[8E2,4E0,7.96E2,4.1E1,7.55E2,3.5E1,6E0,3.2E2,4.35E2,1.5E1,2E1,5E0,1E0,1.65E2,1.55E2,6E0,4.29E2,1.4E1,1E0,1.3E1,7E0,1.53E2,1.2E1,2.7E1,1.28E2,1E0,5E0,3.53E2,7.6E1,7E0,7E0,9E0,4E0,2E0,5E0,1.4E2,1.3E1,8E0,4E0,2.5E1,2E0,5E0,1.23E2,5.5E1,2.98E2,2.1E1,5.5E1],"tree_param":{"num_deleted":"0","num_feature":"6","num_nodes":"47","size_leaf_vector":"1"}},{"base_weights":[1.35467965E-2,-3.0426843E0,4.4322994E-2,-3.8914616E0,1.449379E-1,8.7419564E-1,-7.106665E-2,-1.3206698E-1,-4.6556446E-1,-4.519358E-1,2.129798E0,-1.1451418E0,7.1794346E-2,7.3036236E-1,-2.4630084E0,-3.3861145E-1,2.4301717E0,2.734841E0,-1.7220123E0,3.2418287E0,1.422899E-2,-2.488906E-1,4.123357E0,-3.1669514E0,6.338119E-4,1.2802191E0,3.5267818E0,-2.3395665E-1,3.420569E0,-2.4111748E0,4.7942954E-1,4.421613E0,7.18019E-2,4.1168815E-1,-1.2964451E-2,-1.9707309E-1,1.492095E-1,6.002639E-2,5.4125416E-1,-7.873381E-2,-3.4979424E-1,4.9744096E-2,-4.963846E-2,5.863604E-1,-1.5880743E-2,-3.1035757E-2,3.8897198E-1,3.1684875E-2,-6.677838E-2,1.4777517E-1,3.7645525E-1,-3.533499E-1,-8.142768E-2,-3.191025E-1,2.5805756E-1,-5.576191E-2,5.2125925E-1,7.011496E-2,-9.0812065E-2,1.5602337E-1,-7.7927946E-3],"categories":[],"categories_nodes":[],"categories_segments":[],"categories_sizes":[],"default_left":[0,0,0,0,0,0,0,0,0,0,0,0,0,0,0,0,0,0,0,0,0,0,0,0,0,0,0,0,0,0,0,0,0,0,0,0,0,0,0,0,0,0,0,0,0,0,0,0,0,0,0,0,0,0,0,0,0,0,0,0,0],"id":9,"left_children":[1,3,5,7,-1,9,11,-1,-1,13,15,17,19,21,23,-1,25,27,29,31,33,35,37,39,41,43,45,47,49,51,53,55,57,-1,59,-1,-1,-1,-1,-1,-1,-1,-1,-1,-1,-1,-1,-1,-1,-1,-1,-1,-1,-1,-1,-1,-1,-1,-1,-1,-1],"loss_changes":[7.5476265E1,3.6142296E1,7.609454E1,7.603325E0,0E0,1.6247661E2,1.07185745E2,0E0,0E0,1.1592789E2,9.10706E1,1.882457E2,1.1254659E2,1.04026855E2,3.121875E1,0E0,5.601532E1,2.3193932E1,1.1039087E2,4.0821953E1,6.777347E1,7.7882996E1,2.8544456E1,8.272766E0,1.4815335E0,1.658215E2,3.4630676E1,9.2844933E-1,4.515915E-1,9.569583E1,1.4705357E2,3.4414383E1,3.1035764E0,0E0,6.185066E1,0E0,0E0,0E0,0E0,0E0,0E0,0E0,0E0,0E0,0E0,0E0,0E0,0E0,0E0,0E0,0E0,0E0,0E0,0E0,0E0,0E0,0E0,0E0,0E0,0E0,0E0],"parents":[2147483647,0,0,1,1,2,2,3,3,5,5,6,6,9,9,10,10,11,11,12,12,13,13,14,14,16,16,17,17,18,18,19,19,20,20,21,21,22,22,23,23,24,24,25,25,26,26,27,27,28,28,29,29,30,30,31,31,32,32,34,34],"right_children":[2,4,6,8,-1,10,12,-1,-1,14,16,18,20,22,24,-1,26,28,30,32,34,36,38,40,42,44,46,48,50,52,54,56,58,-1,60,-1,-1,-1,-1,-1,-1,-1,-1,-1,-1,-1,-1,-1,-1,-1,-1,-1,-1,-1,-1,-1,-1,-1,-1,-1,-1],"split_conditions":[-1.7039697E0,1.4635243E0,-1.250138E0,-5.244168E-1,1.449379E-1,8.6437516E-2,-8.6294097E-1,-1.3206698E-1,-4.6556446E-1,6.897442E-1,-1.7066092E0,-1.2110605E0,-8.4033406E-1,5.5177605E-1,1.2067071E0,-3.3861145E-1,-1.492915E0,-1.6554713E0,7.828987E-1,3.7664106E-1,-1.6792371E0,-1.5066622E0,-1.5938579E0,-1.6556739E0,-9.953395E-1,3.6226207E-1,1.2927118E-1,-1.6744124E0,-1.5284098E0,5.3994596E-1,3.1988353E-2,-1.6379933E0,-5.2980924E-1,4.1168815E-1,-1.5703156E0,-1.9707309E-1,1.492095E-1,6.002639E-2,5.4125416E-1,-7.873381E-2,-3.4979424E-1,4.9744096E-2,-4.963846E-2,5.863604E-1,-1.5880743E-2,-3.1035757E-2,3.8897198E-1,3.1684875E-2,-6.677838E-2,1.4777517E-1,3.7645525E-1,-3.533499E-1,-8.142768E-2,-3.191025E-1,2.5805756E-1,-5.576191E-2,5.2125925E-1,7.011496E-2,-9.0812065E-2,1.5602337E-1,-7.7927946E-3],"split_indices":[1,2,1,3,0,0,1,0,0,4,2,0,1,2,4,0,1,0,2,2,3,1,3,1,0,0,0,0,4,0,3,2,0,0,0,0,0,0,0,0,0,0,0,0,0,0,0,0,0,0,0,0,0,0,0,0,0,0,0,0,0],"split_type":[0,0,0,0,0,0,0,0,0,0,0,0,0,0,0,0,0,0,0,0,0,0,0,0,0,0,0,0,0,0,0,0,0,0,0,0,0,0,0,0,0,0,0,0,0,0,0,0,0,0,0,0,0,0,0,0,0,0,0,0,0],"sum_hessian":[8E2,7E0,7.93E2,6E0,1E0,9.6E1,6.97E2,2E0,4E0,4.7E1,4.9E1,8.1E1,6.16E2,3E1,1.7E1,2E0,4.7E1,1E1,7.1E1,1E1,6.06E2,2.4E1,6E0,1.3E1,4E0,2.4E1,2.3E1,2E0,8E0,5.4E1,1.7E1,7E0,3E0,3E0,6.03E2,1.2E1,1.2E1,2E0,4E0,2E0,1.1E1,2E0,2E0,5E0,1.9E1,2E0,2.1E1,1E0,1E0,2E0,6E0,3.1E1,2.3E1,6E0,1.1E1,1E0,6E0,2E0,1E0,2.3E1,5.8E2],"tree_param":{"num_deleted":"0","num_feature":"6","num_nodes":"61","size_leaf_vector":"1"}},{"base_weights":[1.3765084E-2,-1.1471882E0,8.275998E-2,-1.9719732E0,4.7098276E-1,-3.4233596E-2,8.983808E-1,-1.3936696E0,-4.0529094E0,-1.976706E0,2.5943747E0,1.4094396E-1,-1.3310012E0,1.1051645E0,-2.3531053E0,-2.3680944E0,1.4502934E0,-4.499097E-1,-9.109857E-2,-2.7911742E0,3.111321E-1,3.582088E0,-2.6536652E-1,5.5242088E-2,3.1852643E0,2.0526142E0,-1.5873619E0,2.4345903E-2,1.7304745E0,-3.6479466E0,2.0605507E-1,-1.6498191E0,-4.049301E-1,-6.5170005E-2,1.9092423E0,-3.313582E-1,-1.164239E-1,8.83831E-2,-4.1713286E-2,4.010449E-1,2.9177953E-2,-1.0210407E-1,1.4197505E0,3.9077616E0,-1.2481438E-1,-1.6851051E-1,3.137179E-1,-1.9559488E0,1.2919822E0,1.069246E0,-2.590339E0,3.6557124E0,1.1906196E0,-4.706141E-1,2.9241562E-2,-1.5075191E-2,-2.3842776E-1,3.310108E-2,2.1586864E-1,5.7095703E-2,-4.502804E-2,2.3079757E-1,2.8256157E-3,-2.2869813E-1,4.560202E-1,-8.552464E-2,-3.8465428E-1,2.9249677E-1,-2.948978E-1,-8.945995E-2,1.6049373E-1,-4.756019E-1,5.2654516E-2,4.6015868E-1,6.1356664E-2,-2.5601396E-2,2.4160324E-1],"categories":[],"categories_nodes":[],"categories_segments":[],"categories_sizes":[],"default_left":[0,0,0,0,0,0,0,0,0,0,0,0,0,0,0,0,0,0,0,0,0,0,0,0,0,0,0,0,0,0,0,0,0,0,0,0,0,0,0,0,0,0,0,0,0,0,0,0,0,0,0,0,0,0,0,0,0,0,0,0,0,0,0,0,0,0,0,0,0,0,0,0,0,0,0,0,0],"id":10,"left_children":[1,3,5,7,9,11,13,15,17,19,21,23,25,27,29,31,33,-1,-1,35,37,39,-1,41,43,45,47,49,51,53,-1,55,-1,-1,57,-1,-1,-1,-1,-1,-1,59,61,63,-1,-1,-1,65,67,69,71,73,75,-1,-1,-1,-1,-1,-1,-1,-1,-1,-1,-1,-1,-1,-1,-1,-1,-1,-1,-1,-1,-1,-1,-1,-1],"loss_changes":[6.425492E1,6.0987705E1,7.22655E1,3.0453957E1,8.8286766E1,1.5079771E2,6.647425E1,7.271513E1,4.3127136E0,1.5775396E1,5.6157677E1,1.5245287E2,7.17849E1,6.078408E1,4.1806683E1,1.6263199E1,7.9972067E0,0E0,0E0,1.2417374E0,1.6199045E0,1.010537E1,0E0,1.2252404E2,5.612744E1,2.960927E1,8.106239E1,9.566058E1,5.4890335E1,2.2224495E1,0E0,1.6155605E1,0E0,0E0,1.6475353E0,0E0,0E0,0E0,0E0,0E0,0E0,1.2024118E2,7.285646E1,6.7012924E1,0E0,0E0,0E0,1.3405504E2,7.0954506E1,2.773615E1,7.0006E1,3.1706482E1,8.21638E1,0E0,0E0,0E0,0E0,0E0,0E0,0E0,0E0,0E0,0E0,0E0,0E0,0E0,0E0,0E0,0E0,0E0,0E0,0E0,0E0,0E0,0E0,0E0,0E0],"parents":[2147483647,0,0,1,1,2,2,3,3,4,4,5,5,6,6,7,7,8,8,9,9,10,10,11,11,12,12,13,13,14,14,15,15,16,16,19,19,20,20,21,21,23,23,24,24,25,25,26,26,27,27,28,28,29,29,31,31,34,34,41,41,42,42,43,43,47,47,48,48,49,49,50,50,51,51,52,52],"right_children":[2,4,6,8,10,12,14,16,18,20,22,24,26,28,30,32,34,-1,-1,36,38,40,-1,42,44,46,48,50,52,54,-1,56,-1,-1,58,-1,-1,-1,-1,-1,-1,60,62,64,-1,-1,-1,66,68,70,72,74,76,-1,-1,-1,-1,-1,-1,-1,-1,-1,-1,-1,-1,-1,-1,-1,-1,-1,-1,-1,-1,-1,-1,-1,-1],"split_conditions":[-1.5386347E0,4.3032062E-1,1.266103E0,-4.353008E-3,-6.1014974E-1,9.094483E-1,1.5778528E0,-3.2933795E-1,-1.5694935E0,2.671652E-1,1.3867716E0,8.3652794E-1,-1.3118304E0,-4.4189408E-1,3.3349183E-1,9.27552E-1,-1.681109E0,-4.499097E-1,-9.109857E-2,-9.3622285E-1,7.842466E-1,-1.5694935E0,-2.6536652E-1,1.4312532E0,1.5341275E0,-9.168901E-1,1.3463529E0,5.340385E-1,-1.7325452E-1,1.7412338E0,2.0605507E-1,-3.4706244E-1,-4.049301E-1,-6.5170005E-2,-6.6100204E-1,-3.313582E-1,-1.164239E-1,8.83831E-2,-4.1713286E-2,4.010449E-1,2.9177953E-2,-5.952095E-1,-4.2367953E-1,-8.4099233E-1,-1.2481438E-1,-1.6851051E-1,3.137179E-1,1.9243062E-1,1.0095383E0,-1.2110605E0,1.0599614E0,5.6752884E-1,6.623973E-1,-4.706141E-1,2.9241562E-2,-1.5075191E-2,-2.3842776E-1,3.310108E-2,2.1586864E-1,5.7095703E-2,-4.502804E-2,2.3079757E-1,2.8256157E-3,-2.2869813E-1,4.560202E-1,-8.552464E-2,-3.8465428E-1,2.9249677E-1,-2.948978E-1,-8.945995E-2,1.6049373E-1,-4.756019E-1,5.2654516E-2,4.6015868E-1,6.1356664E-2,-2.5601396E-2,2.4160324E-1],"split_indices":[2,0,4,0,1,4,2,0,2,3,0,4,2,2,0,1,1,0,0,1,0,2,0,2,0,0,3,1,2,2,0,3,0,0,3,0,0,0,0,0,0,0,4,0,0,0,0,3,1,0,1,0,2,0,0,0,0,0,0,0,0,0,0,0,0,0,0,0,0,0,0,0,0,0,0,0,0],"split_type":[0,0,0,0,0,0,0,0,0,0,0,0,0,0,0,0,0,0,0,0,0,0,0,0,0,0,0,0,0,0,0,0,0,0,0,0,0,0,0,0,0,0,0,0,0,0,0,0,0,0,0,0,0,0,0,0,0,0,0,0,0,0,0,0,0,0,0,0,0,0,0,0,0,0,0,0,0],"sum_hessian":[8E2,4.4E1,7.56E2,2.9E1,1.5E1,6.62E2,9.4E1,2.4E1,5E0,7E0,8E0,5.84E2,7.8E1,8.9E1,5E0,1.8E1,6E0,4E0,1E0,5E0,2E0,7E0,1E0,5.69E2,1.5E1,5E0,7.3E1,3.3E1,5.6E1,4E0,1E0,1.4E1,4E0,1E0,5E0,3E0,2E0,1E0,1E0,6E0,1E0,5.11E2,5.8E1,1.3E1,2E0,1E0,4E0,6.5E1,8E0,2.4E1,9E0,1.1E1,4.5E1,3E0,1E0,5E0,9E0,1E0,4E0,1.74E2,3.37E2,3.5E1,2.3E1,1E0,1.2E1,4.2E1,2.3E1,6E0,2E0,5E0,1.9E1,5E0,4E0,8E0,3E0,2.1E1,2.4E1],"tree_param":{"num_deleted":"0","num_feature":"6","num_nodes":"77","size_leaf_vector":"1"}},{"base_weights":[1.1039183E-2,3.5828987E-1,-1.1382821E-2,-2.7323055E0,1.6185235E-2,-3.4830666E0,1.2615113E-1,8.013788E-1,-9.358416E-2,-1.236648E-1,-4.1343045E-1,-3.8396823E-1,1.9232844E0,-1.0712876E0,3.5548683E-2,2.5250669E0,-1.0289019E0,-1.7502891E0,2.2807753E0,2.391681E0,-1.5927154E0,2.9671884E0,-1.7900962E-2,3.185709E-1,-1.3800345E-1,9.711497E-2,-2.267779E-1,-2.6076815E-1,8.396397E-2,4.770201E-1,1.6311541E-1,-3.1822335E-2,3.02924E-1,-2.638304E-1,-3.0875547E-2,4.0452385E-1,6.9291354E-3,1.5632257E-2,-5.280108E-2],"categories":[],"categories_nodes":[],"categories_segments":[],"categories_sizes":[],"default_left":[0,0,0,0,0,0,0,0,0,0,0,0,0,0,0,0,0,0,0,0,0,0,0,0,0,0,0,0,0,0,0,0,0,0,0,0,0,0,0],"id":11,"left_children":[1,-1,3,5,7,9,-1,11,13,-1,-1,15,17,19,21,23,25,27,29,31,33,35,37,-1,-1,-1,-1,-1,-1,-1,-1,-1,-1,-1,-1,-1,-1,-1,-1],"loss_changes":[6.419147E1,0E0,5.982763E1,2.8381157E1,6.816527E1,5.127983E0,0E0,1.2973367E2,8.7658104E1,0E0,0E0,9.265252E1,6.96555E1,1.5006996E2,9.6263916E1,2.761525E1,1.0131506E2,1.3292437E1,6.66095E1,1.9968937E1,9.450249E1,3.408455E1,5.3761913E1,0E0,0E0,0E0,0E0,0E0,0E0,0E0,0E0,0E0,0E0,0E0,0E0,0E0,0E0,0E0,0E0],"parents":[2147483647,0,0,2,2,3,3,4,4,5,5,7,7,8,8,11,11,12,12,13,13,14,14,15,15,16,16,17,17,18,18,19,19,20,20,21,21,22,22],"right_children":[2,-1,4,6,8,10,-1,12,14,-1,-1,16,18,20,22,24,26,28,30,32,34,36,38,-1,-1,-1,-1,-1,-1,-1,-1,-1,-1,-1,-1,-1,-1,-1,-1],"split_conditions":[-1.6792371E0,3.5828987E-1,-1.7039697E0,1.4635243E0,-1.250138E0,-5.244168E-1,1.2615113E-1,8.6437516E-2,-8.6294097E-1,-1.236648E-1,-4.1343045E-1,-1.4001956E0,-1.5568916E0,-1.2110605E0,-8.4033406E-1,-1.3693594E0,-5.990527E-1,5.1687115E-1,3.6226207E-1,-1.6554713E0,5.3994596E-1,3.7664106E-1,8.1779796E-1,3.185709E-1,-1.3800345E-1,9.711497E-2,-2.267779E-1,-2.6076815E-1,8.396397E-2,4.770201E-1,1.6311541E-1,-3.1822335E-2,3.02924E-1,-2.638304E-1,-3.0875547E-2,4.0452385E-1,6.9291354E-3,1.5632257E-2,-5.280108E-2],"split_indices":[3,0,1,2,1,3,0,0,1,0,0,0,2,0,1,1,3,0,0,0,0,2,3,0,0,0,0,0,0,0,0,0,0,0,0,0,0,0,0],"split_type":[0,0,0,0,0,0,0,0,0,0,0,0,0,0,0,0,0,0,0,0,0,0,0,0,0,0,0,0,0,0,0,0,0,0,0,0,0,0,0],"sum_hessian":[8E2,4E0,7.96E2,7E0,7.89E2,6E0,1E0,9.6E1,6.93E2,2E0,4E0,4.7E1,4.9E1,8E1,6.13E2,8E0,3.9E1,4E0,4.5E1,1E1,7E1,1E1,6.03E2,7E0,1E0,1.5E1,2.4E1,3E0,1E0,8E0,3.7E1,2E0,8E0,3.8E1,3.2E1,7E0,3E0,4.5E2,1.53E2],"tree_param":{"num_deleted":"0","num_feature":"6","num_nodes":"39","size_leaf_vector":"1"}},{"base_weights":[1.0949106E-2,-5.1343076E-2,1.1102239E0,-2.4567772E-2,-2.924266E0,-9.842717E-2,2.3811169E0,-6.1777893E-2,1.9440078E0,-4.15161E0,2.2198983E-1,1.8337591E0,-1.4715297E0,3.1280584E0,-7.5802007E-3,-2.9959043E-2,-2.381558E0,4.448975E0,-4.908396E-1,-5.036101E-1,-1.5884186E-1,-2.3783849E-1,3.184093E0,2.3935235E-1,-2.3151655E0,3.7473593E0,1.4713304E0,-1.7629482E-1,1.3108408E0,-1.1513323E-1,1.040005E0,1.4987803E-1,-2.9792378E0,5.01553E-1,5.2482318E-2,1.7122015E-1,-1.5105535E0,4.568684E-1,-6.464532E-1,-3.1005337E0,-1.3112547E0,9.262117E-2,4.2713687E-1,-9.9490054E-2,2.953171E0,2.0127587E-1,4.0594864E-1,-8.348381E-3,-3.1370303E-1,-5.1398434E-2,1.6508724E-1,-3.5898146E-1,-1.3185632E-1,5.4276787E-4,-2.269901E-1,1.8386059E-1,-2.8082857E-1,-4.5189396E-2,-4.3118802E-1,9.743309E-4,-3.0758333E-1,8.935676E-2,3.3418497E-1,1.0479164E-2,5.041313E-2],"categories":[],"categories_nodes":[],"categories_segments":[],"categories_sizes":[],"default_left":[0,0,0,0,0,0,0,0,0,0,0,0,0,0,0,0,0,0,0,0,0,0,0,0,0,0,0,0,0,0,0,0,0,0,0,0,0,0,0,0,0,0,0,0,0,0,0,0,0,0,0,0,0,0,0,0,0,0,0,0,0,0,0,0,0],"id":12,"left_children":[1,3,5,7,9,11,13,15,17,19,-1,21,23,25,27,29,31,33,35,-1,-1,-1,37,-1,39,41,43,-1,45,47,49,-1,51,-1,-1,-1,53,-1,55,57,59,-1,-1,-1,61,-1,63,-1,-1,-1,-1,-1,-1,-1,-1,-1,-1,-1,-1,-1,-1,-1,-1,-1,-1],"loss_changes":[5.4906464E1,5.8313004E1,6.628522E1,5.527805E1,5.341176E1,6.37195E1,3.749228E1,5.455007E1,8.757271E1,5.603279E0,0E0,6.4451004E1,5.1191162E1,1.0902603E1,1.6196829E1,6.67382E1,2.7657223E1,1.2930466E1,2.0558147E1,0E0,0E0,0E0,4.538336E1,0E0,5.395691E0,1.2305191E1,2.4865479E1,0E0,1.7235632E0,6.458291E1,5.2109715E1,0E0,4.3923264E0,0E0,0E0,0E0,6.919258E0,0E0,2.1280174E1,1.7302013E1,1.6347004E1,0E0,0E0,0E0,2.1593094E-1,0E0,3.5876483E-2,0E0,0E0,0E0,0E0,0E0,0E0,0E0,0E0,0E0,0E0,0E0,0E0,0E0,0E0,0E0,0E0,0E0,0E0],"parents":[2147483647,0,0,1,1,2,2,3,3,4,4,5,5,6,6,7,7,8,8,9,9,11,11,12,12,13,13,14,14,15,15,16,16,17,17,18,18,22,22,24,24,25,25,26,26,28,28,29,29,30,30,32,32,36,36,38,38,39,39,40,40,44,44,46,46],"right_children":[2,4,6,8,10,12,14,16,18,20,-1,22,24,26,28,30,32,34,36,-1,-1,-1,38,-1,40,42,44,-1,46,48,50,-1,52,-1,-1,-1,54,-1,56,58,60,-1,-1,-1,62,-1,64,-1,-1,-1,-1,-1,-1,-1,-1,-1,-1,-1,-1,-1,-1,-1,-1,-1,-1],"split_conditions":[1.5243709E0,1.5020227E0,4.9764585E-2,1.694878E0,3.2924137E-1,1.6081073E0,6.0974514E-1,1.6666052E0,1.394443E-1,1.5092481E0,2.2198983E-1,-1.4441955E0,-1.7045292E0,5.3083926E-1,1.6081073E0,1.4955577E0,-1.2385964E0,-1.5771979E-1,-1.4192051E0,-5.036101E-1,-1.5884186E-1,-2.3783849E-1,1.0025032E0,2.3935235E-1,-7.387399E-1,-1.4694507E0,9.5277566E-1,-1.7629482E-1,1.6449627E0,1.456709E0,-1.0575888E0,1.4987803E-1,7.418873E-1,5.01553E-1,5.2482318E-2,1.7122015E-1,-5.549391E-1,4.568684E-1,1.5341275E0,-1.0507355E0,3.6966154E-1,9.262117E-2,4.2713687E-1,-9.9490054E-2,1.6081073E0,2.0127587E-1,-1.1430318E0,-8.348381E-3,-3.1370303E-1,-5.1398434E-2,1.6508724E-1,-3.5898146E-1,-1.3185632E-1,5.4276787E-4,-2.269901E-1,1.8386059E-1,-2.8082857E-1,-4.5189396E-2,-4.3118802E-1,9.743309E-4,-3.0758333E-1,8.935676E-2,3.3418497E-1,1.0479164E-2,5.041313E-2],"split_indices":[0,0,2,3,1,0,3,3,4,0,0,4,4,4,0,4,4,1,0,0,0,0,5,0,1,4,4,0,0,4,2,0,1,0,0,0,2,0,0,3,1,0,0,0,0,0,1,0,0,0,0,0,0,0,0,0,0,0,0,0,0,0,0,0,0],"split_type":[0,0,0,0,0,0,0,0,0,0,0,0,0,0,0,0,0,0,0,0,0,0,0,0,0,0,0,0,0,0,0,0,0,0,0,0,0,0,0,0,0,0,0,0,0,0,0,0,0,0,0,0,0,0,0,0,0,0,0,0,0,0,0,0,0],"sum_hessian":[8E2,7.58E2,4.2E1,7.52E2,6E0,2.2E1,2E1,7.39E2,1.3E1,5E0,1E0,9E0,1.3E1,1.5E1,5E0,7.3E2,9E0,6E0,7E0,3E0,2E0,2E0,7E0,2E0,1.1E1,1E1,5E0,2E0,3E0,6.77E2,5.3E1,1E0,8E0,5E0,1E0,2E0,5E0,5E0,2E0,5E0,6E0,2E0,8E0,2E0,3E0,1E0,2E0,6.71E2,6E0,1.5E1,3.8E1,5E0,3E0,2E0,3E0,1E0,1E0,2E0,3E0,4E0,2E0,1E0,2E0,1E0,1E0],"tree_param":{"num_deleted":"0","num_feature":"6","num_nodes":"65","size_leaf_vector":"1"}},{"base_weights":[9.875635E-3,3.2158488E-1,-1.024951E-2,-2.503138E0,1.5007905E-2,-3.204332E0,1.20261006E-1,7.6489633E-1,-7.888283E-2,-1.1486391E-1,-3.7968817E-1,-1.4634694E-1,2.3641453E0,-8.415307E-1,3.3034414E-2,-1.1027962E0,8.151488E-1,-2.4334564E0,2.9443612E0,-1.5754852E0,9.293812E-1,2.6379697E0,-1.4461157E-2,1.9621506E-1,-1.6716738E-1,4.8792654E-1,-3.0280477E-3,-4.1507164E-1,-4.7746453E-2,-1.4103828E-1,3.150259E-1,4.8430797E-2,-2.5227618E-1,-3.1038103E-1,1.9870979E-1,3.5920307E-1,7.0355656E-3,3.32459E-2,-2.7236009E-2],"categories":[],"categories_nodes":[],"categories_segments":[],"categories_sizes":[],"default_left":[0,0,0,0,0,0,0,0,0,0,0,0,0,0,0,0,0,0,0,0,0,0,0,0,0,0,0,0,0,0,0,0,0,0,0,0,0,0,0],"id":13,"left_children":[1,-1,3,5,7,9,-1,11,13,-1,-1,15,17,19,21,23,25,27,29,31,33,35,37,-1,-1,-1,-1,-1,-1,-1,-1,-1,-1,-1,-1,-1,-1,-1,-1],"loss_changes":[5.171402E1,0E0,5.0219814E1,2.4641151E1,5.5682323E1,4.165451E0,0E0,1.2858882E2,6.0031265E1,0E0,0E0,5.331739E1,9.624162E1,1.1844342E2,7.6004E1,5.3843876E1,9.978952E1,1.1453964E1,3.0445358E1,1.2609819E2,1.2134886E2,2.6693542E1,5.413063E1,0E0,0E0,0E0,0E0,0E0,0E0,0E0,0E0,0E0,0E0,0E0,0E0,0E0,0E0,0E0,0E0],"parents":[2147483647,0,0,2,2,3,3,4,4,5,5,7,7,8,8,11,11,12,12,13,13,14,14,15,15,16,16,17,17,18,18,19,19,20,20,21,21,22,22],"right_children":[2,-1,4,6,8,10,-1,12,14,-1,-1,16,18,20,22,24,26,28,30,32,34,36,38,-1,-1,-1,-1,-1,-1,-1,-1,-1,-1,-1,-1,-1,-1,-1,-1],"split_conditions":[-1.6792371E0,3.2158488E-1,-1.7039697E0,1.4635243E0,-1.3242285E0,-5.244168E-1,1.20261006E-1,-1.4598908E0,-8.6294097E-1,-1.1486391E-1,-3.7968817E-1,-1.2068936E-2,-1.3118304E0,9.665255E-1,-8.4033406E-1,-1.484932E0,3.3349183E-1,-1.3878899E0,-1.6701734E0,-6.61599E-1,-1.4017688E0,3.7664106E-1,-3.114886E-1,1.9621506E-1,-1.6716738E-1,4.8792654E-1,-3.0280477E-3,-4.1507164E-1,-4.7746453E-2,-1.4103828E-1,3.150259E-1,4.8430797E-2,-2.5227618E-1,-3.1038103E-1,1.9870979E-1,3.5920307E-1,7.0355656E-3,3.32459E-2,-2.7236009E-2],"split_indices":[3,0,1,2,1,3,0,1,1,0,0,0,2,3,1,0,0,0,3,4,4,2,0,0,0,0,0,0,0,0,0,0,0,0,0,0,0,0,0],"split_type":[0,0,0,0,0,0,0,0,0,0,0,0,0,0,0,0,0,0,0,0,0,0,0,0,0,0,0,0,0,0,0,0,0,0,0,0,0,0,0],"sum_hessian":[8E2,4E0,7.96E2,7E0,7.89E2,6E0,1E0,8.7E1,7.02E2,2E0,4E0,5.6E1,3.1E1,8.9E1,6.13E2,2.8E1,2.8E1,3E0,2.8E1,6.3E1,2.6E1,1E1,6.03E2,4E0,2.4E1,4E0,2.4E1,1E0,2E0,1E0,2.7E1,2E1,4.3E1,5E0,2.1E1,7E0,3E0,2.57E2,3.46E2],"tree_param":{"num_deleted":"0","num_feature":"6","num_nodes":"39","size_leaf_vector":"1"}},{"base_weights":[9.174103E-3,5.3034507E-2,-1.4130163E0,1.0216473E-2,3.0376906E0,6.6707335E-2,-3.1678448E0,-9.625291E-2,5.8595324E-1,-2.374198E-1,3.8162992E0,1.73809E0,-1.852974E0,-4.102919E-1,-5.0573516E-1,-6.923572E-2,-4.435465E0,-4.272072E-1,1.4498153E0,4.6660516E-1,2.7819362E-1,-1.1533373E-1,2.3159137E0,-3.6079373E-2,-2.3776875E-1,-1.09423496E-1,5.517642E-2,-2.0390857E-2,-2.122617E0,-5.5207676E-1,-5.8977794E-2,8.6869735E-1,-1.1712847E0,1.1397791E0,4.9422938E-1,9.395223E-2,-5.2223183E-2,2.8192065E0,-3.5192203E-2,-1.5891076E-3,9.86557E-3,-1.3760969E-2,9.077412E-2,-1.047718E-2,-3.8751352E-1,-2.4413973E-2,3.1292486E-1,-1.6960135E-1,1.7350283E-1,1.4758784E-1,-2.1871114E-1,3.5951632E-1,1.5324377E-1],"categories":[],"categories_nodes":[],"categories_segments":[],"categories_sizes":[],"default_left":[0,0,0,0,0,0,0,0,0,0,0,0,0,0,0,0,0,0,0,0,0,0,0,0,0,0,0,0,0,0,0,0,0,0,0,0,0,0,0,0,0,0,0,0,0,0,0,0,0,0,0,0,0],"id":14,"left_children":[1,3,5,7,9,11,13,15,17,-1,19,21,23,-1,25,27,29,31,33,-1,35,-1,37,-1,-1,-1,39,41,43,-1,-1,45,47,49,-1,-1,-1,51,-1,-1,-1,-1,-1,-1,-1,-1,-1,-1,-1,-1,-1,-1,-1],"loss_changes":[5.0039593E1,9.939512E1,6.253119E1,4.7133522E1,5.541182E1,4.813995E1,2.5306976E1,7.577731E1,1.05647064E2,0E0,2.8767075E1,1.6036905E1,4.6229134E0,0E0,1.3807614E0,6.474867E1,1.3438919E1,5.501568E1,6.474852E1,0E0,2.0786812E0,0E0,1.03910675E1,0E0,0E0,0E0,1.0837637E-2,6.888307E1,5.263865E1,0E0,0E0,5.359211E1,5.7843567E1,7.143603E1,0E0,0E0,0E0,4.814949E-1,0E0,0E0,0E0,0E0,0E0,0E0,0E0,0E0,0E0,0E0,0E0,0E0,0E0,0E0,0E0],"parents":[2147483647,0,0,1,1,2,2,3,3,4,4,5,5,6,6,7,7,8,8,10,10,11,11,12,12,14,14,15,15,16,16,17,17,18,18,20,20,22,22,26,26,27,27,28,28,31,31,32,32,33,33,37,37],"right_children":[2,4,6,8,10,12,14,16,18,-1,20,22,24,-1,26,28,30,32,34,-1,36,-1,38,-1,-1,-1,40,42,44,-1,-1,46,48,50,-1,-1,-1,52,-1,-1,-1,-1,-1,-1,-1,-1,-1,-1,-1,-1,-1,-1,-1],"split_conditions":[1.7672374E0,1.6973646E0,-2.3766452E-1,1.1838162E0,-1.7572784E0,1.0190145E0,1.0964829E0,1.1760814E0,1.209741E-2,-2.374198E-1,1.1190708E0,-7.697719E-1,1.8095299E0,-4.102919E-1,-5.191613E-1,1.6789993E0,1.0914176E-1,-9.2538697E-1,1.5778528E0,4.6660516E-1,1.163283E0,-1.1533373E-1,1.354495E0,-3.6079373E-2,-2.3776875E-1,-1.09423496E-1,5.1026535E-1,1.3127317E0,1.2944005E-1,-5.5207676E-1,-5.8977794E-2,7.2331977E-1,1.0714017E0,1.4384731E0,4.9422938E-1,9.395223E-2,-5.2223183E-2,1.0025032E0,-3.5192203E-2,-1.5891076E-3,9.86557E-3,-1.3760969E-2,9.077412E-2,-1.047718E-2,-3.8751352E-1,-2.4413973E-2,3.1292486E-1,-1.6960135E-1,1.7350283E-1,1.4758784E-1,-2.1871114E-1,3.5951632E-1,1.5324377E-1],"split_indices":[1,1,4,0,4,0,4,0,2,0,0,2,1,0,0,2,3,2,2,0,0,0,3,0,0,0,0,2,1,0,0,4,1,2,0,0,0,5,0,0,0,0,0,0,0,0,0,0,0,0,0,0,0],"split_type":[0,0,0,0,0,0,0,0,0,0,0,0,0,0,0,0,0,0,0,0,0,0,0,0,0,0,0,0,0,0,0,0,0,0,0,0,0,0,0,0,0,0,0,0,0,0,0,0,0,0,0,0,0],"sum_hessian":[8E2,7.77E2,2.3E1,7.67E2,1E1,1.3E1,1E1,6.48E2,1.19E2,1E0,9E0,7E0,6E0,7E0,3E0,6.45E2,3E0,5.5E1,6.4E1,7E0,2E0,1E0,6E0,2E0,4E0,1E0,2E0,6.31E2,1.4E1,2E0,1E0,2E1,3.5E1,6E1,4E0,1E0,1E0,5E0,1E0,1E0,1E0,5.61E2,7E1,7E0,7E0,1.4E1,6E0,3E1,5E0,5.5E1,5E0,2E0,3E0],"tree_param":{"num_deleted":"0","num_feature":"6","num_nodes":"53","size_leaf_vector":"1"}},{"base_weights":[7.796144E-3,2.8831467E-1,-1.9971928E-1,-6.322079E-2,1.4174806E0,-2.1006634E0,-3.8607292E-2,2.8039923E-1,-1.5938764E0,5.382834E0,1.0284812E0,1.1330972E0,-3.0650628E0,2.4577956E0,-1.3569692E-1,1.3489509E0,-7.9738565E-2,1.9703734E0,-2.2504647E0,6.154644E-1,2.3022068E-1,5.826289E-1,3.1100364E0,2.5884354E0,-2.597777E-2,-3.7539937E0,-4.6198517E-1,-1.1388301E0,3.7515733E0,-7.014695E-2,-3.4290085E0,-2.3841748E0,1.6152949E0,-4.8120734E-1,1.0331573E0,4.2122345E0,-3.17014E0,-3.500313E0,-1.219309E0,8.7387687E-1,-3.931748E-1,-8.323598E-2,4.0763416E0,4.2556237E-2,3.167539E-1,-9.4454324E-1,2.2834249E-1,-4.493373E0,-1.0334207E0,-2.751932E-1,1.00438E0,1.3808718E-1,-2.1139736E0,4.3229346E0,-1.266702E-1,-3.9040798E-1,5.3656244E-1,9.372282E-3,-3.9456448E-1,-2.9007542E-1,-4.172182E-2,2.1840155E-1,-2.1512024E-2,1.615217E-3,-2.2608452E-1,-3.0735278E-1,1.5331642E-1,8.0800965E-2,4.7314778E-1,-8.516729E-2,-3.9035374E-1,-1.2734273E-1,-4.507637E-1,2.7309997E-2,-4.2382646E-1,-1.5680503E-2,1.8431215E-1,-7.514906E-2,9.607639E-2,5.314761E-1,-5.8489036E-2,-1.414375E-1,-1.598638E-2,-2.0912373E-1,-5.965744E-1,1.4110284E-1,-1.8045162E-1,2.3458643E-1,-6.718976E-2,-2.4427469E-1,-5.6382656E-2,-2.198763E-2,4.7992036E-1,-2.5900323E-2,-3.4011173E-1,-3.8867125E-1,6.288325E-2],"categories":[],"categories_nodes":[],"categories_segments":[],"categories_sizes":[],"default_left":[0,0,0,0,0,0,0,0,0,0,0,0,0,0,0,0,0,0,0,0,0,0,0,0,0,0,0,0,0,0,0,0,0,0,0,0,0,0,0,0,0,0,0,0,0,0,0,0,0,0,0,0,0,0,0,0,0,0,0,0,0,0,0,0,0,0,0,0,0,0,0,0,0,0,0,0,0,0,0,0,0,0,0,0,0,0,0,0,0,0,0,0,0,0,0,0,0],"id":15,"left_children":[1,3,5,7,9,11,13,15,17,19,21,23,25,27,29,31,33,35,37,-1,-1,39,41,43,45,47,49,51,53,55,57,59,61,63,65,67,69,71,73,75,-1,77,79,-1,-1,81,-1,83,85,-1,87,-1,89,91,-1,93,95,-1,-1,-1,-1,-1,-1,-1,-1,-1,-1,-1,-1,-1,-1,-1,-1,-1,-1,-1,-1,-1,-1,-1,-1,-1,-1,-1,-1,-1,-1,-1,-1,-1,-1,-1,-1,-1,-1,-1,-1],"loss_changes":[4.6685333E1,1.3544678E2,1.4110701E2,1.377235E2,1.19408005E2,1.1574393E2,1.0358519E2,8.246029E1,1.1676603E2,2.4743347E0,6.779297E1,1.5248857E1,4.8479248E1,7.872414E1,8.848471E1,5.754313E1,7.2430824E1,1.0554791E2,4.8572327E1,0E0,0E0,8.626846E1,4.045308E1,3.6621246E0,1.4884819E1,3.961023E1,2.6269274E1,1.520448E1,3.9882874E1,7.870885E1,1.4929565E1,2.8541107E0,5.3560547E1,1.0536578E2,9.300717E1,6.7826385E0,1.7765331E0,3.463736E1,1.0928984E2,6.0227974E1,0E0,3.5126362E0,6.0834152E1,0E0,0E0,1.617229E0,0E0,4.765039E1,1.3855644E1,0E0,1.2819681E1,0E0,6.6130257E-1,2.4854828E1,0E0,1.039588E2,5.958308E1,0E0,0E0,0E0,0E0,0E0,0E0,0E0,0E0,0E0,0E0,0E0,0E0,0E0,0E0,0E0,0E0,0E0,0E0,0E0,0E0,0E0,0E0,0E0,0E0,0E0,0E0,0E0,0E0,0E0,0E0,0E0,0E0,0E0,0E0,0E0,0E0,0E0,0E0,0E0,0E0],"parents":[2147483647,0,0,1,1,2,2,3,3,4,4,5,5,6,6,7,7,8,8,9,9,10,10,11,11,12,12,13,13,14,14,15,15,16,16,17,17,18,18,21,21,22,22,23,23,24,24,25,25,26,26,27,27,28,28,29,29,30,30,31,31,32,32,33,33,34,34,35,35,36,36,37,37,38,38,39,39,41,41,42,42,45,45,47,47,48,48,50,50,52,52,53,53,55,55,56,56],"right_children":[2,4,6,8,10,12,14,16,18,20,22,24,26,28,30,32,34,36,38,-1,-1,40,42,44,46,48,50,52,54,56,58,60,62,64,66,68,70,72,74,76,-1,78,80,-1,-1,82,-1,84,86,-1,88,-1,90,92,-1,94,96,-1,-1,-1,-1,-1,-1,-1,-1,-1,-1,-1,-1,-1,-1,-1,-1,-1,-1,-1,-1,-1,-1,-1,-1,-1,-1,-1,-1,-1,-1,-1,-1,-1,-1,-1,-1,-1,-1,-1,-1],"split_conditions":[-2.8099483E-1,7.524429E-1,-1.1912733E-1,2.2940859E-1,8.1855E-1,-1.1430318E0,-6.711382E-2,-9.364585E-1,-1.1937747E0,-5.244168E-1,1.3255587E0,2.2418419E-1,7.346885E-1,-1.381461E-1,1.7873579E0,-1.6483965E0,-1.9968395E-1,6.7251354E-1,-4.7720197E-1,6.154644E-1,2.3022068E-1,1.2437596E0,-1.4694507E0,-1.6744124E0,8.9516E-1,5.8951855E-1,-7.697719E-1,-1.0712667E0,8.564894E-1,5.2556145E-1,-1.6701734E0,-1.3536583E0,-1.5771979E-1,-5.2273333E-1,-5.2980924E-1,-1.5642384E0,-1.0841775E0,-1.1892992E0,9.598059E-1,-2.5441387E-1,-3.931748E-1,1.1652228E0,1.3868803E-1,4.2556237E-2,3.167539E-1,-5.244168E-1,2.2834249E-1,-8.049213E-1,1.0025345E0,-2.751932E-1,2.2418419E-1,1.3808718E-1,1.865066E-1,-1.1996E0,-1.266702E-1,1.6088705E0,-1.6666405E0,9.372282E-3,-3.9456448E-1,-2.9007542E-1,-4.172182E-2,2.1840155E-1,-2.1512024E-2,1.615217E-3,-2.2608452E-1,-3.0735278E-1,1.5331642E-1,8.0800965E-2,4.7314778E-1,-8.516729E-2,-3.9035374E-1,-1.2734273E-1,-4.507637E-1,2.7309997E-2,-4.2382646E-1,-1.5680503E-2,1.8431215E-1,-7.514906E-2,9.607639E-2,5.314761E-1,-5.8489036E-2,-1.414375E-1,-1.598638E-2,-2.0912373E-1,-5.965744E-1,1.4110284E-1,-1.8045162E-1,2.3458643E-1,-6.718976E-2,-2.4427469E-1,-5.6382656E-2,-2.198763E-2,4.7992036E-1,-2.5900323E-2,-3.4011173E-1,-3.8867125E-1,6.288325E-2],"split_indices":[4,1,4,1,1,1,4,0,2,3,2,0,3,2,1,1,1,1,3,0,0,2,4,0,2,0,2,1,0,0,3,0,1,1,0,0,0,3,3,2,0,1,3,0,0,3,0,3,0,0,0,0,0,1,0,2,3,0,0,0,0,0,0,0,0,0,0,0,0,0,0,0,0,0,0,0,0,0,0,0,0,0,0,0,0,0,0,0,0,0,0,0,0,0,0,0,0],"split_type":[0,0,0,0,0,0,0,0,0,0,0,0,0,0,0,0,0,0,0,0,0,0,0,0,0,0,0,0,0,0,0,0,0,0,0,0,0,0,0,0,0,0,0,0,0,0,0,0,0,0,0,0,0,0,0,0,0,0,0,0,0,0,0,0,0,0,0,0,0,0,0,0,0,0,0,0,0,0,0,0,0,0,0,0,0,0,0,0,0,0,0,0,0,0,0,0,0],"sum_hessian":[8E2,3.4E2,4.6E2,2.6E2,8E1,3.5E1,4.25E2,2.13E2,4.7E1,6E0,7.4E1,8E0,2.7E1,1.5E1,4.1E2,5.3E1,1.6E2,7E0,4E1,4E0,2E0,6.2E1,1.2E1,3E0,5E0,2.1E1,6E0,4E0,1.1E1,4.03E2,7E0,3E0,5E1,1.18E2,4.2E1,5E0,2E0,1.7E1,2.3E1,5.9E1,3E0,3E0,9E0,1E0,2E0,4E0,1E0,1.6E1,5E0,2E0,4E0,1E0,3E0,1E1,1E0,2.64E2,1.39E2,1E0,6E0,2E0,1E0,3.8E1,1.2E1,9.3E1,2.5E1,4E0,3.8E1,1E0,4E0,1E0,1E0,6E0,1.1E1,1.6E1,7E0,2.9E1,3E1,2E0,1E0,7E0,2E0,2E0,2E0,7E0,9E0,1E0,4E0,2E0,2E0,2E0,1E0,1E0,9E0,2.54E2,1E1,2E0,1.37E2],"tree_param":{"num_deleted":"0","num_feature":"6","num_nodes":"97","size_leaf_vector":"1"}},{"base_weights":[4.8621926E-3,-9.277184E-1,6.0293186E-2,-2.1029632E0,-1.3907103E-1,-3.7116785E-2,7.394776E-1,-1.37918E0,-3.7089639E0,-1.5705062E0,1.2062066E0,1.0546442E-1,-1.0924698E0,3.3461318E0,4.9410588E-1,-1.08458675E-1,-2.0730853E0,-4.1229182E-1,-1.0265732E-1,1.24351144E-1,-2.0440447E0,3.1314194E0,-4.2520428E-1,3.0785669E-2,2.7593036E0,1.8233765E0,-1.3141267E0,8.91182E-2,3.5695276E-1,1.6923211E0,-2.916652E-1,-1.9838333E-1,6.633829E-1,3.5149574E-2,-2.6804593E0,-3.2887064E-2,7.4200824E-2,-2.628545E-1,-8.1693554E-1,3.3566517E-1,8.900132E-2,-3.29464E0,2.5292723E0,7.72934E-2,-3.7208068E0,-2.225335E-1,3.2399683E0,-1.3798724E-1,2.7400008E-1,-1.6409746E0,1.2287728E0,2.4934762E0,-8.9917994E-1,-2.6807492E0,6.959504E-1,-1.0668341E-2,1.2123217E-1,1.7676068E-2,-1.2403632E-2,-3.1383532E-1,-1.0238166E-1,7.787843E-2,-1.4105617E-1,4.4435885E-2,-4.3404794E-1,3.0131793E-1,2.9682208E-2,-4.7284323E-3,1.1443957E-1,1.4653563E-1,-4.8293933E-1,4.0032673E-1,-1.1476492E-1,-6.4004265E-2,-3.3659372E-1,4.1017792E-1,-8.913601E-2,3.192831E-1,3.9200373E-3,-2.1118844E-1,2.2301903E-1,4.7410694E-3,-4.3223864E-1,9.6798204E-2,-2.891089E-1],"categories":[],"categories_nodes":[],"categories_segments":[],"categories_sizes":[],"default_left":[0,0,0,0,0,0,0,0,0,0,0,0,0,0,0,0,0,0,0,0,0,0,0,0,0,0,0,0,0,0,0,0,0,0,0,0,0,0,0,0,0,0,0,0,0,0,0,0,0,0,0,0,0,0,0,0,0,0,0,0,0,0,0,0,0,0,0,0,0,0,0,0,0,0,0,0,0,0,0,0,0,0,0,0,0],"id":16,"left_children":[1,3,5,7,9,11,13,15,17,19,21,23,25,27,29,31,33,-1,-1,35,37,39,41,43,45,47,49,-1,-1,51,53,-1,55,57,59,-1,-1,-1,61,-1,-1,63,65,67,69,-1,71,-1,-1,73,75,77,79,81,83,-1,-1,-1,-1,-1,-1,-1,-1,-1,-1,-1,-1,-1,-1,-1,-1,-1,-1,-1,-1,-1,-1,-1,-1,-1,-1,-1,-1,-1,-1],"loss_changes":[4.1462727E1,4.141595E1,5.0110065E1,1.5807808E1,5.5813328E1,9.987915E1,5.910859E1,1.2119799E1,1.319458E0,1.1490299E1,4.8443695E1,1.1585351E2,5.345524E1,1.2062988E0,8.3347595E1,1.0000994E1,1.1618603E1,0E0,0E0,1.3637673E0,5.7423477E0,5.463867E-1,8.4632164E1,9.97401E1,4.5545067E1,2.13979E1,6.3520866E1,0E0,0E0,7.4908875E1,1.2927847E2,0E0,2.2429304E0,8.955221E-2,2.0968628E0,0E0,0E0,0E0,5.834827E0,0E0,0E0,2.1480698E1,4.5071163E0,7.503067E1,4.732196E1,0E0,5.483029E1,0E0,0E0,1.11799286E2,5.8476555E1,4.6217896E1,3.886491E1,7.18633E1,4.0854248E1,0E0,0E0,0E0,0E0,0E0,0E0,0E0,0E0,0E0,0E0,0E0,0E0,0E0,0E0,0E0,0E0,0E0,0E0,0E0,0E0,0E0,0E0,0E0,0E0,0E0,0E0,0E0,0E0,0E0,0E0],"parents":[2147483647,0,0,1,1,2,2,3,3,4,4,5,5,6,6,7,7,8,8,9,9,10,10,11,11,12,12,13,13,14,14,15,15,16,16,19,19,20,20,21,21,22,22,23,23,24,24,25,25,26,26,29,29,30,30,32,32,33,33,34,34,38,38,41,41,42,42,43,43,44,44,46,46,49,49,50,50,51,51,52,52,53,53,54,54],"right_children":[2,4,6,8,10,12,14,16,18,20,22,24,26,28,30,32,34,-1,-1,36,38,40,42,44,46,48,50,-1,-1,52,54,-1,56,58,60,-1,-1,-1,62,-1,-1,64,66,68,70,-1,72,-1,-1,74,76,78,80,82,84,-1,-1,-1,-1,-1,-1,-1,-1,-1,-1,-1,-1,-1,-1,-1,-1,-1,-1,-1,-1,-1,-1,-1,-1,-1,-1,-1,-1,-1,-1],"split_conditions":[-1.5386347E0,-5.191613E-1,1.266103E0,9.27552E-1,-6.1014974E-1,9.094483E-1,-1.4453655E0,-3.4706244E-1,-7.114221E-1,-4.353008E-3,-1.680678E0,8.3652794E-1,-1.3118304E0,-4.369946E-1,-4.286569E-1,-1.4707978E0,-1.2403556E0,-4.1229182E-1,-1.0265732E-1,-2.0497845E-1,2.671652E-1,1.188264E0,4.702972E-1,8.130785E-1,-8.4099233E-1,-9.168901E-1,1.3463529E0,8.91182E-2,3.5695276E-1,1.6354666E0,-3.4894684E-1,-1.9838333E-1,-1.2428522E0,-1.6554713E0,-1.5568916E0,-3.2887064E-2,7.4200824E-2,-2.628545E-1,1.1273261E0,3.3566517E-1,8.900132E-2,-2.0497845E-1,5.259739E-1,1.4312532E0,-8.486906E-1,-2.225335E-1,1.5341275E0,-1.3798724E-1,2.7400008E-1,1.9243062E-1,-7.0426947E-1,1.349802E0,-1.0907432E0,-5.3690535E-1,1.6862361E0,-1.0668341E-2,1.2123217E-1,1.7676068E-2,-1.2403632E-2,-3.1383532E-1,-1.0238166E-1,7.787843E-2,-1.4105617E-1,4.4435885E-2,-4.3404794E-1,3.0131793E-1,2.9682208E-2,-4.7284323E-3,1.1443957E-1,1.4653563E-1,-4.8293933E-1,4.0032673E-1,-1.1476492E-1,-6.4004265E-2,-3.3659372E-1,4.1017792E-1,-8.913601E-2,3.192831E-1,3.9200373E-3,-2.1118844E-1,2.2301903E-1,4.7410694E-3,-4.3223864E-1,9.6798204E-2,-2.891089E-1],"split_indices":[2,0,4,1,1,4,0,3,0,0,2,4,2,3,3,0,0,0,0,0,3,1,3,4,0,0,3,0,0,4,0,0,3,0,2,0,0,0,3,0,0,0,1,2,1,0,0,0,0,3,1,0,3,1,2,0,0,0,0,0,0,0,0,0,0,0,0,0,0,0,0,0,0,0,0,0,0,0,0,0,0,0,0,0,0],"split_type":[0,0,0,0,0,0,0,0,0,0,0,0,0,0,0,0,0,0,0,0,0,0,0,0,0,0,0,0,0,0,0,0,0,0,0,0,0,0,0,0,0,0,0,0,0,0,0,0,0,0,0,0,0,0,0,0,0,0,0,0,0,0,0,0,0,0,0,0,0,0,0,0,0,0,0,0,0,0,0,0,0,0,0,0,0],"sum_hessian":[8E2,4.4E1,7.56E2,1.7E1,2.7E1,6.62E2,9.4E1,1.3E1,4E0,1.3E1,1.4E1,5.84E2,7.8E1,7E0,8.7E1,5E0,8E0,3E0,1E0,3E0,1E1,6E0,8E0,5.69E2,1.5E1,5E0,7.3E1,1E0,6E0,3.4E1,5.3E1,1E0,4E0,2E0,6E0,2E0,1E0,6E0,4E0,5E0,1E0,4E0,4E0,5.63E2,6E0,1E0,1.4E1,1E0,4E0,6.5E1,8E0,2.6E1,8E0,1.5E1,3.8E1,2E0,2E0,1E0,1E0,4E0,2E0,1E0,3E0,1E0,3E0,3E0,1E0,5.05E2,5.8E1,1E0,5E0,1.2E1,2E0,4.2E1,2.3E1,3E0,5E0,2E1,6E0,6E0,2E0,6E0,9E0,3.6E1,2E0],"tree_param":{"num_deleted":"0","num_feature":"6","num_nodes":"85","size_leaf_vector":"1"}},{"base_weights":[3.2793751E-3,2.821197E0,-1.4403018E-2,8.175063E-2,3.117743E-1,-3.3585407E-2,2.520073E0,-2.1511369E0,-1.196248E-2,3.7579545E-1,2.9539743E-2,-2.755318E0,1.03906445E-1,5.8964753E-1,-9.56474E-2,-3.8497876E-2,4.292884E-2,-1.5548466E-1,-3.8376638E-1,-4.8620778E-1,1.5891585E0,-9.049133E-1,1.1969297E-2,-1.6867219E-1,4.655331E-2,5.3664953E-2,2.7070162E-1,1.8789373E-1,-1.323469E-1,6.1252117E-2,-1.6163317E-2],"categories":[],"categories_nodes":[],"categories_segments":[],"categories_sizes":[],"default_left":[0,0,0,0,0,0,0,0,0,0,0,0,0,0,0,0,0,0,0,0,0,0,0,0,0,0,0,0,0,0,0],"id":17,"left_children":[1,3,5,-1,-1,7,9,11,13,-1,15,17,-1,19,21,-1,-1,-1,-1,23,25,27,29,-1,-1,-1,-1,-1,-1,-1,-1],"loss_changes":[3.9952484E1,4.221573E-1,3.883263E1,0E0,0E0,3.62381E1,1.8386902E1,1.828262E1,3.957776E1,0E0,6.623766E-1,3.128296E0,0E0,1.0400426E2,6.01033E1,0E0,0E0,0E0,0E0,5.44864E1,5.7375046E1,9.686761E1,6.3695953E1,0E0,0E0,0E0,0E0,0E0,0E0,0E0,0E0],"parents":[2147483647,0,0,1,1,2,2,5,5,6,6,7,7,8,8,10,10,11,11,13,13,14,14,19,19,20,20,21,21,22,22],"right_children":[2,4,6,-1,-1,8,10,12,14,-1,16,18,-1,20,22,-1,-1,-1,-1,24,26,28,30,-1,-1,-1,-1,-1,-1,-1,-1],"split_conditions":[-1.6792371E0,-9.953395E-1,1.7381282E0,8.175063E-2,3.117743E-1,-1.7039697E0,-1.5771979E-1,1.4635243E0,-1.250138E0,3.7579545E-1,-4.4911307E-1,8.9516E-1,1.03906445E-1,8.6437516E-2,-8.6294097E-1,-3.8497876E-2,4.292884E-2,-1.5548466E-1,-3.8376638E-1,-1.5066622E0,-1.492915E0,-1.2110605E0,-3.292098E-1,-1.6867219E-1,4.655331E-2,5.3664953E-2,2.7070162E-1,1.8789373E-1,-1.323469E-1,6.1252117E-2,-1.6163317E-2],"split_indices":[3,0,3,0,0,1,1,2,1,0,0,2,0,0,1,0,0,0,0,1,1,0,1,0,0,0,0,0,0,0,0],"split_type":[0,0,0,0,0,0,0,0,0,0,0,0,0,0,0,0,0,0,0,0,0,0,0,0,0,0,0,0,0,0,0],"sum_hessian":[8E2,4E0,7.96E2,1E0,3E0,7.91E2,5E0,7E0,7.84E2,3E0,2E0,6E0,1E0,9.5E1,6.89E2,1E0,1E0,4E0,2E0,4.6E1,4.9E1,8E1,6.09E2,2E1,2.6E1,2.6E1,2.3E1,1E1,7E1,1.36E2,4.73E2],"tree_param":{"num_deleted":"0","num_feature":"6","num_nodes":"31","size_leaf_vector":"1"}},{"base_weights":[3.7518071E-3,2.5480855E-1,-1.8196207E-1,-6.883562E-2,1.2945162E0,-1.8916278E0,-3.705614E-2,2.3805772E-1,-1.4356344E0,4.966245E0,9.3456125E-1,1.8586751E0,-2.5564728E0,2.2319083E0,-1.252955E-1,9.9986166E-2,2.55393E0,1.8136263E0,-2.034621E0,5.6551516E-1,2.1626537E-1,-1.219227E-1,1.603256E0,3.2371873E-1,-5.988992E-1,-3.459179E0,-6.0071754E-1,-1.0175111E0,3.3998408E0,-6.6924095E-2,-3.0573895E0,1.8979335E-1,-4.4153696E-1,-9.6825075E-1,3.3551912E0,3.9007456E0,-2.9651542E0,-2.4151084E0,5.874076E-1,8.6899644E-1,-3.5019422E0,-7.2812515E-1,2.5437434E0,-1.8267442E-2,-7.156744E-2,-1.6330397E0,-4.0807652E0,4.0073037E-1,-2.453434E0,1.380366E-1,-1.9620718E0,3.925812E0,-1.1929214E-1,-1.6574365E0,5.1381662E-2,2.0271206E-2,-3.5520773E0,8.975476E-3,2.935178E-1,1.3729668E-2,-1.5896729E-1,4.2378488E-1,9.717431E-2,7.7805474E-2,4.3696728E-1,-7.498167E-2,-3.6979148E-1,-2.6211175E-1,7.246933E-2,1.9011731E-1,-1.3600823E-1,7.475013E-4,5.174735E-1,-4.590403E-1,-5.2052643E-2,8.723574E-2,-3.7834653E-1,3.25407E-1,2.8797552E-2,-6.899184E-2,-2.6605618E-1,-4.8282233E-1,-1.6202053E-1,1.7688043E-1,-7.738749E-2,-4.1995177E-1,1.3924089E-1,-8.313186E-2,-2.677166E-1,-1.4034462E-2,4.3464622E-1,3.7661735E-2,-2.8083897E-1,6.1752643E-2,-3.8272638E-2,-3.7872377E-1,-1.0705576E-1],"categories":[],"categories_nodes":[],"categories_segments":[],"categories_sizes":[],"default_left":[0,0,0,0,0,0,0,0,0,0,0,0,0,0,0,0,0,0,0,0,0,0,0,0,0,0,0,0,0,0,0,0,0,0,0,0,0,0,0,0,0,0,0,0,0,0,0,0,0,0,0,0,0,0,0,0,0,0,0,0,0,0,0,0,0,0,0,0,0,0,0,0,0,0,0,0,0,0,0,0,0,0,0,0,0,0,0,0,0,0,0,0,0,0,0,0,0],"id":18,"left_children":[1,3,5,7,9,11,13,15,17,19,21,23,25,27,29,31,33,35,37,-1,-1,39,41,-1,43,45,47,49,51,53,55,57,-1,59,61,63,65,67,69,71,73,75,77,-1,-1,79,81,83,85,-1,87,89,-1,91,93,-1,95,-1,-1,-1,-1,-1,-1,-1,-1,-1,-1,-1,-1,-1,-1,-1,-1,-1,-1,-1,-1,-1,-1,-1,-1,-1,-1,-1,-1,-1,-1,-1,-1,-1,-1,-1,-1,-1,-1,-1,-1],"loss_changes":[3.739277E1,1.14834015E2,1.1413836E2,1.098212E2,1.02412964E2,9.451297E1,8.556995E1,6.8172455E1,9.7110695E1,1.2897491E0,5.3180374E1,2.2265524E1,5.2651672E1,6.418102E1,7.013822E1,8.315681E1,3.7114906E1,9.135738E1,4.2322266E1,0E0,0E0,1.03522964E2,1.0271335E2,0E0,1.5078902E-2,1.7173111E1,2.1392555E1,1.4033078E1,3.3671112E1,7.6104546E1,1.3621902E1,5.4665436E1,0E0,2.2792912E0,1.6919594E1,5.3860474E0,2.0971775E0,2.5185272E1,1.7937023E1,8.8988976E1,2.0326653E1,7.1760796E1,5.193985E1,0E0,0E0,4.947977E0,1.976477E1,1.4224408E1,3.2708107E1,0E0,1.0088005E0,1.9424744E1,0E0,6.660849E1,9.289088E1,0E0,3.0441284E-2,0E0,0E0,0E0,0E0,0E0,0E0,0E0,0E0,0E0,0E0,0E0,0E0,0E0,0E0,0E0,0E0,0E0,0E0,0E0,0E0,0E0,0E0,0E0,0E0,0E0,0E0,0E0,0E0,0E0,0E0,0E0,0E0,0E0,0E0,0E0,0E0,0E0,0E0,0E0,0E0],"parents":[2147483647,0,0,1,1,2,2,3,3,4,4,5,5,6,6,7,7,8,8,9,9,10,10,11,11,12,12,13,13,14,14,15,15,16,16,17,17,18,18,21,21,22,22,24,24,25,25,26,26,27,27,28,28,29,29,30,30,31,31,33,33,34,34,35,35,36,36,37,37,38,38,39,39,40,40,41,41,42,42,45,45,46,46,47,47,48,48,50,50,51,51,53,53,54,54,56,56],"right_children":[2,4,6,8,10,12,14,16,18,20,22,24,26,28,30,32,34,36,38,-1,-1,40,42,-1,44,46,48,50,52,54,56,58,-1,60,62,64,66,68,70,72,74,76,78,-1,-1,80,82,84,86,-1,88,90,-1,92,94,-1,96,-1,-1,-1,-1,-1,-1,-1,-1,-1,-1,-1,-1,-1,-1,-1,-1,-1,-1,-1,-1,-1,-1,-1,-1,-1,-1,-1,-1,-1,-1,-1,-1,-1,-1,-1,-1,-1,-1,-1,-1],"split_conditions":[-2.8099483E-1,7.524429E-1,-1.1912733E-1,2.2940859E-1,8.1855E-1,-1.492915E0,-6.711382E-2,1.6047267E0,-1.1937747E0,-5.244168E-1,-2.5441387E-1,-1.7247531E-1,5.899979E-1,-1.381461E-1,1.7873579E0,1.541282E0,-1.7389172E0,6.7251354E-1,-5.149922E-1,5.6551516E-1,2.1626537E-1,-6.6926455E-1,-1.2471663E0,3.2371873E-1,8.080168E-1,-1.1572198E0,-1.8517503E-1,-1.0712667E0,8.564894E-1,-1.4702952E0,-1.6701734E0,1.4676229E0,-4.4153696E-1,-1.6554713E0,5.1026535E-1,-1.5642384E0,-1.0841775E0,1.1719954E0,-4.5882946E-1,-8.2958573E-1,-1.19534075E-1,-1.4672241E0,8.1779796E-1,-1.8267442E-2,-7.156744E-2,-1.3691904E-1,5.8951855E-1,1.0025345E0,-9.090938E-2,1.380366E-1,6.089474E-1,-1.1996E0,-1.1929214E-1,-7.260499E-1,-4.6332674E-3,2.0271206E-2,1.077634E0,8.975476E-3,2.935178E-1,1.3729668E-2,-1.5896729E-1,4.2378488E-1,9.717431E-2,7.7805474E-2,4.3696728E-1,-7.498167E-2,-3.6979148E-1,-2.6211175E-1,7.246933E-2,1.9011731E-1,-1.3600823E-1,7.475013E-4,5.174735E-1,-4.590403E-1,-5.2052643E-2,8.723574E-2,-3.7834653E-1,3.25407E-1,2.8797552E-2,-6.899184E-2,-2.6605618E-1,-4.8282233E-1,-1.6202053E-1,1.7688043E-1,-7.738749E-2,-4.1995177E-1,1.3924089E-1,-8.313186E-2,-2.677166E-1,-1.4034462E-2,4.3464622E-1,3.7661735E-2,-2.8083897E-1,6.1752643E-2,-3.8272638E-2,-3.7872377E-1,-1.0705576E-1],"split_indices":[4,1,4,1,1,1,4,3,2,3,2,4,3,2,1,3,2,1,4,0,0,4,4,0,0,3,4,1,0,3,3,3,0,0,0,0,0,2,2,4,0,4,3,0,0,0,0,0,0,0,1,1,0,0,3,0,4,0,0,0,0,0,0,0,0,0,0,0,0,0,0,0,0,0,0,0,0,0,0,0,0,0,0,0,0,0,0,0,0,0,0,0,0,0,0,0,0],"split_type":[0,0,0,0,0,0,0,0,0,0,0,0,0,0,0,0,0,0,0,0,0,0,0,0,0,0,0,0,0,0,0,0,0,0,0,0,0,0,0,0,0,0,0,0,0,0,0,0,0,0,0,0,0,0,0,0,0,0,0,0,0,0,0,0,0,0,0,0,0,0,0,0,0,0,0,0,0,0,0,0,0,0,0,0,0,0,0,0,0,0,0,0,0,0,0,0,0],"sum_hessian":[8E2,3.4E2,4.6E2,2.6E2,8E1,3.5E1,4.25E2,2.13E2,4.7E1,6E0,7.4E1,5E0,3E1,1.5E1,4.1E2,2.02E2,1.1E1,7E0,4E1,4E0,2E0,2.9E1,4.5E1,3E0,2E0,2E1,1E1,4E0,1.1E1,4.03E2,7E0,1.99E2,3E0,2E0,9E0,5E0,2E0,3.5E1,5E0,2.3E1,6E0,1.3E1,3.2E1,1E0,1E0,6E0,1.4E1,7E0,3E0,1E0,3E0,1E1,1E0,2.7E1,3.76E2,1E0,6E0,1.93E2,6E0,1E0,1E0,6E0,3E0,1E0,4E0,1E0,1E0,3.3E1,2E0,3E0,2E0,2E1,3E0,4E0,2E0,9E0,4E0,2.4E1,8E0,4E0,2E0,1E1,4E0,3E0,4E0,2E0,1E0,2E0,1E0,1E0,9E0,1E1,1.7E1,1.63E2,2.13E2,5E0,1E0],"tree_param":{"num_deleted":"0","num_feature":"6","num_nodes":"97","size_leaf_vector":"1"}},{"base_weights":[2.751652E-3,-4.6979524E-2,8.8050073E-1,-3.557097E-1,-2.8345332E-2,-8.75869E-2,1.8988585E0,-5.585658E-3,-2.4628325E0,1.5346167E0,-1.2400476E0,2.5283108E0,-9.6157156E-2,-2.2986436E-2,3.2454062E-1,-4.0085626E0,9.343284E-1,-1.9498412E-1,2.6494613E0,2.3843136E-1,-2.0428007E0,3.0611122E0,1.1301233E0,-1.705578E-1,1.1349478E0,-9.7547746E-1,3.8016524E-2,-4.4185516E-1,-1.1843028E-1,-5.824051E-2,1.9838977E-1,3.9166722E-1,-7.6811343E-1,-2.6917539E0,-1.1947262E0,6.694619E-2,3.5182056E-1,-9.881921E-2,2.436329E0,1.811378E-1,3.0567837E-1,-3.275356E-2,-2.3868103E-1,1.8030399E-1,-7.970931E-3,1.4191423E-1,-2.5713125E-1,-4.883844E-2,-3.6713424E-1,-1.8216601E-1,1.2834382E-1,6.551661E-2,2.811661E-1,4.1628364E-3,4.168892E-2],"categories":[],"categories_nodes":[],"categories_segments":[],"categories_sizes":[],"default_left":[0,0,0,0,0,0,0,0,0,0,0,0,0,0,0,0,0,0,0,0,0,0,0,0,0,0,0,0,0,0,0,0,0,0,0,0,0,0,0,0,0,0,0,0,0,0,0,0,0,0,0,0,0,0,0],"id":19,"left_children":[1,3,5,-1,7,9,11,13,15,17,19,21,23,25,-1,27,29,-1,31,-1,33,35,37,-1,39,41,43,-1,-1,-1,-1,-1,45,47,49,-1,-1,-1,51,-1,53,-1,-1,-1,-1,-1,-1,-1,-1,-1,-1,-1,-1,-1,-1],"loss_changes":[3.5006214E1,4.9544E1,4.2558277E1,0E0,4.1874786E1,4.4902092E1,2.6614227E1,4.250194E1,4.0502968E1,4.401232E1,4.560321E1,8.459869E0,1.3823937E1,4.344135E1,0E0,5.566788E-1,5.931183E0,0E0,3.765474E1,0E0,3.3884163E0,9.669968E0,1.9009295E1,0E0,1.6900725E0,4.036901E1,1.4621927E2,0E0,0E0,0E0,0E0,0E0,1.548123E1,1.1157349E1,1.3213504E1,0E0,0E0,0E0,8.3200645E-1,0E0,7.0741236E-2,0E0,0E0,0E0,0E0,0E0,0E0,0E0,0E0,0E0,0E0,0E0,0E0,0E0,0E0],"parents":[2147483647,0,0,1,1,2,2,4,4,5,5,6,6,7,7,8,8,9,9,10,10,11,11,12,12,13,13,15,15,16,16,18,18,20,20,21,21,22,22,24,24,25,25,26,26,32,32,33,33,34,34,38,38,40,40],"right_children":[2,4,6,-1,8,10,12,14,16,18,20,22,24,26,-1,28,30,-1,32,-1,34,36,38,-1,40,42,44,-1,-1,-1,-1,-1,46,48,50,-1,-1,-1,52,-1,54,-1,-1,-1,-1,-1,-1,-1,-1,-1,-1,-1,-1,-1,-1],"split_conditions":[1.5243709E0,-1.7572784E0,4.9764585E-2,-3.557097E-1,1.5020227E0,1.6081073E0,6.0974514E-1,1.4963696E0,2.876132E-1,-1.4441955E0,-1.7045292E0,5.3083926E-1,1.6081073E0,-1.5206339E0,3.2454062E-1,1.5092481E0,3.2924137E-1,-1.9498412E-1,1.0025032E0,2.3843136E-1,-7.387399E-1,-1.4694507E0,9.5277566E-1,-1.705578E-1,1.6449627E0,3.971545E-1,-1.3242285E0,-4.4185516E-1,-1.1843028E-1,-5.824051E-2,1.9838977E-1,3.9166722E-1,1.5341275E0,-1.0507355E0,-1.5603693E-2,6.694619E-2,3.5182056E-1,-9.881921E-2,1.6081073E0,1.811378E-1,-1.1430318E0,-3.275356E-2,-2.3868103E-1,1.8030399E-1,-7.970931E-3,1.4191423E-1,-2.5713125E-1,-4.883844E-2,-3.6713424E-1,-1.8216601E-1,1.2834382E-1,6.551661E-2,2.811661E-1,4.1628364E-3,4.168892E-2],"split_indices":[0,4,2,0,0,0,3,0,1,4,4,4,0,1,0,0,1,0,5,0,1,4,4,0,0,2,1,0,0,0,0,0,0,3,2,0,0,0,0,0,1,0,0,0,0,0,0,0,0,0,0,0,0,0,0],"split_type":[0,0,0,0,0,0,0,0,0,0,0,0,0,0,0,0,0,0,0,0,0,0,0,0,0,0,0,0,0,0,0,0,0,0,0,0,0,0,0,0,0,0,0,0,0,0,0,0,0,0,0,0,0,0,0],"sum_hessian":[8E2,7.58E2,4.2E1,3E0,7.55E2,2.2E1,2E1,7.49E2,6E0,9E0,1.3E1,1.5E1,5E0,7.46E2,3E0,4E0,2E0,2E0,7E0,2E0,1.1E1,1E1,5E0,2E0,3E0,4.4E1,7.02E2,3E0,1E0,1E0,1E0,5E0,2E0,5E0,6E0,2E0,8E0,2E0,3E0,1E0,2E0,3.1E1,1.3E1,4.3E1,6.59E2,1E0,1E0,2E0,3E0,5E0,1E0,1E0,2E0,1E0,1E0],"tree_param":{"num_deleted":"0","num_feature":"6","num_nodes":"55","size_leaf_vector":"1"}},{"base_weights":[2.5048296E-3,-8.2830936E-1,5.1889416E-2,-1.8923942E0,-1.146723E-1,-3.3840984E-2,6.4965117E-1,-1.2377253E0,-3.3469884E0,-1.4382557E0,1.128317E0,1.6087636E-1,-5.862825E-1,3.052016E0,4.2387196E-1,-1.596241E-1,-1.8189343E0,-3.6867088E-1,-9.9405386E-2,1.8971145E-1,-1.8994932E0,2.8222367E-1,-3.1454462E-1,6.780202E-1,-2.2480123E-1,-1.9410144E0,-1.09156735E-1,8.278137E-2,3.2515E-1,1.5017012E0,-2.8257057E-1,-1.069252E0,1.1064211E-1,6.052017E-3,-2.3412235E0,-1.9623773E-1,6.737795E-2,-2.3780315E-1,-8.49641E-1,-2.9492009E0,2.3830206E0,4.70361E-1,4.7841682E0,-1.1594889E0,2.5624058E-1,-2.422103E0,2.3921144E0,2.5159109E0,-4.5060766E-1,2.2162156E0,-8.0869734E-1,-2.398874E0,5.929019E-1,-1.838079E-1,-2.0028336E-2,1.3441706E-2,-1.2533903E-2,-2.762689E-1,-8.583735E-2,-4.024744E-4,-2.9033184E-2,5.3347923E-2,-1.328791E-1,4.297204E-2,-3.9013615E-1,2.8221837E-1,3.1318426E-2,-8.849319E-2,8.0209784E-2,6.005013E-1,1.4516473E-1,-4.8303854E-2,-3.87547E-1,-1.0040829E-1,5.8440417E-2,-1.14016406E-1,-3.1969374E-1,7.57418E-2,3.2294396E-1,4.9623328E-1,7.9646654E-2,1.3402681E-1,-8.886672E-2,2.8695285E-1,-6.0325763E-3,2.1813479E-1,-1.9746171E-1,2.1270445E-1,-3.1973657E-1,9.3033366E-2,-1.8877006E-1],"categories":[],"categories_nodes":[],"categories_segments":[],"categories_sizes":[],"default_left":[0,0,0,0,0,0,0,0,0,0,0,0,0,0,0,0,0,0,0,0,0,0,0,0,0,0,0,0,0,0,0,0,0,0,0,0,0,0,0,0,0,0,0,0,0,0,0,0,0,0,0,0,0,0,0,0,0,0,0,0,0,0,0,0,0,0,0,0,0,0,0,0,0,0,0,0,0,0,0,0,0,0,0,0,0,0,0,0,0,0,0],"id":20,"left_children":[1,3,5,7,9,11,13,15,17,19,21,23,25,27,29,31,33,-1,-1,35,37,-1,39,41,43,45,47,-1,-1,49,51,53,-1,55,57,59,-1,-1,61,63,65,67,69,71,73,75,77,79,81,83,85,87,89,-1,-1,-1,-1,-1,-1,-1,-1,-1,-1,-1,-1,-1,-1,-1,-1,-1,-1,-1,-1,-1,-1,-1,-1,-1,-1,-1,-1,-1,-1,-1,-1,-1,-1,-1,-1,-1,-1],"loss_changes":[3.2907543E1,3.395466E1,3.881548E1,1.2998352E1,4.768841E1,7.141319E1,5.0234715E1,8.482082E0,3.31913E-1,1.0872669E1,3.7549095E1,9.8082756E1,1.1161142E2,8.5791016E-1,6.742969E1,8.092824E0,8.592709E0,0E0,0E0,8.795236E-1,3.505867E0,0E0,7.0992424E1,1.7681238E2,1.2709102E2,9.960181E1,1.1676048E2,0E0,0E0,5.95707E1,1.0147163E2,2.3042097E0,0E0,6.7445755E-2,2.0033684E0,5.308982E-2,0E0,0E0,4.022492E0,1.776287E1,3.6611137E0,9.10795E1,3.1967728E1,1.7450171E2,7.792855E1,3.707988E1,4.3978233E0,5.914496E1,9.140973E1,4.0330048E1,3.56827E1,6.462346E1,3.4400517E1,0E0,0E0,0E0,0E0,0E0,0E0,0E0,0E0,0E0,0E0,0E0,0E0,0E0,0E0,0E0,0E0,0E0,0E0,0E0,0E0,0E0,0E0,0E0,0E0,0E0,0E0,0E0,0E0,0E0,0E0,0E0,0E0,0E0,0E0,0E0,0E0,0E0,0E0],"parents":[2147483647,0,0,1,1,2,2,3,3,4,4,5,5,6,6,7,7,8,8,9,9,10,10,11,11,12,12,13,13,14,14,15,15,16,16,19,19,20,20,22,22,23,23,24,24,25,25,26,26,29,29,30,30,31,31,33,33,34,34,35,35,38,38,39,39,40,40,41,41,42,42,43,43,44,44,45,45,46,46,47,47,48,48,49,49,50,50,51,51,52,52],"right_children":[2,4,6,8,10,12,14,16,18,20,22,24,26,28,30,32,34,-1,-1,36,38,-1,40,42,44,46,48,-1,-1,50,52,54,-1,56,58,60,-1,-1,62,64,66,68,70,72,74,76,78,80,82,84,86,88,90,-1,-1,-1,-1,-1,-1,-1,-1,-1,-1,-1,-1,-1,-1,-1,-1,-1,-1,-1,-1,-1,-1,-1,-1,-1,-1,-1,-1,-1,-1,-1,-1,-1,-1,-1,-1,-1,-1],"split_conditions":[-1.5386347E0,-5.191613E-1,1.266103E0,9.27552E-1,-6.1014974E-1,5.3083926E-1,-1.4453655E0,-3.4706244E-1,-7.114221E-1,-4.353008E-3,-1.680678E0,-3.114886E-1,-8.130618E-1,-4.369946E-1,-4.286569E-1,-1.2428522E0,-1.2403556E0,-3.6867088E-1,-9.9405386E-2,-2.0497845E-1,2.671652E-1,2.8222367E-1,4.702972E-1,-3.5844433E-1,4.4798586E-1,1.5948466E0,-5.952095E-1,8.278137E-2,3.2515E-1,1.6354666E0,-3.4894684E-1,-1.4707978E0,1.1064211E-1,-1.6554713E0,-1.5568916E0,-3.2933795E-1,6.737795E-2,-2.3780315E-1,1.1273261E0,-2.0497845E-1,5.259739E-1,-1.0475935E0,8.186825E-1,3.3349183E-1,-1.3130065E0,-1.3225324E0,1.5638741E0,8.130785E-1,-1.045344E0,1.349802E0,1.0025032E0,-1.1551586E0,1.6578962E0,-1.838079E-1,-2.0028336E-2,1.3441706E-2,-1.2533903E-2,-2.762689E-1,-8.583735E-2,-4.024744E-4,-2.9033184E-2,5.3347923E-2,-1.328791E-1,4.297204E-2,-3.9013615E-1,2.8221837E-1,3.1318426E-2,-8.849319E-2,8.0209784E-2,6.005013E-1,1.4516473E-1,-4.8303854E-2,-3.87547E-1,-1.0040829E-1,5.8440417E-2,-1.14016406E-1,-3.1969374E-1,7.57418E-2,3.2294396E-1,4.9623328E-1,7.9646654E-2,1.3402681E-1,-8.886672E-2,2.8695285E-1,-6.0325763E-3,2.1813479E-1,-1.9746171E-1,2.1270445E-1,-3.1973657E-1,9.3033366E-2,-1.8877006E-1],"split_indices":[2,0,4,1,1,4,0,3,0,0,2,0,0,3,3,3,0,0,0,0,3,0,3,0,0,3,0,0,0,4,0,0,0,0,2,0,0,0,3,0,1,1,2,0,4,0,2,4,2,0,5,1,3,0,0,0,0,0,0,0,0,0,0,0,0,0,0,0,0,0,0,0,0,0,0,0,0,0,0,0,0,0,0,0,0,0,0,0,0,0,0],"split_type":[0,0,0,0,0,0,0,0,0,0,0,0,0,0,0,0,0,0,0,0,0,0,0,0,0,0,0,0,0,0,0,0,0,0,0,0,0,0,0,0,0,0,0,0,0,0,0,0,0,0,0,0,0,0,0,0,0,0,0,0,0,0,0,0,0,0,0,0,0,0,0,0,0,0,0,0,0,0,0,0,0,0,0,0,0,0,0,0,0,0,0],"sum_hessian":[8E2,4.4E1,7.56E2,1.7E1,2.7E1,6.62E2,9.4E1,1.3E1,4E0,1.3E1,1.4E1,4.9E2,1.72E2,7E0,8.7E1,5E0,8E0,3E0,1E0,3E0,1E1,6E0,8E0,2.09E2,2.81E2,4.4E1,1.28E2,1E0,6E0,3.4E1,5.3E1,3E0,2E0,2E0,6E0,2E0,1E0,6E0,4E0,4E0,4E0,2E2,9E0,9.5E1,1.86E2,4E1,4E0,1.4E1,1.14E2,2.6E1,8E0,1.5E1,3.8E1,1E0,2E0,1E0,1E0,4E0,2E0,1E0,1E0,1E0,3E0,1E0,3E0,3E0,1E0,3.9E1,1.61E2,6E0,3E0,7.7E1,1.8E1,3.8E1,1.48E2,1.6E1,2.4E1,2E0,2E0,5E0,9E0,2.2E1,9.2E1,2E1,6E0,2E0,6E0,2E0,1.3E1,3.4E1,4E0],"tree_param":{"num_deleted":"0","num_feature":"6","num_nodes":"91","size_leaf_vector":"1"}},{"base_weights":[2.7526359E-3,2.517351E0,-1.3026215E-2,7.360239E-2,2.7786767E-1,-3.0105172E-2,2.2435672E0,1.5983288E-1,-2.262973E-1,3.3303425E-1,4.667759E-2,5.5053756E-2,2.535697E0,-5.3705144E-1,5.307659E-1,-2.9817438E-2,3.6819078E-2,3.0324608E-1,-4.322782E-1,3.3726757E0,-1.0276524E0,1.8500888E0,-6.333867E-1,2.5560095E0,2.2167166E-1,-1.4727453E-2,9.066444E-2,-1.0672436E-1,6.1771054E-2,4.0664038E-1,6.217542E-2,-2.4816124E-1,1.6671138E-1,2.1617444E-1,2.9842569E-2,-2.2680907E-1,-4.990017E-2,-2.4631777E-1,3.0904642E-1,-1.4621935E-2,2.0264466E-1],"categories":[],"categories_nodes":[],"categories_segments":[],"categories_sizes":[],"default_left":[0,0,0,0,0,0,0,0,0,0,0,0,0,0,0,0,0,0,0,0,0,0,0,0,0,0,0,0,0,0,0,0,0,0,0,0,0,0,0,0,0],"id":21,"left_children":[1,3,5,-1,-1,7,9,11,13,-1,15,17,19,21,23,-1,-1,25,27,29,31,33,35,37,39,-1,-1,-1,-1,-1,-1,-1,-1,-1,-1,-1,-1,-1,-1,-1,-1],"loss_changes":[3.1814445E1,2.8236198E-1,3.078413E1,0E0,0E0,2.9549536E1,1.4169701E1,1.0018361E2,9.203666E1,0E0,4.424084E-1,4.693953E1,5.4167534E1,6.4872284E1,7.079639E1,0E0,0E0,6.999726E1,8.7997795E1,2.4189178E1,1.9809458E1,4.674309E0,5.752269E1,4.785028E1,6.6692345E1,0E0,0E0,0E0,0E0,0E0,0E0,0E0,0E0,0E0,0E0,0E0,0E0,0E0,0E0,0E0,0E0],"parents":[2147483647,0,0,1,1,2,2,5,5,6,6,7,7,8,8,10,10,11,11,12,12,13,13,14,14,17,17,18,18,19,19,20,20,21,21,22,22,23,23,24,24],"right_children":[2,4,6,-1,-1,8,10,12,14,-1,16,18,20,22,24,-1,-1,26,28,30,32,34,36,38,40,-1,-1,-1,-1,-1,-1,-1,-1,-1,-1,-1,-1,-1,-1,-1,-1],"split_conditions":[-1.6792371E0,-9.953395E-1,1.7381282E0,7.360239E-2,2.7786767E-1,-4.6332674E-3,-1.5771979E-1,-8.807989E-2,7.3966247E-1,3.3303425E-1,-4.4911307E-1,4.632497E-1,1.254677E0,-1.5642384E0,9.137821E-1,-2.9817438E-2,3.6819078E-2,-3.9843932E-1,2.7022788E-1,8.186825E-1,1.4829421E0,1.354495E0,-1.4017688E0,-1.2385964E0,1.1303937E0,-1.4727453E-2,9.066444E-2,-1.0672436E-1,6.1771054E-2,4.0664038E-1,6.217542E-2,-2.4816124E-1,1.6671138E-1,2.1617444E-1,2.9842569E-2,-2.2680907E-1,-4.990017E-2,-2.4631777E-1,3.0904642E-1,-1.4621935E-2,2.0264466E-1],"split_indices":[3,0,3,0,0,3,1,3,2,0,0,2,0,0,2,0,0,2,4,2,0,3,4,4,0,0,0,0,0,0,0,0,0,0,0,0,0,0,0,0,0],"split_type":[0,0,0,0,0,0,0,0,0,0,0,0,0,0,0,0,0,0,0,0,0,0,0,0,0,0,0,0,0,0,0,0,0,0,0,0,0,0,0,0,0],"sum_hessian":[8E2,4E0,7.96E2,1E0,3E0,7.91E2,5E0,4.02E2,3.89E2,3E0,2E0,3.86E2,1.6E1,2.76E2,1.13E2,1E0,1E0,2.56E2,1.3E2,1.3E1,3E0,1E1,2.66E2,1.4E1,9.9E1,1.47E2,1.09E2,8.1E1,4.9E1,1E1,3E0,2E0,1E0,8E0,2E0,1.9E1,2.47E2,1E0,1.3E1,8.3E1,1.6E1],"tree_param":{"num_deleted":"0","num_feature":"6","num_nodes":"41","size_leaf_vector":"1"}},{"base_weights":[4.137631E-3,2.3750162E-1,-1.6848983E-1,-5.069061E-2,1.1631889E0,-1.6794212E0,-4.0409967E-2,2.2297011E-1,-1.2697053E0,4.556588E0,8.309625E-1,1.6162907E0,-2.2631261E0,-9.0088016E-1,1.520172E-1,1.0640241E0,-1.1930647E-1,1.5782356E0,-1.7944326E0,5.1841074E-1,1.9918598E-1,4.4554064E-1,2.6348557E0,2.8266212E-1,-5.3624697E-2,-3.0566132E0,-5.425484E-1,-2.5124478E-1,-2.7722604E0,2.175094E0,-7.325167E-2,1.699755E0,-4.6419615E-1,-5.341553E-1,1.0269673E0,3.4682934E0,-2.7279582E0,-1.3551134E0,-4.1312763E-1,6.901905E-1,-3.3355925E0,-1.08003855E-1,3.4685142E0,-1.4491992E0,-3.6029654E0,3.6937892E-1,-2.230766E0,-9.5693207E-1,1.4093169E0,2.399089E0,-4.215041E0,2.5301878E0,-1.2094316E0,-6.1607707E-1,4.6320647E-1,7.782142E-2,5.197057E-1,4.0786204E-1,-1.238564E-1,6.0413804E-2,-1.1189457E-1,5.6440037E-2,3.6312073E-1,1.1976147E-1,4.3042287E-1,-6.404717E-2,-3.4514657E-1,-2.8710306E-1,1.5234052E-2,1.3241568E-1,-6.4395E-2,-3.865061E-1,-8.735933E-2,-7.021468E-2,8.372126E-2,4.554399E-1,-5.8334988E-2,-5.6542903E-2,-2.4390832E-1,-1.13698974E-1,-4.1247103E-1,1.5916696E-1,-6.823294E-2,-3.891605E-1,1.3758755E-1,-2.5585958E-1,1.2711464E-2,2.022266E-1,-2.3295172E-1,3.2098055E-1,7.886763E-2,-1.484525E-1,-5.704898E-1,4.2705193E-1,1.8720743E-1,-1.7505834E-1,2.070117E-2,-1.3797402E-1,8.140257E-3,3.3112365E-1,7.614424E-3],"categories":[],"categories_nodes":[],"categories_segments":[],"categories_sizes":[],"default_left":[0,0,0,0,0,0,0,0,0,0,0,0,0,0,0,0,0,0,0,0,0,0,0,0,0,0,0,0,0,0,0,0,0,0,0,0,0,0,0,0,0,0,0,0,0,0,0,0,0,0,0,0,0,0,0,0,0,0,0,0,0,0,0,0,0,0,0,0,0,0,0,0,0,0,0,0,0,0,0,0,0,0,0,0,0,0,0,0,0,0,0,0,0,0,0,0,0,0,0,0,0],"id":22,"left_children":[1,3,5,7,9,11,13,15,17,19,21,23,25,27,29,31,33,35,37,-1,-1,39,41,-1,-1,43,45,47,49,51,53,55,57,59,61,63,65,67,-1,69,71,73,75,77,79,81,83,85,87,89,91,93,95,97,99,-1,-1,-1,-1,-1,-1,-1,-1,-1,-1,-1,-1,-1,-1,-1,-1,-1,-1,-1,-1,-1,-1,-1,-1,-1,-1,-1,-1,-1,-1,-1,-1,-1,-1,-1,-1,-1,-1,-1,-1,-1,-1,-1,-1,-1,-1],"loss_changes":[3.2308327E1,9.102954E1,8.91448E1,8.7351776E1,8.753117E1,7.2911896E1,7.067312E1,6.173179E1,7.456288E1,9.3989563E-1,5.0970554E1,1.714746E1,4.066458E1,9.412926E1,1.5921126E2,6.1024292E1,7.330469E1,7.4573006E1,3.6493088E1,0E0,0E0,6.058058E1,3.0100525E1,0E0,0E0,1.3221085E1,1.7758848E1,7.048702E1,1.593347E2,4.5123962E1,9.201434E1,1.3776346E2,7.189004E1,7.589593E1,4.734058E1,6.2340393E0,2.3203678E0,8.270369E1,0E0,5.1600697E1,1.8377075E0,2.8342211E0,4.665538E1,4.7446823E0,1.46094055E1,1.1369988E1,2.9314571E1,7.324892E1,4.596177E1,3.9964447E0,5.662018E1,2.8656021E1,3.4284334E0,8.373672E1,1.7502385E2,0E0,0E0,0E0,0E0,0E0,0E0,0E0,0E0,0E0,0E0,0E0,0E0,0E0,0E0,0E0,0E0,0E0,0E0,0E0,0E0,0E0,0E0,0E0,0E0,0E0,0E0,0E0,0E0,0E0,0E0,0E0,0E0,0E0,0E0,0E0,0E0,0E0,0E0,0E0,0E0,0E0,0E0,0E0,0E0,0E0,0E0],"parents":[2147483647,0,0,1,1,2,2,3,3,4,4,5,5,6,6,7,7,8,8,9,9,10,10,11,11,12,12,13,13,14,14,15,15,16,16,17,17,18,18,21,21,22,22,25,25,26,26,27,27,28,28,29,29,30,30,31,31,32,32,33,33,34,34,35,35,36,36,37,37,39,39,40,40,41,41,42,42,43,43,44,44,45,45,46,46,47,47,48,48,49,49,50,50,51,51,52,52,53,53,54,54],"right_children":[2,4,6,8,10,12,14,16,18,20,22,24,26,28,30,32,34,36,38,-1,-1,40,42,-1,-1,44,46,48,50,52,54,56,58,60,62,64,66,68,-1,70,72,74,76,78,80,82,84,86,88,90,92,94,96,98,100,-1,-1,-1,-1,-1,-1,-1,-1,-1,-1,-1,-1,-1,-1,-1,-1,-1,-1,-1,-1,-1,-1,-1,-1,-1,-1,-1,-1,-1,-1,-1,-1,-1,-1,-1,-1,-1,-1,-1,-1,-1,-1,-1,-1,-1,-1],"split_conditions":[-2.8099483E-1,7.524429E-1,-1.1912733E-1,2.2940859E-1,8.1855E-1,-1.492915E0,-1.0294163E0,-8.6533135E-1,-1.1937747E0,-5.244168E-1,1.3255587E0,-1.7247531E-1,5.899979E-1,9.861058E-1,-7.152431E-1,-3.2139263E-1,-1.9968395E-1,6.7251354E-1,1.1919925E0,5.1841074E-1,1.9918598E-1,1.2437596E0,-1.4694507E0,2.8266212E-1,-5.3624697E-2,-1.1572198E0,-1.8517503E-1,6.762874E-1,-1.5938579E0,1.6759243E0,-1.381461E-1,-5.89267E-1,-1.4840152E0,-1.0901715E0,1.354495E0,5.648828E-1,-1.0841775E0,-4.7720197E-1,-4.1312763E-1,-6.6926455E-1,-9.168901E-1,1.1652228E0,1.3868803E-1,-1.3691904E-1,-2.3766452E-1,1.0025345E0,-9.090938E-2,-7.268972E-1,1.6354666E0,-7.8221667E-1,-4.314598E-1,2.4387318E-1,5.3098876E-2,8.3652794E-1,1.2685367E-1,7.782142E-2,5.197057E-1,4.0786204E-1,-1.238564E-1,6.0413804E-2,-1.1189457E-1,5.6440037E-2,3.6312073E-1,1.1976147E-1,4.3042287E-1,-6.404717E-2,-3.4514657E-1,-2.8710306E-1,1.5234052E-2,1.3241568E-1,-6.4395E-2,-3.865061E-1,-8.735933E-2,-7.021468E-2,8.372126E-2,4.554399E-1,-5.8334988E-2,-5.6542903E-2,-2.4390832E-1,-1.13698974E-1,-4.1247103E-1,1.5916696E-1,-6.823294E-2,-3.891605E-1,1.3758755E-1,-2.5585958E-1,1.2711464E-2,2.022266E-1,-2.3295172E-1,3.2098055E-1,7.886763E-2,-1.484525E-1,-5.704898E-1,4.2705193E-1,1.8720743E-1,-1.7505834E-1,2.070117E-2,-1.3797402E-1,8.140257E-3,3.3112365E-1,7.614424E-3],"split_indices":[4,1,4,1,1,1,3,0,2,3,2,4,3,1,3,1,1,1,3,0,0,2,4,0,0,3,4,0,3,1,2,1,3,1,3,1,0,3,0,4,0,1,3,0,4,0,0,1,4,0,2,4,0,4,2,0,0,0,0,0,0,0,0,0,0,0,0,0,0,0,0,0,0,0,0,0,0,0,0,0,0,0,0,0,0,0,0,0,0,0,0,0,0,0,0,0,0,0,0,0,0],"split_type":[0,0,0,0,0,0,0,0,0,0,0,0,0,0,0,0,0,0,0,0,0,0,0,0,0,0,0,0,0,0,0,0,0,0,0,0,0,0,0,0,0,0,0,0,0,0,0,0,0,0,0,0,0,0,0,0,0,0,0,0,0,0,0,0,0,0,0,0,0,0,0,0,0,0,0,0,0,0,0,0,0,0,0,0,0,0,0,0,0,0,0,0,0,0,0,0,0,0,0,0,0],"sum_hessian":[8E2,3.4E2,4.6E2,2.6E2,8E1,3.5E1,4.25E2,2.13E2,4.7E1,6E0,7.4E1,5E0,3E1,7.7E1,3.48E2,6.1E1,1.52E2,7E0,4E1,4E0,2E0,6.2E1,1.2E1,3E0,2E0,2E1,1E1,5.8E1,1.9E1,3.4E1,3.14E2,4.3E1,1.8E1,1.12E2,4E1,5E0,2E0,3.5E1,5E0,5.9E1,3E0,3E0,9E0,6E0,1.4E1,7E0,3E0,4.1E1,1.7E1,4E0,1.5E1,3.1E1,3E0,1.56E2,1.58E2,3.5E1,8E0,2E0,1.6E1,3.8E1,7.4E1,3.5E1,5E0,2E0,3E0,1E0,1E0,1.7E1,1.8E1,4E1,1.9E1,2E0,1E0,2E0,1E0,7E0,2E0,4E0,2E0,3E0,1.1E1,3E0,4E0,2E0,1E0,1.6E1,2.5E1,1.5E1,2E0,2E0,2E0,6E0,9E0,7E0,2.4E1,2E0,1E0,7.4E1,8.2E1,1.8E1,1.4E2],"tree_param":{"num_deleted":"0","num_feature":"6","num_nodes":"101","size_leaf_vector":"1"}},{"base_weights":[4.6546855E-3,3.8685117E-2,-1.0986924E0,2.2866735E-3,2.5764413E0,-1.524969E0,1.4139328E0,3.553715E-2,-1.1268221E0,-1.7077069E-1,3.175627E0,1.600462E-1,-1.7612636E0,2.0879124E-1,-3.0400276E-2,-4.3448866E-3,2.704403E0,-5.405566E-2,-3.9785233E0,3.867896E-1,2.710341E-1,-2.113575E0,1.7637599E-1,-7.0790476E-1,6.938795E-2,3.4334884E0,-2.2932251E-1,-1.6605352E0,2.4781344E0,-4.8876572E-1,2.8357316E-2,7.807465E-2,-3.7419535E-2,-2.504692E0,-2.1627212E-1,1.5984984E-1,-8.304976E-2,6.698487E-2,-1.4882088E-1,2.5335106E-1,3.1890806E-3,3.884763E-1,-3.139925E-2,-3.7742317E-1,8.646727E-3,5.8435377E-2,3.1187758E-1,-2.6563048E-1,-2.668624E-2,-9.410577E-2,3.3900898E-2],"categories":[],"categories_nodes":[],"categories_segments":[],"categories_sizes":[],"default_left":[0,0,0,0,0,0,0,0,0,0,0,0,0,0,0,0,0,0,0,0,0,0,0,0,0,0,0,0,0,0,0,0,0,0,0,0,0,0,0,0,0,0,0,0,0,0,0,0,0,0,0],"id":23,"left_children":[1,3,5,7,9,11,13,15,17,-1,19,-1,21,-1,-1,23,25,27,29,-1,31,33,35,37,39,41,-1,43,45,-1,-1,-1,-1,47,49,-1,-1,-1,-1,-1,-1,-1,-1,-1,-1,-1,-1,-1,-1,-1,-1],"loss_changes":[3.011795E1,7.185825E1,2.786196E1,2.8873379E1,3.366004E1,1.8327812E1,5.2661443E0,7.952229E1,6.708755E1,0E0,1.9059258E1,0E0,1.4025833E1,0E0,0E0,3.8281338E1,4.7954422E1,7.326952E1,2.4634903E1,0E0,1.278796E0,1.2073448E1,7.055139E0,7.625153E1,6.1640778E1,1.8131226E1,0E0,4.0945312E1,6.6701736E0,0E0,0E0,0E0,0E0,4.041107E0,1.9288659E0,0E0,0E0,0E0,0E0,0E0,0E0,0E0,0E0,0E0,0E0,0E0,0E0,0E0,0E0,0E0,0E0],"parents":[2147483647,0,0,1,1,2,2,3,3,4,4,5,5,6,6,7,7,8,8,10,10,12,12,15,15,16,16,17,17,18,18,20,20,21,21,22,22,23,23,24,24,25,25,27,27,28,28,33,33,34,34],"right_children":[2,4,6,8,10,12,14,16,18,-1,20,-1,22,-1,-1,24,26,28,30,-1,32,34,36,38,40,42,-1,44,46,-1,-1,-1,-1,48,50,-1,-1,-1,-1,-1,-1,-1,-1,-1,-1,-1,-1,-1,-1,-1,-1],"split_conditions":[1.7672374E0,1.6973646E0,1.3255587E0,1.5901923E0,-1.7572784E0,-1.5992283E0,-9.2683595E-1,1.5256697E0,9.0024656E-1,-1.7077069E-1,1.1190708E0,1.600462E-1,1.8595767E0,2.0879124E-1,-3.0400276E-2,-1.4055959E0,9.670625E-1,1.5104415E-1,6.3060766E-1,3.867896E-1,1.163283E0,1.0964829E0,-9.104293E-1,-5.754093E-1,-1.3554078E0,1.2987801E0,-2.2932251E-1,1.6302229E0,4.111764E-1,-4.8876572E-1,2.8357316E-2,7.807465E-2,-3.7419535E-2,1.5086707E0,-5.191613E-1,1.5984984E-1,-8.304976E-2,6.698487E-2,-1.4882088E-1,2.5335106E-1,3.1890806E-3,3.884763E-1,-3.139925E-2,-3.7742317E-1,8.646727E-3,5.8435377E-2,3.1187758E-1,-2.6563048E-1,-2.668624E-2,-9.410577E-2,3.3900898E-2],"split_indices":[1,1,2,1,4,0,3,1,2,0,0,0,1,0,0,3,2,2,3,0,0,4,3,0,3,4,0,1,2,0,0,0,0,3,0,0,0,0,0,0,0,0,0,0,0,0,0,0,0,0,0],"split_type":[0,0,0,0,0,0,0,0,0,0,0,0,0,0,0,0,0,0,0,0,0,0,0,0,0,0,0,0,0,0,0,0,0,0,0,0,0,0,0,0,0,0,0,0,0,0,0,0,0,0,0],"sum_hessian":[8E2,7.77E2,2.3E1,7.67E2,1E1,2E1,3E0,7.46E2,2.1E1,1E0,9E0,1E0,1.9E1,2E0,1E0,7.36E2,1E1,1.6E1,5E0,7E0,2E0,1.6E1,3E0,6.9E1,6.67E2,9E0,1E0,1E1,6E0,4E0,1E0,1E0,1E0,1.3E1,3E0,1E0,2E0,2.5E1,4.4E1,9E0,6.58E2,8E0,1E0,4E0,6E0,2E0,4E0,1.2E1,1E0,1E0,2E0],"tree_param":{"num_deleted":"0","num_feature":"6","num_nodes":"51","size_leaf_vector":"1"}},{"base_weights":[4.392674E-3,-4.00561E-2,7.88863E-1,-3.10331E-1,-2.379542E-2,1.5098057E0,-4.0256736E-1,-3.3442583E-3,-2.211592E0,9.714568E-1,3.6842498E-1,6.135206E-1,-1.6223564E0,-1.932156E-2,2.9812533E-1,-3.6518588E0,9.260499E-1,-1.1649517E-1,1.978454E0,-2.918343E-1,2.0445116E-1,8.746293E-2,-2.6004565E0,-8.4388685E-1,3.7247658E-2,-4.0631858E-1,-1.0032759E-1,-3.537598E-2,1.7428346E-1,2.7683349E0,-1.904952E0,2.5209746E0,-4.8943233E-1,1.6647415E-1,-1.4074129E-1,-7.950986E-2,-3.3043608E-1,1.9768424E-2,-1.5331122E-1,1.7360385E-1,-6.833972E-3,3.060034E-1,8.007693E-2,1.3320413E-1,-2.5576714E-1,7.218428E-2,2.880527E-1,-8.019471E-2,6.7798616E-3],"categories":[],"categories_nodes":[],"categories_segments":[],"categories_sizes":[],"default_left":[0,0,0,0,0,0,0,0,0,0,0,0,0,0,0,0,0,0,0,0,0,0,0,0,0,0,0,0,0,0,0,0,0,0,0,0,0,0,0,0,0,0,0,0,0,0,0,0,0],"id":24,"left_children":[1,3,5,-1,7,9,11,13,15,17,-1,19,21,23,-1,25,27,29,31,33,-1,-1,35,37,39,-1,-1,-1,-1,41,43,45,47,-1,-1,-1,-1,-1,-1,-1,-1,-1,-1,-1,-1,-1,-1,-1,-1],"loss_changes":[2.7961462E1,3.7732384E1,3.7542778E1,0E0,3.3818302E1,2.8027374E1,2.206537E1,3.5821968E1,3.50151E1,2.5428465E1,0E0,1.3552205E1,2.1812853E1,3.4875256E1,0E0,1.3706665E0,3.7525313E0,6.7186264E1,1.7300396E1,1.7621977E1,0E0,0E0,4.9975014E0,3.4761173E1,1.25678246E2,0E0,0E0,0E0,0E0,4.193039E-1,2.0309706E1,4.3895416E0,5.767996E-1,0E0,0E0,0E0,0E0,0E0,0E0,0E0,0E0,0E0,0E0,0E0,0E0,0E0,0E0,0E0,0E0],"parents":[2147483647,0,0,1,1,2,2,4,4,5,5,6,6,7,7,8,8,9,9,11,11,12,12,13,13,15,15,16,16,17,17,18,18,19,19,22,22,23,23,24,24,29,29,30,30,31,31,32,32],"right_children":[2,4,6,-1,8,10,12,14,16,18,-1,20,22,24,-1,26,28,30,32,34,-1,-1,36,38,40,-1,-1,-1,-1,42,44,46,48,-1,-1,-1,-1,-1,-1,-1,-1,-1,-1,-1,-1,-1,-1,-1,-1],"split_conditions":[1.5243709E0,-1.7572784E0,6.835838E-1,-3.10331E-1,1.5020227E0,1.7263442E-1,4.8708174E-2,1.4963696E0,2.876132E-1,4.9764585E-2,3.6842498E-1,3.5873374E-1,1.0025032E0,-1.5066622E0,2.9812533E-1,1.5092481E0,3.2924137E-1,-1.0901715E0,6.0974514E-1,-8.4634686E-1,2.0445116E-1,8.746293E-2,-6.3523096E-1,-1.6483965E0,-1.3242285E0,-4.0631858E-1,-1.0032759E-1,-3.537598E-2,1.7428346E-1,1.6707712E0,-1.4795569E0,-1.4694507E0,1.5792855E0,1.6647415E-1,-1.4074129E-1,-7.950986E-2,-3.3043608E-1,1.9768424E-2,-1.5331122E-1,1.7360385E-1,-6.833972E-3,3.060034E-1,8.007693E-2,1.3320413E-1,-2.5576714E-1,7.218428E-2,2.880527E-1,-8.019471E-2,6.7798616E-3],"split_indices":[0,4,4,0,0,4,3,0,1,2,0,1,5,1,0,0,1,1,3,1,0,0,2,1,1,0,0,0,0,0,2,4,0,0,0,0,0,0,0,0,0,0,0,0,0,0,0,0,0],"split_type":[0,0,0,0,0,0,0,0,0,0,0,0,0,0,0,0,0,0,0,0,0,0,0,0,0,0,0,0,0,0,0,0,0,0,0,0,0,0,0,0,0,0,0,0,0,0,0,0,0],"sum_hessian":[8E2,7.58E2,4.2E1,3E0,7.55E2,2.6E1,1.6E1,7.49E2,6E0,2.2E1,4E0,9E0,7E0,7.46E2,3E0,4E0,2E0,1.1E1,1.1E1,6E0,3E0,2E0,5E0,4.7E1,6.99E2,3E0,1E0,1E0,1E0,4E0,7E0,9E0,2E0,2E0,4E0,2E0,3E0,1.9E1,2.8E1,4E1,6.59E2,3E0,1E0,1E0,6E0,2E0,7E0,1E0,1E0],"tree_param":{"num_deleted":"0","num_feature":"6","num_nodes":"49","size_leaf_vector":"1"}},{"base_weights":[4.5523606E-3,2.2054726E-1,-1.5522815E-1,-3.925341E-2,1.05496E0,-1.5183669E0,-3.966894E-2,2.0583957E-1,-1.1311419E0,4.2065673E0,7.467438E-1,8.2143754E-1,-2.2162194E0,